tree
version=v3
num_class=1
num_tree_per_iteration=1
label_index=0
max_feature_idx=29
objective=binary sigmoid:1
feature_names=mean_radius mean_texture mean_perimeter mean_area mean_smoothness mean_compactness mean_concavity mean_concave_points mean_symmetry mean_fractal_dimension radius_error texture_error perimeter_error area_error smoothness_error compactness_error concavity_error concave_points_error symmetry_error fractal_dimension_error worst_radius worst_texture worst_perimeter worst_area worst_smoothness worst_compactness worst_concavity worst_concave_points worst_symmetry worst_fractal_dimension
feature_infos=-1:11:12:13:14:10:15:9:16:19:20:17:18:8:21:7 -1:18:17:15:21:19:16:20:14:13:22:23:24:25:12:28:27:26:10:11:29 [47.920000000000002:188.5] [170.40000000000001:2499] [0.052630000000000003:0.16339999999999999] [0.026499999999999999:0.34539999999999998] [0:0.42680000000000001] [0:0.20119999999999999] [0.1167:0.30399999999999999] [0.049959999999999997:0.097439999999999999] [0.1115:2.8730000000000002] [0.36209999999999998:3.6469999999999998] [0.75700000000000001:21.98] [7.2279999999999998:525.60000000000002] [0.0026670000000000001:0.031130000000000001] [0.0037460000000000002:0.13539999999999999] [0:0.39600000000000002] [0:0.052789999999999997] [0.0078820000000000001:0.078950000000000006] [0.00089479999999999996:0.029839999999999998] [8.6780000000000008:33.119999999999997] [12.02:44.869999999999997] [54.490000000000002:220.80000000000001] [223.59999999999999:3216] [0.084839999999999999:0.22259999999999999] [0.043270000000000003:0.93789999999999996] [0:1.252] [0:0.2903] [0.1565:0.66379999999999995] [0.055039999999999999:0.17299999999999999]
tree_sizes=1336 2049 2013 2471 2129 2148 1834 1834 1834 1834 1919 2023 2021 2024 2038 2263 2015 2018 2018 2041 2256 2026 2130 2135 2231 1923 2369 1918 2034 2033 1798 2042 2042 2045 2031 2052 2044 2153 2048 1940 2147 2161 1920 2025 2036 2132 2139 2128 2240 2137 2255 2032 2026 2029 2147 2148 1926 2039 1928 2036 2148 1818 1702 2034 1812 2130 2129 2128 2222 2231 2043 2026 2242 1925 2027 2149 1934 1942 1935 1932 2042 2360 2254 2134 2048 2264 2255 2158 2036 2163 2055 1831 1832 1842 1831 2233 2254 2255 2240 2254 2044 2138 1948 2143 2043 1945 1830 1931 1835 1834 2357 2143 2360 2365 2236 2140 2045 2037 2239 2463 2254 2147 2253 2252 2139 2480 2349 2153 2348 2461 2143 2030 2029 1929 1926 2154 2178 2129 2132 1936 2174 2249 2149 2145 2256 1811 1813 2286 2044 2362 2293 1963 2142 2175 2041 2175 2263 2273 2274 2293 1936 2132 2237 2126 2037 2144 1930 2247 2045 2408 2262 2716 2047 2048 2044 2061 2188 2078 2049 2075 1804 1926 2047 2123 2064 2264 1920 2030 2520 2182 1832 1831 1833 1833 1852 2152 2267 2179 2262 2081 2041 2025 2015 2408 2045 2041 2181 2255 2080 2065 2068 1938 1932 2042 2159 1851 1838 2053 1861 1817 1638 1614 1618 1849 1639 1967 1958 2358 1953 1940 2165 1933 2192 2163 2420 2038 2146 2042 2051 2143 2288 2165 2286 2188 2156 2157 2276 2185 2187 2060 2416 2194 2388 2383 2257 2054 2049 2169 1971 1969 1835 1928 1817 2053 2585 2152 1857 1831 1858 1836 2305 2159 1939 1973 2276 1928 2164 1827 1925 2287 2204 2149 2175 2270 2045 2048 2134 2057 2128 2133 2169 2066 2057 2037 2059 1861 2063 1860 2270 2324 2392 2124 2617 2612 2037 2292 2042 2275 2405 2272 2063 1949 2154 2184 2189 1825 1818 1830 1946 2051 2305 2239 2259 2072 2257 1863 1840 1864 1836 2081 2304 2173 1958 2395 2143 2304 2047 2258 2416 2195 2149 2160 2133 2178 2262 2049 2085 2047 2160 2084 2047 2272 2273 2090 2095 2058 2644 2277 2078 2390 2270 2269 1982 1953 2490 1863 1857 1943 1974 1950 1970 2048 2061 1929 2048 2085 2285 2088 2201 2391 1854 1965 2146 2142 1842 2141 2269 1828 1927 1813 1976 1952 1951 1954 1950 2304 2503 2039 2493 2607 1980 2270 2061 2161 2154 2317 2177 2200 2168 2176 2385 1957 1958 2266 2383 2394 2433 2322 2289 2200 2334 2452 2032 2033 2290 2056 2059 1857 2057 2092 2380 2249 2047 2297 2081 2491 2289 2206 1968 2504 2163 2157 2074 2163 2163 2512 2362 2363 2365 2059 2258 2403 2198 2303 2278 2308 2305 2502 2391 2308 2703 2210 2214 2697 2821 2197 1933 2077 2060 2192 1815 1866 1830 1830 1841 2093 2072 2101 2308 2055 2482 2261 2600 2492 2550 2255 2258 2487 2257 2197 2194 2307 2302 2272 2159 2273 2049 2394 2321 2397 2309 2144 2143 2413 2402 2148 2275 2277 2278 2170 2315 2396 1955 2503 2507 2195 2070 2174 2176 2143 2051 2524 2528 2421 2423 2071 2187 2067 2071 2065 2642 2487 2855 2408 2493 2756 2282 2283 2202 2315 2289 2356 2398 2308 2500 2065 2062 2174 1873 1966 2182 2065 2197 2198 2063 2432 2104 1954 1960 1955 1870 2407 2186 2095 2063 2286 2166 2322 2321 2300 2498 2272 2634 2083 2616 2215 2427 2430 2297 2414 2392 1857 2390 1855 2185 2302 2390 2408 2427 2434 2422 2294 2487 2650 2426 2393 2329 2101 2506 2179 1956 2098 1838 2092 2094 2553 2663 2512 2619 2283 2268 2144 2181 2158 2279 2253 2652 2605 2599 2614 2318 1967 2169 2187 2050 2409 2507 2581 2445 2440 2061 2157 2327 2212 1723 2178 2154 2215 3098 2479 2426 2217 2351 2414 2577 2370 2139 2357 2309 2206 2474 2325 2443 2318 2353 1908 2433 2128 2102 1911 2439 2133 2430 2431 2325 2863 2086 2558 2472 2692 2414 2245 2436 2367 2151 1938 1942 2172 1938 1819 1772 2110 1722 1715 1995 1919 2102 2533 1923 1906 2329 2097 2049 1831 2103 2473 2451 2443 2420 2447 2494 2485 2205 2561 2771 2434 2542 2153 2161 2268 2309 2200 2474 2369 2783 2266 2202 2098 2205 2202 2370 2768 2366 2364 2215 2140 2037 2147 2637 2036 2097 2206 2053 2095 2047 2428 2315 2694 2262 2353 2206 2156 2264 2360 2220 2198 2467 2577 2658 2479 2261 2445 2575 2434 2262 1877 1877 2143 1723 1988 2135 2140 1855 2258 2314 2475 2554 2568 2697 2557 2659 2308 2310 2216 1938 2047 2053 2368 2421 2541 2358 2141 2085 2213 2025 2085 1984 2320 2474 2248 2795 2217 2272 2879 2270 2542 2556 2330 2483 2666 2153 2085 2087 1975 2089 2328 2680 2797 2540 2560 2475 2542 2370 2558 2475 2477 2539 2233 2190 2534 2251 2318 2265 2371 2706 2654 2114 2682 2579 2693 2354 2690 2466 2423 2645 2474 2384 2323 2482 2371 2243 2141 2133 2551 2682 2334 2047 2212 2103 2159 2550 2250 2474 2325 2249 2932 2989 2885 2655 2485 1939 1933 2329 2096 1826 2153 2267 2762 2262 2211 2096 2782 2314 2326 2109 2379 2546 2487 2768 2987 2110 1938 1991 2043 2479 2265 2363 2265 2445 2138 2269 2271 2320 2270 2337 2002 2115 2111 2163 2272 2170 2113 2168 2282 2230 1993 2161 1993 2108 1997 2162 2414 2001 2165 2713 2222 2338 2330 2332 2337 1772 1877 1876 1725 1727 2264 2428 2540 2576 2688 2450 2331 1950 2381 2802 2561 2666 2482 2562 2488 2546 2610 2665 2691 2317 2183 2132 2161 2112 2113 2384 2234 2449 2237 2168 2384 2385 2119 2277 2383 2151 2721 2603 1996 2814 2651 2674 2544 2658 2591 2045 2057 2104 2327 2334 2159 2217 2159 2114 2055 2105 2335 2042 2257 2097 2340 2315 2260 2335 2459 2479 2154 2193 2153 2205 2368 2377 2656 2366 2777

Tree=0
num_leaves=12
num_cat=0
split_feature=22 27 21 3 11 4 24 5 21 4 2
split_gain=233.757 33.542 18.8743 8.94204 8.05589 3.236 3.21694 2.45758 0.261642 0.567135 3.55271e-15
threshold=116.05000000000003 0.1358 25.970000000000002 683.50000000000011 0.99260000000000004 0.083535000000000012 0.14065000000000003 0.11495000000000001 33.190000000000005 0.090295000000000014 88.460000000000022
decision_type=2 2 2 2 2 2 2 2 2 2 2
left_child=1 3 6 8 -5 -2 -3 -4 -1 -10 -9
right_child=5 2 7 4 -6 -7 -8 10 9 -11 -12
leaf_value=0.088865692768213003 0.08288860860759438 0.088865692768213003 0.08288860860759438 0.088865692768213003 0.08056418698957607 0.078903885833848636 0.084596346939199735 0.078903885833848636 0.088865692768213003 0.086873331381340138 0.078903885833848636
leaf_weight=42.082892194390297 1.1754997819662119 2.3509995639324175 1.1754997819662092 1.1754997819662087 1.4105997383594511 22.804695770144463 1.645699694752693 1.6456996947526934 2.3509995639324184 1.1754997819662092 1.4105997383594511
leaf_count=179 5 10 5 5 6 97 7 7 10 5 6
internal_value=0.0851008 0.087828 0.0834579 0.0885741 0.0843376 0.0790992 0.0871077 0.0800108 0.0888143 0.0882016 0.0789039
internal_weight=0 56.424 8.2285 48.1955 2.5861 23.9802 3.9967 4.2318 45.6094 3.5265 3.0563
internal_count=342 240 35 205 11 102 17 18 194 15 13
shrinkage=0.170774


Tree=1
num_leaves=18
num_cat=0
split_feature=22 7 21 17 18 19 7 20 21 21 22 4 4 6 15 2 2
split_gain=226.414 28.5316 25.5847 3.70638 3.64549 3.1635 1.3548 1.83942 0.60042 0.257701 0.568604 0.00056423 0.000450531 0.000108141 2.84834e-05 2.84217e-14 1.42109e-14
threshold=116.05000000000003 0.051855000000000005 25.970000000000002 0.013720000000000001 0.011615000000000002 0.0016240000000000002 0.045125000000000005 15.570000000000002 27.570000000000004 33.190000000000005 91.995000000000019 0.084195000000000006 0.10375000000000002 0.089420000000000013 0.039685000000000005 134.25000000000003 100.10000000000001
decision_type=2 2 2 2 2 2 2 2 2 2 2 2 2 2 2 2 2
left_child=1 4 3 -3 -1 -2 9 -8 -4 13 -11 -7 -10 -6 -5 16 -13
right_child=5 2 8 14 6 11 7 -9 12 10 -12 15 -14 -15 -16 -17 -18
leaf_value=0.00041729708029426918 -0.0020651110109489693 -0.00050683983261094441 -0.0039650025772998672 0.0036251005161501743 0.0036114178459765531 -0.0059116016646898126 0.0036171272436658795 -0.00022495851302708418 -0.0059186601323342834 0.0036161669416168328 0.0016823889715689101 -0.0058607822015499496 -0.0058607822015499566 0.0036280919345454423 0.0036114178459765505 -0.0058607822015499626 -0.0058607822015499626
leaf_weight=2.1126388460397711 1.1830255389213586 1.6423737555742244 1.1843085289001463 1.1719721406698229 36.708379402756691 1.1817425489425684 1.4043257385492318 1.173821374773979 1.1812145262956621 2.3401764482259746 1.1704320758581159 2.8454196453094545 1.6598281264305113 2.1105626672506324 2.3381133377552032 4.9794843792915335 13.989979922771452
leaf_count=9 5 7 5 5 157 5 6 5 5 10 5 12 7 9 10 21 59
internal_value=0 0.00261219 -0.00104109 0.00230181 0.00332527 -0.00567756 0.00346207 0.00186784 -0.00532 0.00355917 0.00297145 -0.00586339 -0.00588485 0.00361232 0.00361599 -0.00586078 -0.00586078
internal_weight=0 56.1981 9.17781 5.15246 47.0203 24.1797 44.9077 2.57815 4.02535 42.3296 3.51061 22.9966 2.84104 38.8189 3.51009 21.8149 16.8354
internal_count=342 240 39 22 201 102 192 11 17 181 15 97 12 166 15 92 71
shrinkage=0.00226521


Tree=2
num_leaves=18
num_cat=0
split_feature=22 27 21 3 11 17 29 20 21 14 4 7 18 15 7 21 2
split_gain=219.433 32.2892 17.596 8.67012 7.798 3.19041 3.09691 2.35399 0.256825 0.570174 0.000830124 0.000819561 0.00013796 5.67023e-05 4.74273e-05 4.55481e-05 1.76062e-05
threshold=116.05000000000003 0.1358 25.970000000000002 683.50000000000011 0.99260000000000004 0.013675000000000001 0.062285 15.175000000000002 33.190000000000005 0.0073305000000000011 0.086845000000000019 0.06056000000000001 0.011615000000000002 0.014165000000000002 0.045830000000000003 22.560000000000002 84.075000000000003
decision_type=2 2 2 2 2 2 2 2 2 2 2 2 2 2 2 2 2
left_child=1 3 5 8 -5 -3 -2 -4 12 16 -8 -9 -1 -12 -14 -7 -10
right_child=6 2 7 4 -6 15 10 11 9 -11 13 -13 14 -15 -16 -17 -18
leaf_value=0.0050707070152555007 -0.0028015835122706958 -0.00075008082988604864 -0.0028368484734102831 0.0050685784691824149 -0.0060365924357272775 0.0050344949870709576 -0.0081311986199919944 -0.0081641827188406648 0.0050388648774236126 0.0023199859363139605 -0.0080831611897170877 -0.0080603323955970672 0.0050345570945095012 -0.008060576502569701 0.0050468291167870436 0.005062649823127559 0.005056370336649795
leaf_weight=1.1683036386966694 1.1899673789739633 1.6376921087503418 1.187460124492645 1.167926907539367 1.4199647009372709 1.1624293178319933 1.9058181494474435 1.4273037612438204 1.1631433814764021 1.1652680039405821 1.1936406642198587 1.6727678179740904 36.965580895543098 20.073002815246582 3.4932233691215506 1.1669527739286421 1.16598704457283
leaf_count=5 5 7 5 5 6 5 8 6 5 5 5 7 159 84 15 5 5
internal_value=0 0.00363617 -0.0021773 0.004642 -0.00102478 0.00265478 -0.00781034 -0.00664823 0.00496701 0.00413805 -0.00806755 -0.00810815 0.0050366 -0.00806184 0.00503562 0.0050486 0.00504763
internal_weight=0 55.964 8.25461 47.7094 2.58789 3.96707 24.3624 4.28753 45.1215 3.4944 23.1725 3.10007 41.6271 21.2666 40.4588 2.32938 2.32913
internal_count=342 240 35 205 11 17 102 18 194 15 97 13 179 89 174 10 10
shrinkage=0.00318352


Tree=3
num_leaves=22
num_cat=0
split_feature=22 27 21 3 11 24 26 28 21 11 22 9 12 18 16 27 9 27 5 20 2
split_gain=212.79 31.6276 17.0222 8.51543 7.57323 3.12876 3.01117 2.30211 0.254144 0.575034 0.000872996 0.000847759 0.000482504 0.000129225 5.23657e-05 4.36363e-05 3.77079e-05 2.16002e-05 8.42441e-09 7.52431e-09 1.42109e-14
threshold=116.05000000000003 0.1358 25.970000000000002 683.50000000000011 0.99260000000000004 0.14065000000000003 0.22305000000000003 0.27980000000000005 33.190000000000005 1.5465000000000002 104.75000000000001 0.055465000000000007 3.8055000000000008 0.011615000000000002 0.020970000000000006 0.14545000000000005 0.060045000000000008 0.10835000000000002 0.11555000000000001 22.785000000000004 139.50000000000003
decision_type=2 2 2 2 2 2 2 2 2 2 2 2 2 2 2 2 2 2 2 2 2
left_child=1 3 5 8 -5 15 -2 -4 13 -10 -9 12 -8 -1 -13 -3 -11 -15 19 -16 -20
right_child=6 2 7 4 -6 -7 11 10 9 16 -12 14 -14 17 18 -17 -18 -19 20 -21 -22
leaf_value=0.004033540125577639 -0.002182894273191311 0.0040274474774365998 -0.0022101923613117155 0.0040318848380766978 -0.0047463968874449777 -0.00059289581273969604 -0.0064168018556614824 -0.0064339742096058633 0.0018204331084436377 0.0040121737086653208 -0.0063461558675544146 -0.0063477149024274556 -0.0063515294378102887 0.0040056328783252956 -0.0063303190726689829 0.0040052848521388868 0.0040327641200818892 0.0040121039246682356 -0.0063303650307406411 -0.0063300617272723202 -0.0063303650307406411
leaf_weight=1.161668226122855 1.1952250450849558 1.1603217124938954 1.1928690224885938 1.1612827479839318 1.4282843619585035 1.639006048440933 1.1978209763765364 1.196714833378792 1.159280747175216 1.1571161746978762 1.9235764294862745 1.2021343111991907 1.9230321049690244 36.52038237452507 1.9251610040664702 1.1556340456008909 1.1614910662174223 3.7026364356279364 12.994806200265883 1.2032414823770521 2.8877347111701956
leaf_count=5 5 5 5 5 6 7 5 5 5 5 8 5 8 158 8 5 5 16 54 5 12
internal_value=0 0.00288862 -0.00171906 0.00369147 -0.000809806 0.00210622 -0.00613498 -0.00522666 0.00395129 0.00328848 -0.00637984 -0.00633742 -0.00637658 0.004007 -0.00633137 0.00401639 0.00402249 0.00400623 -0.00633034 -0.00633022 -0.00633037
internal_weight=0 55.7203 8.26812 47.4521 2.58957 3.95496 24.5292 4.31316 44.8626 3.47789 3.12029 23.3339 3.12085 41.3847 20.2131 2.31596 2.31861 40.223 19.0109 3.1284 15.8825
internal_count=342 240 35 205 11 17 102 18 194 15 13 97 13 179 84 10 10 174 79 13 66
shrinkage=0.00255289


Tree=4
num_leaves=19
num_cat=0
split_feature=23 27 24 23 6 16 3 3 26 26 11 27 19 9 18 7 25 9
split_gain=202.683 35.0121 12.174 7.62578 7.48296 4.22084 2.97588 2.16968 0.0857891 0.751842 0.0103616 0.00271432 0.00039682 0.000124135 0.000108467 4.25044e-05 1.72768e-05 1.30321e-08
threshold=884.75000000000011 0.1358 0.13115000000000002 702.50000000000011 0.065485000000000015 0.018140000000000007 683.50000000000011 629.85000000000002 0.21185000000000001 0.22305000000000003 0.92360000000000009 0.1236 0.0018970000000000002 0.055465000000000007 0.011615000000000002 0.045830000000000003 0.20495000000000002 0.056285000000000009
decision_type=2 2 2 2 2 2 2 2 2 2 2 2 2 2 2 2 2 2
left_child=1 6 -3 -4 5 -2 8 10 14 -10 -5 -6 -13 -14 -1 -16 -11 -15
right_child=4 2 3 7 11 -7 -8 -9 9 16 -12 12 13 17 15 -17 -18 -19
leaf_value=0.0035385087280982918 -0.0040557176303017955 0.0035261680225028621 0.00049735358937452452 -0.005771259889692161 -0.0055908277333256038 0.0017104114697706317 -0.00016632891371020218 -0.0020469510551875238 0.0015664324308034704 0.0035230990341331282 -0.0055093092062993504 -0.0055295431824960552 -0.0055059604499425891 -0.0054855583213297039 0.0035157072914758962 0.0035275783141583738 0.003514833445832951 -0.005485800393988066
leaf_weight=1.1548703908920277 1.4416341930627852 1.8427157253026942 2.1299092173576355 1.19018791615963 1.4443006664514566 1.1733970046043394 1.1793612539768208 1.181927293539047 1.1516772508621205 1.6112974137067775 2.1766143888235092 1.2078688144683862 1.6932456195354486 1.2108435034751917 32.63355827331543 1.6128775924444188 6.4335536062717438 17.678080826997757
leaf_count=5 6 8 9 5 6 5 5 5 5 7 9 5 7 5 142 7 28 73
internal_value=0 0.00259088 -0.0016104 -0.00302765 -0.0050886 -0.00146838 0.00337294 -0.0046782 0.00346653 0.00327228 -0.00560191 -0.00549606 -0.00548978 -0.00548744 0.00351699 0.00351627 0.00351649 -0.00548578
internal_weight=0 54.2986 8.52135 6.67864 25.8494 2.61503 45.7772 4.54873 44.5978 9.19653 3.3668 23.2343 21.79 20.5822 35.4013 34.2464 8.04485 18.8889
internal_count=342 235 36 28 107 11 199 19 194 40 14 96 90 85 154 149 35 78
shrinkage=0.00225734


Tree=5
num_leaves=19
num_cat=0
split_feature=22 21 26 7 4 7 17 15 21 12 22 19 6 7 7 3 18 22
split_gain=216.872 19.8318 15.7839 14.4931 10.8748 6.17784 1.57403 0.677536 0.359506 0.476081 0.0491825 0.0384097 0.00400179 0.00110617 0.000817483 0.000648925 0.000138115 2.41008e-05
threshold=105.95000000000002 20.810000000000002 0.3715500000000001 0.079470000000000013 0.097120000000000026 0.030630000000000001 0.013720000000000001 0.06307500000000002 33.190000000000005 1.4940000000000004 113.75000000000001 0.0031615000000000007 0.083245000000000013 0.050715000000000003 0.057025000000000006 716.75000000000011 0.011615000000000002 101.05000000000003
decision_type=2 2 2 2 2 2 2 2 2 2 2 2 2 2 2 2 2 2
left_child=2 3 8 15 -4 -3 -6 10 13 -10 11 -7 -12 16 -15 -2 -1 -18
right_child=1 5 4 -5 6 7 -8 -9 9 -11 12 -13 -14 14 -16 -17 17 -19
leaf_value=0.003858385023702361 0.0038482563280173802 -0.0012408247639157047 0.0038579150345402847 -0.0059246442181671291 -0.006064540536782328 -0.0065640915956762099 -0.0022108352710131724 -0.0040615135726926816 0.0016927704508107933 0.0038564012924937898 -0.0060293160249469419 -0.005989591477466626 -0.0059177455843785138 0.0039349205347555902 0.0038508590047200836 0.0039278887820321934 0.003832690612263088 0.0038432825264867639
leaf_weight=1.3775031566619862 1.3744864165782926 1.884357333183291 1.6057187169790257 1.4602991342544553 1.4499205052852633 1.4093555510044162 1.1851971596479414 1.2024562656879414 1.1469806730747216 1.3769160509109495 2.1792313307523754 1.4555600136518476 21.424812600016594 1.1634387373924249 1.8336690813302992 1.1618911325931547 35.391704022884369 1.3730631470680226
leaf_count=6 6 8 7 6 6 6 5 5 5 6 9 6 88 5 8 5 155 6
internal_value=0 -0.00488536 0.00333812 0.0003006 -0.00123057 -0.00558663 -0.00433126 -0.00588257 0.00378186 0.00287314 -0.0059653 -0.00627221 -0.00592805 0.00383761 0.00388349 0.00388474 0.003834 0.00383309
internal_weight=0 33.5524 47.9041 3.99668 4.24084 29.5558 2.63512 27.6714 43.6633 2.5239 26.469 2.86492 23.604 41.1394 2.99711 2.53638 38.1423 36.7648
internal_count=348 139 209 17 18 122 11 114 191 11 109 12 97 180 13 11 167 161
shrinkage=0.0024805


Tree=6
num_leaves=16
num_cat=0
split_feature=22 21 27 27 21 27 4 24 22 19 27 27 3 18 2
split_gain=210.912 19.0911 17.9263 11.0858 4.22947 7.95392 3.7773 1.67982 0.0410392 0.0460798 0.00444691 0.00219765 0.000648323 0.000124535 4.07184e-05
threshold=105.95000000000002 20.810000000000002 0.15840000000000001 0.14545000000000005 33.190000000000005 0.08593000000000002 0.083165000000000003 0.11640000000000002 113.75000000000001 0.0031615000000000007 0.13030000000000003 0.13900000000000004 716.75000000000011 0.011615000000000002 94.060000000000016
decision_type=2 2 2 2 2 2 2 2 2 2 2 2 2 2 2
left_child=2 3 4 12 11 -6 -3 -8 9 -9 -10 13 -2 -1 -15
right_child=1 6 -4 -5 5 -7 7 8 10 -11 -12 -13 -14 14 -16
leaf_value=0.0039204231575353556 0.0039041490629460286 -0.0018977896019883921 -0.0047391550090139936 -0.0046159575094263158 0.0039194982383190932 -0.0043338254069551869 -0.0033644847687335235 -0.0066619939579294031 -0.0060907096520195145 -0.0060092177579640109 -0.0059459124707004572 0.0039813147717818525 0.0039895760344865463 0.0038953362484265685 0.0039107494093768465
leaf_weight=1.3689885735511769 1.1367556750774381 1.666092380881312 1.6875400692224491 1.6968736946582792 2.0530465096235271 1.1892860680818556 1.6711462140083337 1.1787564903497725 1.4584544003009821 1.7078520953655241 22.021607920527458 2.0764935910701743 1.1551313996315 38.121485516428947 1.1383899152278889
leaf_count=6 5 7 7 7 9 5 7 5 6 7 90 9 5 168 5
internal_value=0 -0.00491228 0.00338987 0.000304318 0.00368843 0.000892183 -0.00561279 -0.00583354 -0.00599004 -0.00627578 -0.00595491 0.00390073 0.00394721 0.00389661 0.00389578
internal_weight=0 33.6927 47.6352 3.98876 45.9477 3.24233 29.7039 28.0378 26.3667 2.88661 23.4801 42.7054 2.29189 40.6289 39.2599
internal_count=348 139 209 17 202 14 122 115 108 12 96 188 10 179 173
shrinkage=0.00253952


Tree=7
num_leaves=16
num_cat=0
split_feature=22 21 27 27 21 27 4 8 22 19 25 27 14 3 17
split_gain=216.987 19.623 18.2062 11.3252 4.26387 8.01784 3.87946 2.22565 0.028757 0.0254568 0.0031094 0.00169207 0.000294307 1.47637e-05 1.71571e-06
threshold=105.95000000000002 20.810000000000002 0.15840000000000001 0.14545000000000005 33.190000000000005 0.08593000000000002 0.083165000000000003 0.15465000000000004 113.75000000000001 0.0031615000000000007 0.18535000000000001 0.13900000000000004 0.0049470000000000009 647.90000000000009 0.019135000000000003
decision_type=2 2 2 2 2 2 2 2 2 2 2 2 2 2 2
left_child=2 3 4 12 11 -6 -3 -8 9 -9 -10 13 -2 14 -1
right_child=1 6 -4 -5 5 -7 7 8 10 -11 -12 -13 -14 -15 -16
leaf_value=0.0023591645218772545 0.0023952820740203089 -0.0011702231462258758 -0.0028751795274079587 -0.0028267038982130901 0.0023699015120175154 -0.0026037920577508364 -0.0017183718335832276 -0.0039375600994430394 -0.0037204364418985348 -0.0036718554598178096 -0.0036474637988295981 0.0024039620548199844 0.0023607256615186174 0.0023647805786626494 0.0023610623796409456
leaf_weight=38.597475603222847 1.1544175893068311 1.6617248207330728 1.6842643916606892 1.6912172138690946 2.0631035566329952 1.1911677867174146 1.4333660751581216 1.6608848571777373 1.4516843259334589 1.700097009539604 21.658522084355354 2.0841551423072806 1.1425574570894239 1.14414682984352 1.1426901072263707
leaf_count=169 5 7 7 7 9 5 6 7 6 7 89 9 5 5 5
internal_value=0 -0.00300728 0.00205433 0.000170967 0.00223395 0.00054937 -0.00343599 -0.00357092 -0.00367123 -0.00380316 -0.00365205 0.00236154 0.00237809 0.00235937 0.00235922
internal_weight=0 33.5545 47.907 3.98819 46.2227 3.25427 29.5663 27.9046 26.4712 3.36098 23.1102 42.9685 2.29698 40.8843 39.7402
internal_count=348 139 209 17 202 14 122 115 109 14 95 188 10 179 174
shrinkage=0.00152641


Tree=8
num_leaves=16
num_cat=0
split_feature=22 21 27 7 7 21 7 6 22 19 27 27 18 18 7
split_gain=207.115 18.56 17.606 13.9348 5.9424 4.17872 7.86093 0.666305 0.0316624 0.0315346 0.00577258 0.0018975 0.000663224 4.97836e-05 3.73662e-05
threshold=105.95000000000002 20.810000000000002 0.15840000000000001 0.079470000000000013 0.030630000000000001 33.190000000000005 0.026805000000000006 0.29575000000000001 113.75000000000001 0.0031615000000000007 0.12090000000000002 0.13900000000000004 0.015355000000000002 0.011615000000000002 0.052615000000000002
decision_type=2 2 2 2 2 2 2 2 2 2 2 2 2 2 2
left_child=2 3 5 12 -3 11 -7 8 9 -6 -10 13 -2 -1 -15
right_child=1 4 -4 -5 7 6 -8 -9 10 -11 -12 -13 -14 14 -16
leaf_value=0.0042591280826722554 0.0043476478844706725 -0.0013058331574040346 -0.005105967249883327 -0.0064727407067925527 -0.0070465260684609791 0.0042752362141929619 -0.0047006965296935268 -0.0043743176744492056 -0.0066010407505089908 -0.0064878869045541052 -0.0064332248196450432 0.0043289243428988079 0.00425703215912792 0.0042414322165695425 0.0042543516147407418
leaf_weight=1.3606790900230397 1.1516495048999784 1.8963626921176935 1.6943739801645268 1.4699677526950834 1.4319942295551364 2.0474655181169505 1.1917405873537061 1.2124813050031651 1.7061601728200937 1.7137861102819441 21.837150931358337 2.0666250288486472 1.3599833995103834 37.280521810054779 1.8124073594808567
leaf_count=6 5 8 7 6 6 9 5 5 7 7 89 9 6 165 8
internal_value=0 -0.00531249 0.00368938 0.000321916 -0.00606536 0.00401505 0.000972889 -0.00638885 -0.00648037 -0.00674219 -0.00644539 0.0042468 0.00429858 0.00424261 0.00424203
internal_weight=0 33.7795 47.4538 3.9816 29.7979 45.7594 3.23921 27.9016 26.6891 3.14578 23.5433 42.5202 2.51163 40.4536 39.0929
internal_count=348 139 209 17 122 202 14 114 109 13 96 188 11 179 173
shrinkage=0.00277858


Tree=9
num_leaves=16
num_cat=0
split_feature=22 21 28 7 7 21 7 22 22 5 25 18 7 24 18
split_gain=201.556 17.8901 15.2861 13.5591 5.73183 4.12115 7.66108 0.657116 0.0446768 0.0044117 0.00185654 0.000622917 0.00052986 0.000325743 4.86649e-05
threshold=105.95000000000002 20.810000000000002 0.36170000000000008 0.079470000000000013 0.030630000000000001 33.190000000000005 0.026805000000000006 107.40000000000002 113.75000000000001 0.087310000000000013 0.38415000000000005 0.015355000000000002 0.052615000000000002 0.14275000000000002 0.011615000000000002
decision_type=2 2 2 2 2 2 2 2 2 2 2 2 2 2 2
left_child=2 3 5 11 -3 10 -7 -6 -9 -10 12 -2 14 -14 -1
right_child=1 4 -4 -5 7 6 -8 8 9 -11 -12 -13 13 -15 -16
leaf_value=0.0035641843033448863 0.0036367270784725867 -0.0010840793754865975 -0.0033987949443578286 -0.0053581590376022394 -0.0036059100959847344 0.0035773848858468328 -0.0038898806479350499 -0.0056867325900689658 -0.0054261125492064775 -0.0053257507165670381 0.0036403039219109279 0.0035624688467340549 0.0035634299870304304 0.0036140320872779224 0.0035498728807949629
leaf_weight=1.3518543541431416 1.14465956389904 1.8990564048290277 1.9134400486946095 1.4762550294399259 1.2175763547420526 2.034344226121902 1.197257876396179 2.1777821779251125 2.6983563005924251 21.927055194973946 1.3733380883932103 1.3511486053466795 1.80202467739582 1.1389147341251371 36.363937899470329
leaf_count=6 5 8 8 6 5 9 5 9 11 89 6 6 8 5 162
internal_value=0 -0.00440185 0.00308551 0.000268432 -0.00502186 0.00335964 0.00081088 -0.00528874 -0.00536518 -0.00533675 0.00355561 0.00359653 0.00355275 0.00358303 0.00355039
internal_weight=0 33.8919 47.1751 3.97206 29.9198 45.2617 3.2316 28.0208 26.8032 24.6254 42.0301 2.49581 40.6567 2.94094 37.7158
internal_count=348 139 209 17 122 201 14 114 109 100 187 11 181 13 168
shrinkage=0.00234214


Tree=10
num_leaves=17
num_cat=0
split_feature=27 20 21 13 21 27 28 19 29 21 11 2 22 22 29 15
split_gain=175.395 29.1593 11.8523 10.8986 10.3316 3.37125 2.39357 2.31792 0.788887 0.260058 0.541519 0.0301576 0.0178115 0.00366359 0.00200387 0.000173062
threshold=0.14235000000000003 16.795000000000005 20.225000000000005 22.200000000000003 29.795000000000005 0.1358 0.26380000000000009 0.0090665000000000016 0.060525000000000009 33.190000000000005 1.5465000000000002 102.45000000000002 113.15000000000002 106.70000000000002 0.063460000000000016 0.042865000000000007
decision_type=2 2 2 2 2 2 2 2 2 2 2 2 2 2 2 2
left_child=1 5 -3 4 -2 8 -4 12 -1 13 -11 -8 -5 -10 -14 -16
right_child=3 2 6 7 -6 -7 11 -9 9 10 -12 -13 14 -15 15 -17
leaf_value=0.0017016838336332335 0.0041593321420046094 0.004085887583384875 -0.0018640784331446082 -0.0062212265089028546 -0.0061202292032347038 0.00043632816529843752 -0.0066342879362040752 -0.0021855671905445019 0.0040180803789747581 0.0017546480062411878 0.0041044176453635247 -0.0060835465895331927 -0.0060741590352742037 0.0041713684089227151 -0.0059590499187804936 -0.0059771406060792585
leaf_weight=1.1264378130435933 1.606407806277278 1.3574461936950672 1.2231895774602888 2.2035937607288423 1.2292912453413007 2.091566488146781 1.2021263837814333 1.1954347491264332 37.916171014308929 1.1348460763692849 1.8169774711132047 1.723420664668083 1.2314303964376474 1.1440189033746708 15.825961858034136 4.942700967192649
leaf_count=5 7 6 5 9 5 9 5 5 170 5 8 7 5 5 64 20
internal_value=0 0.00303939 -0.00275935 -0.00525927 -0.000296915 0.00374532 -0.00499908 -0.00581329 0.00390575 0.00396485 0.00320103 -0.00630985 -0.00599247 0.00402257 -0.00596956 -0.00596336
internal_weight=0 50.7362 5.50618 28.2348 2.8357 45.23 4.14874 25.3991 43.1385 42.012 2.95182 2.92555 24.2037 39.0602 22.0001 20.7687
internal_count=340 225 23 115 12 202 17 103 193 188 13 12 98 175 89 84
shrinkage=0.0026688


Tree=11
num_leaves=18
num_cat=0
split_feature=27 20 21 13 21 27 16 28 10 21 11 2 22 19 22 29 6
split_gain=180.473 29.7696 12.0288 11.2404 10.4654 3.44637 2.49582 2.42576 0.789055 0.257651 0.540483 0.025088 0.0175826 0.00473159 0.00282318 0.00220341 0.000179896
threshold=0.14235000000000003 16.795000000000005 20.225000000000005 22.200000000000003 29.795000000000005 0.1358 0.096205000000000013 0.26380000000000009 0.54080000000000006 33.190000000000005 1.5465000000000002 102.45000000000002 113.15000000000002 0.0050715000000000005 105.65000000000002 0.063460000000000016 0.29575000000000001
decision_type=2 2 2 2 2 2 2 2 2 2 2 2 2 2 2 2 2
left_child=1 5 -3 4 -2 8 12 -4 9 14 -11 -9 13 -5 -1 -14 -17
right_child=3 2 7 6 -6 -7 -8 11 -10 10 -12 -13 15 -15 -16 16 -18
leaf_value=0.0028981538837439895 0.0029820937274098428 0.0029277174442641348 -0.0013649573064573237 -0.00444190166241682 -0.0044302062934003725 0.00030635964922371361 -0.001545934466807738 -0.004785652544555769 0.001243643889950369 0.0012854189209542018 0.0029616120241881083 -0.0044253914927815316 -0.0044331795118986725 -0.00461028183271147 0.0029863328957693384 -0.0043481796589754755 -0.0043700828015057541
leaf_weight=37.95072765648365 1.6084482222795515 1.3587984144687641 1.2211692333221433 1.2256071716547077 1.2263986915349958 2.0917474478483191 1.1985096633434285 1.1992561072111132 1.1325063556432713 1.1414132565259927 1.8285091519355772 1.7173458486795423 1.2261070162057901 1.2130874395370481 1.3744177669286717 18.968697115778927 1.4764586091041554
leaf_count=169 7 6 5 5 5 9 5 5 5 5 8 7 5 5 6 77 6
internal_value=0 0.00219531 -0.00200631 -0.00383371 -0.000224582 0.00270266 -0.00423797 -0.00362659 0.00281808 0.00286024 0.00231741 -0.00457352 -0.0043718 -0.00452566 0.00290124 -0.00435448 -0.00434976
internal_weight=0 51.0159 5.49657 28.1433 2.83485 45.5193 25.3085 4.13777 43.4276 42.2951 2.96992 2.9166 24.11 2.43869 39.3251 21.6713 20.4452
internal_count=340 225 23 115 12 202 103 17 193 188 13 12 98 10 175 88 83
shrinkage=0.00191131


Tree=12
num_leaves=18
num_cat=0
split_feature=27 20 21 13 21 27 16 28 12 21 28 2 22 10 22 29 6
split_gain=172.307 28.7519 11.5593 10.6217 10.0921 3.34993 2.36365 2.3145 0.787453 0.258167 0.535815 0.0257543 0.0189567 0.00498594 0.00278628 0.0018885 0.000150526
threshold=0.14235000000000003 16.795000000000005 20.225000000000005 22.200000000000003 29.795000000000005 0.1358 0.096205000000000013 0.26380000000000009 4.3025000000000011 33.190000000000005 0.28265000000000007 102.45000000000002 113.15000000000002 0.31495000000000001 105.65000000000002 0.063460000000000016 0.29575000000000001
decision_type=2 2 2 2 2 2 2 2 2 2 2 2 2 2 2 2 2
left_child=1 5 -3 4 -2 8 12 -4 9 14 -11 -9 13 -5 -1 -14 -17
right_child=3 2 7 6 -6 -7 -8 11 -10 10 -12 -13 15 -15 -16 16 -18
leaf_value=0.0033195157294907082 0.0034268678187661748 0.0033669523658367575 -0.0015350155487887812 -0.0050060343130512563 -0.005007563246029809 0.00035497431713795412 -0.0017382589646649988 -0.0054078284071983063 0.0013960331848495663 0.0033905436722178731 0.001448533798728203 -0.0049863943689750119 -0.0049842394347400665 -0.0052056547117245132 0.0034215290570817907 -0.0048933732373309807 -0.004916521302216894
leaf_weight=37.52478414773941 1.5972183644771605 1.3490586280822743 1.224225580692291 1.2332752496004169 1.2331491708755491 2.0904798060655585 1.2013796120882023 1.2089930027723315 1.1232137084007252 1.8099017441272729 1.1332991123199461 1.727939039468765 1.2343263328075433 1.2218551635742185 1.3609789460897435 19.07700510323048 1.4852869361639012
leaf_count=169 7 6 5 5 5 9 5 5 5 8 5 7 5 5 6 77 6
internal_value=0 0.00250862 -0.00226692 -0.00431806 -0.000247889 0.00309282 -0.00477066 -0.00409343 0.00322608 0.00327522 0.00264276 -0.00515988 -0.00492088 -0.00510538 0.00332309 -0.0049001 -0.00489505
internal_weight=0 50.5529 5.51022 28.2835 2.83037 45.0427 25.4531 4.16116 42.9522 41.829 2.9432 2.93693 24.2517 2.45513 38.8858 21.7966 20.5623
internal_count=340 225 23 115 12 202 103 17 193 188 13 12 98 10 175 88 83
shrinkage=0.0022148


Tree=13
num_leaves=18
num_cat=0
split_feature=27 20 21 13 21 27 16 28 29 21 11 2 22 10 22 29 6
split_gain=167.733 28.1588 11.2233 10.2534 9.82036 3.30523 2.28818 2.23136 0.787277 0.257224 0.536244 0.023375 0.0172817 0.0045345 0.00336114 0.00172374 0.000137345
threshold=0.14235000000000003 16.795000000000005 20.225000000000005 22.200000000000003 29.795000000000005 0.1358 0.096205000000000013 0.26380000000000009 0.060525000000000009 33.190000000000005 1.5465000000000002 102.45000000000002 113.15000000000002 0.31495000000000001 106.70000000000002 0.063460000000000016 0.29575000000000001
decision_type=2 2 2 2 2 2 2 2 2 2 2 2 2 2 2 2 2
left_child=1 5 -3 4 -2 8 12 -4 -1 14 -11 -9 13 -5 -10 -14 -17
right_child=3 2 7 6 -6 -7 -8 11 9 10 -12 -13 15 -15 -16 16 -18
leaf_value=0.0015496667384708701 0.0038503085787596251 0.0037843611019945777 -0.0017114979216428499 -0.0055701956778574863 -0.0055718539643575763 0.00039653003891758479 -0.0019370425236578124 -0.0060024195328599516 0.0037322133588314067 0.0016104588301187567 0.003814947260920703 -0.0055490161390151956 -0.0055466963390821619 -0.0057852611059344451 0.0038707999571588607 -0.0054485839767222264 -0.0054735783161655822
leaf_weight=1.117601990699767 1.5871458202600508 1.3400685936212529 1.2258169949054716 1.2373849749565189 1.2372680008411405 2.0892976075410834 1.2035988271236409 1.2160021215677264 37.485876634716988 1.1282374709844583 1.8000654727220533 1.7334881722927091 1.2382728755474115 1.2274106740951536 1.1331923156976689 19.127509474754337 1.4894298464059819
leaf_count=5 7 6 5 5 5 9 5 5 170 5 8 7 5 5 5 77 6
internal_value=0 0.00281664 -0.00252835 -0.00480973 -0.000277182 0.00347534 -0.0053113 -0.00455442 0.00362611 0.00368196 0.00296559 -0.00573594 -0.00547829 -0.00567729 0.00373628 -0.00545585 -0.00545039
internal_weight=0 50.2696 5.51538 28.348 2.82441 44.7543 25.5236 4.17531 42.665 41.5474 2.9283 2.94949 24.32 2.4648 38.6191 21.8552 20.6169
internal_count=340 225 23 115 12 202 103 17 193 188 13 12 98 10 175 88 83
shrinkage=0.00250705


Tree=14
num_leaves=18
num_cat=0
split_feature=27 20 13 17 6 15 27 16 18 24 20 22 20 10 22 29 6
split_gain=163.338 27.5816 9.90448 6.90651 6.76087 4.94759 3.26204 2.21811 0.786615 0.0935763 0.734353 0.0157797 0.0088735 0.00413094 0.00290625 0.00157579 0.000125511
threshold=0.14235000000000003 16.795000000000005 22.200000000000003 0.013575000000000002 0.068410000000000012 0.012025000000000003 0.1358 0.096205000000000013 0.010810000000000002 0.14185000000000003 14.445000000000002 113.15000000000002 19.230000000000004 0.31495000000000001 106.70000000000002 0.063460000000000016 0.29575000000000001
decision_type=2 2 2 2 2 2 2 2 2 2 2 2 2 2 2 2 2
left_child=1 6 3 -2 5 -3 8 11 -1 14 -11 13 -6 -4 -10 -13 -17
right_child=2 4 7 -5 12 -7 -8 -9 9 10 -12 15 -14 -15 -16 16 -18
leaf_value=0.0011529264358746392 -0.0030621365459717084 -0.0029715960090671394 -0.0041539284085800789 0.0028954602830073861 -0.004339122841397907 0.0019775501128957815 0.00029671359626493336 -0.0014460535293301156 0.0028152720044847157 0.0028143294410667673 0.0011547790175384567 -0.0041369381891464109 -0.0041113758908203615 -0.0043093134437027615 0.0029135466360396284 -0.004065902578233087 -0.0040839990771850817
leaf_weight=1.1121627092361439 1.4676311314106016 1.2131216377019876 1.2408630400896137 1.3500165194272993 1.2301331758499148 1.832642540335655 2.0881270617246619 1.2057227343320835 31.791382029652596 7.2331140190362913 1.1116423308849332 1.2415942102670694 1.2428100854158399 1.2322784364223478 1.1259468346834172 19.168787568807605 1.4928456395864476
leaf_count=5 6 5 5 6 5 8 9 5 145 33 5 5 5 5 5 77 6
internal_value=0 0.00211871 -0.00359035 -0.00020768 -0.0018896 6.31534e-06 0.00261623 -0.00396292 0.00273053 0.00277305 0.00259325 -0.00408741 -0.00422467 -0.00423135 0.00281863 -0.00407116 -0.00406721
internal_weight=0 49.9811 28.3997 2.81765 5.51871 3.04576 44.4624 25.5821 42.3742 41.2621 8.34476 24.3764 2.47294 2.47314 32.9173 21.9032 20.6616
internal_count=340 225 115 12 23 13 202 103 193 188 38 98 10 10 150 88 83
shrinkage=0.00190098


Tree=15
num_leaves=20
num_cat=0
split_feature=7 20 23 24 26 23 24 24 17 17 24 8 8 27 27 18 7 20 9
split_gain=166.894 18.6548 11.6782 6.35205 4.37691 2.87896 5.91323 0.665439 0.489635 0.464802 0.0991675 0.738407 0.0124396 0.00766933 0.00230878 0.0020272 0.00184699 0.000398943 0.000216413
threshold=0.051855000000000005 16.795000000000005 691.75000000000011 0.12345000000000002 0.40135000000000004 861.75000000000011 0.13765000000000002 0.16380000000000003 0.012485000000000001 0.0093495000000000019 0.14185000000000003 0.15995000000000001 0.21010000000000004 0.13030000000000003 0.13030000000000003 0.037330000000000009 0.034605000000000004 15.720000000000001 0.054485000000000006
decision_type=2 2 2 2 2 2 2 2 2 2 2 2 2 2 2 2 2 2 2
left_child=1 7 4 -3 -2 6 -4 10 -8 -5 14 -12 -10 -7 17 18 -13 -1 -15
right_child=2 3 5 9 -6 13 8 -9 12 -11 11 16 -14 15 -16 -17 -18 -19 -20
leaf_value=0.0029234464012781497 0.0029763902588126443 0.00168661704946332 0.00061604143919328537 -0.004512757281372435 -0.00201815163004512 -0.0043237212812830923 -0.0028730122811137411 0.0013292523057227966 -0.0045346369920588759 -0.0027874744232887637 0.0011748202198452826 0.0029250253246588765 -0.0042646269794980873 -0.0042126922777712128 0.0030096214920499946 -0.0042724178542431568 0.003014367570856223 0.0029500381163553593 -0.0041878254687737456
leaf_weight=28.937113821506504 1.3288398981094389 1.3728221207857125 1.5975567400455499 1.2309310883283617 1.4501772373914716 1.9866938740015054 1.2245412170886996 1.12085761129856 1.2300180047750475 1.2375906407833097 1.1036356389522541 5.0068439990282059 1.4926347583532331 1.4952290654182494 1.3445685952901829 1.2435932159423817 1.1188394427299497 2.4158350676298133 18.452562257647514
leaf_count=133 6 6 7 5 6 8 5 5 5 5 5 23 6 6 6 5 5 11 74
internal_value=0 0.00244791 -0.00352128 -0.00174138 0.000370084 -0.00389778 -0.00261097 0.00283996 -0.00391705 -0.00364779 0.00288237 0.00267166 -0.00438661 -0.00420562 0.00292895 -0.00419454 0.00294134 0.0029255 -0.00418969
internal_weight=0 44.889 31.5018 3.84134 2.77902 28.7228 5.54475 41.0477 3.94719 2.46852 39.9268 7.22932 2.72265 23.1781 32.6975 21.1914 6.12568 31.3529 19.9478
internal_count=332 204 128 16 12 116 23 188 16 10 183 33 11 93 150 85 28 144 80
shrinkage=0.00198798


Tree=16
num_leaves=18
num_cat=0
split_feature=7 20 22 21 21 21 7 21 14 4 16 22 28 27 19 23 28
split_gain=162.677 18.2972 11.3146 6.43449 6.15272 4.88514 8.7458 0.978267 2.01154 0.561235 0.402501 0.0586937 0.0505025 0.00543377 0.00514711 0.0003544 0.000169445
threshold=0.051855000000000005 16.795000000000005 101.95000000000002 26.530000000000005 26.330000000000002 21.395000000000003 0.079470000000000013 33.190000000000005 0.0073305000000000011 0.083870000000000014 0.021340000000000005 108.7 0.3383500000000001 0.13030000000000003 0.0075755000000000015 830.00000000000011 0.35935
decision_type=2 2 2 2 2 2 2 2 2 2 2 2 2 2 2 2 2
left_child=1 7 4 -3 -2 6 -4 13 -9 -7 -5 12 -11 15 -13 16 -1
right_child=2 3 5 10 -6 9 -8 8 -10 11 -12 14 -14 -15 -16 -17 -18
leaf_value=0.003847708057921965 0.0039619278463420967 0.0022903390035629518 0.0039603176784419533 -0.0058859056918777845 -0.0039478272336108998 -0.0037143308123305211 -0.0054965524411571126 0.0039224791758778127 -0.00047723667874557783 -0.0062976841678217335 -0.0037568901959313685 -0.0054794741873373408 -0.0055977488226641873 0.0039988168532462086 -0.0056540777644816251 0.0038969365518753867 0.003881104452445449
leaf_weight=33.66322235763073 1.5539774447679549 1.3761190623044961 1.1113412082195311 1.2348701357841494 1.2188185900449751 1.2321191430091882 1.7470326423645017 1.983108684420585 1.1348100006580351 1.2148945778608351 1.2322733998298643 20.469197764992717 1.7436709254980085 1.794966086745261 1.2439526468515385 1.0937371253967274 1.0893983989953984
leaf_count=156 7 6 5 5 5 5 7 9 5 5 5 82 7 8 5 5 5
internal_value=0 0.00322146 -0.00459928 -0.00227569 0.000485092 -0.00508943 -0.0018197 0.0037398 0.00232114 -0.00545024 -0.00482252 -0.00553693 -0.00588517 0.00385731 -0.00548948 0.00385023 0.00384875
internal_weight=0 44.6025 31.535 3.84326 2.7728 28.7622 2.85837 40.7592 3.11792 25.9038 2.46714 24.6717 2.95857 37.6413 21.7132 35.8464 34.7526
internal_count=332 204 128 16 12 116 12 188 14 104 10 99 12 174 87 166 161
shrinkage=0.0026355


Tree=17
num_leaves=18
num_cat=0
split_feature=7 20 23 21 21 21 7 21 14 10 22 28 27 27 16 23 28
split_gain=158.624 17.9498 10.9926 8.82247 6.24418 4.93237 8.51486 0.970878 1.97733 0.4029 0.053521 0.0450912 0.00712574 0.00511475 0.00172049 0.000333868 0.000159574
threshold=0.051855000000000005 16.795000000000005 720.70000000000016 26.330000000000002 26.530000000000005 21.395000000000003 0.079470000000000013 33.190000000000005 0.0073305000000000011 0.42105000000000009 108.7 0.36170000000000008 0.13030000000000003 0.13030000000000003 0.077180000000000012 830.00000000000011 0.35935
decision_type=2 2 2 2 2 2 2 2 2 2 2 2 2 2 2 2 2
left_child=1 7 3 -2 -3 6 -4 13 -9 -6 11 -7 -12 15 -14 16 -1
right_child=2 4 5 -5 9 10 -8 8 -10 -11 12 -13 14 -15 -16 -17 -18
leaf_value=0.0039359531811009587 0.0040997237426462271 0.0023326657092988508 0.0040488326654139059 -0.0045155821560204871 -0.0059779846228396848 -0.0063616034367989308 -0.0055749075478290127 0.0040109007900861427 -0.00048417898700959822 -0.0037880076319029904 -0.0057264635850046968 -0.0056591362469939292 -0.0055502512536936589 0.00408737698992817 -0.0056542106746535255 0.003985316085147508 0.0039694362912773068
leaf_weight=33.411938101053238 1.7803105115890532 1.3717787265777581 1.1036711633205443 1.719942584633827 1.237882122397423 1.2209806740283995 1.7487265318632124 1.9690551012754434 1.1355866044759748 1.2352093607187269 1.9940467625856424 1.4971348345279691 19.239959269762043 1.7829309850931157 1.2475911229848851 1.0858417451381672 1.0814501494169224
leaf_count=156 8 6 5 7 5 5 7 9 5 5 8 6 77 8 5 5 5
internal_value=0 0.00329223 -0.00466677 -0.000133636 -0.00230934 -0.0052324 -0.00185122 0.00382445 0.00236673 -0.00488418 -0.00561512 -0.00597469 -0.00557165 0.00394558 -0.00555658 0.00393848 0.003937
internal_weight=0 44.3117 31.5524 3.50025 3.84487 28.0521 2.8524 40.4668 3.10464 2.47309 25.1997 2.71812 22.4816 37.3622 20.4876 35.5792 34.4934
internal_count=332 204 128 15 16 113 12 188 14 10 101 11 90 174 82 166 161
shrinkage=0.00271288


Tree=18
num_leaves=18
num_cat=0
split_feature=7 20 23 21 21 21 7 21 24 10 22 28 27 27 16 23 28
split_gain=154.723 17.6113 10.6605 8.59941 6.06162 4.76631 8.29309 0.96378 1.9578 0.389512 0.0491044 0.0412057 0.00654378 0.00481639 0.00158162 0.00031465 0.000150336
threshold=0.051855000000000005 16.795000000000005 720.70000000000016 26.330000000000002 26.530000000000005 21.395000000000003 0.079470000000000013 33.190000000000005 0.12880000000000003 0.42105000000000009 108.7 0.36170000000000008 0.13030000000000003 0.13030000000000003 0.077180000000000012 830.00000000000011 0.35935
decision_type=2 2 2 2 2 2 2 2 2 2 2 2 2 2 2 2 2
left_child=1 7 3 -2 -3 6 -4 13 -9 -6 11 -7 -12 15 -14 16 -1
right_child=2 4 5 -5 9 10 -8 8 -10 -11 12 -13 14 -15 -16 -17 -18
leaf_value=0.003774290833909517 0.0039282715070121524 0.0022269052806850871 0.0038803756471941201 -0.0042875896312028362 -0.0056742309658692229 -0.0060269686029039808 -0.0053021221917907641 0.0038481543615392381 -0.00047374021790273416 -0.0035988175759107716 -0.0054421584864021997 -0.005379988367755691 -0.005279326702188376 0.003916556685965287 -0.0053754531314977195 0.0038206977561982651 0.0038057645471674582
leaf_weight=33.158440411090851 1.7681715041399031 1.3674121797084802 1.0959026068449049 1.723704397678375 1.2410071045160296 1.2263598740100889 1.7496975511312483 1.9567877650260919 1.1344022601842878 1.2372049391269682 1.9966481178998972 1.4985858500003812 19.248272791504863 1.7707222253084172 1.2487662583589543 1.0778635293245304 1.0734227448701847
leaf_count=156 8 6 5 7 5 5 7 9 5 5 8 6 77 8 5 5 5
internal_value=0 0.00315403 -0.00444033 -0.000127347 -0.00219708 -0.00497697 -0.00176574 0.00366629 0.00226211 -0.00463812 -0.00533932 -0.00567116 -0.00529912 0.00378334 -0.00528518 0.00377666 0.00377528
internal_weight=0 44.0173 31.5561 3.49188 3.84562 28.0642 2.8456 40.1716 3.09119 2.47821 25.2186 2.72495 22.4937 37.0804 20.497 35.3097 34.2319
internal_count=332 204 128 15 16 113 12 188 14 10 101 11 90 174 82 166 161
shrinkage=0.00261748


Tree=19
num_leaves=18
num_cat=0
split_feature=7 20 22 24 21 21 7 21 14 4 9 22 9 27 27 23 24
split_gain=150.959 17.2813 10.3494 5.91946 5.6924 4.40905 8.07997 0.957015 1.94856 0.513835 0.454592 0.0465593 0.0278371 0.00453719 0.00339095 0.000296647 4.25576e-05
threshold=0.051855000000000005 16.795000000000005 101.95000000000002 0.12345000000000002 26.330000000000002 21.395000000000003 0.079470000000000013 33.190000000000005 0.0073305000000000011 0.083870000000000014 0.05864500000000001 110.35000000000001 0.063685000000000005 0.13030000000000003 0.13030000000000003 830.00000000000011 0.16270000000000004
decision_type=2 2 2 2 2 2 2 2 2 2 2 2 2 2 2 2 2
left_child=1 7 4 -3 -2 6 -4 13 -9 -7 -5 12 -11 15 -13 16 -1
right_child=2 3 5 10 -6 9 -8 8 -10 11 -12 14 -14 -15 -16 -17 -18
leaf_value=0.0033155538036044622 0.0034073789005215813 0.0019580851635167288 0.0034065030951861822 -0.0030527128190550226 -0.0032876639734336524 -0.0031226969103864987 -0.0046202712157073491 0.0033839121797337841 -0.00043287902951019491 -0.0051794456359408169 -0.0050322289772268929 -0.0047174926467239958 -0.0047468763644093626 0.0034376170012325848 -0.0046033919437002318 0.0033551358515109099 0.0033304387780639763
leaf_weight=32.907533034682274 1.5211189538240462 1.362957522273063 1.088042452931407 1.242954879999161 1.2277750819921491 1.2339203357696558 1.7499751448631284 1.9458523541688912 1.1317691057920454 1.2322991788387327 1.2396050542593 1.4991932362318063 2.247306764125824 1.7583515495061863 19.748598963022232 1.0698088109493245 1.0607037395238865
leaf_count=156 7 6 5 5 5 5 7 9 5 5 5 6 9 8 79 5 5
internal_value=0 0.00276774 -0.00387086 -0.00191485 0.000417083 -0.00428015 -0.00154296 0.00321934 0.00198032 -0.00457937 -0.00404114 -0.00465206 -0.00490007 0.00332297 -0.00461144 0.00331721 0.00331602
internal_weight=0 43.7195 31.5482 3.84552 2.74889 28.7993 2.83802 39.874 3.07762 25.9613 2.48256 24.7274 3.47961 36.7964 21.2478 35.038 33.9682
internal_count=332 204 128 16 12 116 12 188 14 104 10 99 14 174 85 166 161
shrinkage=0.00231296


Tree=20
num_leaves=20
num_cat=0
split_feature=22 27 24 20 13 24 11 12 24 24 28 27 10 16 5 22 29 9 10
split_gain=157.625 31.098 8.52312 6.6019 6.06695 7.24798 5.4705 0.818276 0.0901894 0.748712 0.0477989 0.0272201 0.0124555 0.00429973 0.00411992 0.00298826 0.00129832 0.000222551 0.000132583
threshold=117.45000000000002 0.1358 0.13115000000000002 16.795000000000005 22.685000000000006 0.16030000000000003 0.99260000000000004 4.5785000000000009 0.14185000000000003 0.14275000000000002 0.35430000000000006 0.13030000000000003 0.52695000000000014 0.092575000000000018 0.16915000000000002 106.70000000000002 0.063460000000000016 0.074450000000000016 0.30620000000000008
decision_type=2 2 2 2 2 2 2 2 2 2 2 2 2 2 2 2 2 2 2
left_child=1 3 -3 7 5 -4 -5 8 15 -10 -6 12 -2 16 -12 -1 -13 18 -18
right_child=11 2 4 6 10 -7 -8 -9 9 -11 14 13 -14 -15 -16 -17 17 -19 -20
leaf_value=0.002227358590553361 -0.0033890416426101489 0.0016236210937943289 0.0015848487927036033 0.0022559963687066413 -0.0035593604368189843 -0.0032451494651695736 -0.0023063022744676731 0.00083373298474451857 0.00085395721274561076 0.0022294792651657174 -0.0031242675690919901 -0.0031550934453527728 -0.0031798413943436282 -0.0031998904955634479 -0.0032496766721946397 0.0023091083228825296 -0.0031178191732826872 -0.0031219675502356524 -0.0031013801017928098
leaf_weight=32.114976182579994 1.2383126914501219 2.0257115960121137 1.8217392712831499 1.0803199410438531 1.222762390971184 1.246493801474571 1.4889617115259168 1.0807554721832264 1.0837118625640849 7.2411447912454605 1.2497262805700304 1.2491090595722258 1.4981829971075056 1.2481329292058934 1.2463421225547788 1.1016894578933705 1.2498345971107543 1.499731957912444 17.99954491853714
leaf_count=151 5 9 8 5 5 5 6 5 5 34 5 5 6 5 5 5 5 6 72
internal_value=0 0.00149753 -0.00115467 0.00201474 -0.00198389 -0.000377376 -0.000387968 0.00215957 0.00219407 0.00205042 -0.00330936 -0.00312891 -0.00327451 -0.00311177 -0.00318689 0.00223007 -0.00310677 -0.00310386 -0.00310245
internal_weight=0 54.0043 8.81278 45.1916 6.78706 3.06823 2.56928 42.6223 41.5415 8.32486 3.71883 25.9828 2.7365 23.2464 2.49607 33.2167 21.9982 20.7491 19.2494
internal_count=352 248 37 211 28 13 11 200 195 39 15 104 11 93 10 156 88 83 77
shrinkage=0.00154341


Tree=21
num_leaves=18
num_cat=0
split_feature=22 22 27 24 25 27 10 3 2 24 24 7 16 24 22 25 11
split_gain=151.806 16.5921 14.657 13.3225 3.45709 2.63938 3.0475 0.834805 0.430644 0.0877513 0.748474 0.0310795 0.00541737 0.00514285 0.00411445 0.00126607 0.000873518
threshold=105.95000000000002 117.45000000000002 0.15840000000000001 0.14065000000000003 0.20060000000000003 0.1358 0.23540000000000003 672.55000000000007 93.615000000000009 0.14185000000000003 0.14275000000000002 0.050715000000000003 0.096205000000000013 0.11090000000000001 112.05000000000001 0.18885000000000005 2.2135000000000002
decision_type=2 2 2 2 2 2 2 2 2 2 2 2 2 2 2 2 2
left_child=2 3 5 4 -2 7 -7 9 -5 16 -11 -3 13 -13 -6 -15 -1
right_child=1 11 -4 8 14 6 -8 -9 -10 10 -12 12 -14 15 -16 -17 -18
leaf_value=0.003329032014200782 -0.00052305976754046454 -0.0049849416431662708 -0.00307540556641132 -0.004908044708212541 0.0035739317009404891 0.0034498594197914694 -0.001948936025066472 0.0011872457821003836 -0.0031891282249952458 0.0012505326159574942 0.003334786548147786 -0.0047447754506601634 -0.0047567469350147931 -0.0046632120341485693 0.0033900961300681767 -0.0045869003693244067 0.0033739318914673124
leaf_weight=28.992628976702694 2.0922624915838224 1.2415878921747232 2.2011168152093878 2.2341626584529881 1.3539096713066103 1.0910948812961572 1.1813329011201856 1.0650006383657444 1.2237988114356992 1.0750537663698176 7.1592487394809723 1.2491424083709777 1.2494385838508595 1.2496263086795831 1.28950959444046 20.994628995656967 2.5579804182052603
leaf_count=138 9 5 9 9 6 5 5 5 5 5 34 5 5 5 6 84 12
internal_value=0 -0.00371405 0.00278716 -0.000824085 0.00171379 0.0030864 0.000643269 0.00322231 -0.00429971 0.00327679 0.00306267 -0.00462535 -0.0046073 -0.00459935 0.00348425 -0.00459119 0.00333267
internal_weight=0 34.1781 45.3235 8.19364 4.73568 43.1223 2.27243 40.8499 3.45796 39.7849 8.2343 25.9844 24.7428 23.4934 2.64342 22.2443 31.5506
internal_count=352 139 213 35 21 204 10 194 14 189 39 104 99 94 12 89 150
shrinkage=0.00232915


Tree=22
num_leaves=19
num_cat=0
split_feature=22 22 27 24 21 27 11 3 2 21 11 7 21 16 24 25 5 4
split_gain=148.173 16.1231 14.3576 12.9545 6.46582 2.60697 2.97944 0.827281 0.4185 0.187076 0.601702 0.0286347 0.0178407 0.00498765 0.00473873 0.00116769 0.000316908 0.000182493
threshold=105.95000000000002 117.45000000000002 0.15840000000000001 0.14065000000000003 25.790000000000003 0.1358 1.3680000000000001 672.55000000000007 93.615000000000009 33.190000000000005 1.4895000000000003 0.050715000000000003 19.795000000000005 0.096205000000000013 0.11090000000000001 0.18885000000000005 0.14505000000000004 0.098315000000000013
decision_type=2 2 2 2 2 2 2 2 2 2 2 2 2 2 2 2 2 2
left_child=2 3 5 4 12 7 -7 9 -5 16 -11 -3 17 14 -13 -16 -1 -2
right_child=1 11 -4 8 -6 6 -8 -9 -10 10 -12 13 -14 -15 15 -17 -18 -19
leaf_value=0.0032216837447733592 0.0033024836191207049 -0.0047840797792841564 -0.0029519287639283975 -0.0047127449017465069 -0.0023785551712547856 0.0033405285352473097 -0.0018694510433253286 0.0011443544406748284 -0.0030621333847477995 0.0012726725447106311 0.003312187546110402 -0.0045596472487989051 0.0036316438842297263 -0.0045707869943333772 -0.0044833945491759451 -0.0044119589672080416 0.0032582424992423854 0.0032604682294017327
leaf_weight=34.75596721470356 1.0739498436450947 1.2436055243015314 2.2043659538030616 2.2366315871477132 1.428872764110565 1.0832259804010385 1.1838534176349638 1.0621519088745106 1.2251888364553449 1.0880215167999261 2.3675144016742706 1.2495219260454238 1.1585058122873304 1.2499171942472447 1.2494166940450693 20.981971919536591 1.2664266079664219 1.0571470260620115
leaf_count=167 5 5 9 9 6 5 5 5 5 5 11 5 5 5 5 84 6 5
internal_value=0 -0.00357267 0.00269796 -0.000793399 0.00165353 0.0029889 0.000619913 0.00312138 -0.00412857 0.00317457 0.00267002 -0.00444796 0.0034049 -0.00443106 -0.00442362 -0.00441597 0.00322297 0.00328164
internal_weight=0 34.1547 45.0115 8.1803 4.71848 42.8072 2.26708 40.5401 3.46182 39.4779 3.45554 25.9744 3.2896 24.7308 23.4809 22.2314 36.0224 2.1311
internal_count=352 139 213 35 21 204 10 194 14 189 16 104 15 99 94 89 173 10
shrinkage=0.00227009


Tree=23
num_leaves=19
num_cat=0
split_feature=22 22 27 24 21 27 10 29 23 21 11 7 21 16 24 9 20 3
split_gain=144.667 15.6712 14.0665 12.6016 6.32687 2.57528 2.91332 0.826754 0.40772 0.187551 0.595275 0.0264136 0.0167977 0.00459719 0.00437124 0.00109534 0.000354725 0.000159864
threshold=105.95000000000002 117.45000000000002 0.15840000000000001 0.14065000000000003 25.790000000000003 0.1358 0.23540000000000003 0.061265000000000007 830.75000000000011 33.190000000000005 1.4895000000000003 0.050715000000000003 19.795000000000005 0.096205000000000013 0.11090000000000001 0.053390000000000007 15.655000000000003 683.50000000000011
decision_type=2 2 2 2 2 2 2 2 2 2 2 2 2 2 2 2 2 2
left_child=2 3 5 4 12 7 -7 -1 -5 16 -11 -3 17 14 -13 -16 -9 -2
right_child=1 11 -4 8 -6 6 -8 9 -10 10 -12 13 -14 -15 15 -17 -18 -19
leaf_value=0.0012676403596559808 0.0036649024320151336 -0.0053277832683181715 -0.0032870239768874043 -0.0052508690321425959 -0.002646131937790321 0.003752341228390025 -0.0020801177287047049 0.0036211215470360204 -0.0034095074437347521 0.0014229107043904391 0.0037210632703899267 -0.0050843139305150244 0.0040725496967150337 -0.0050963466392809874 -0.0050021453911635464 -0.0049239102456450981 0.0036593800134585028 0.003709528832909691
leaf_weight=1.0568446815013874 1.0492392629384983 1.2450768053531671 2.2072326242923728 2.2392265200614934 1.4320360571146009 1.0752747356891625 1.1862693428993223 34.062005579471588 1.2252987921237943 1.0850509405136102 2.3497867733240128 1.2494193315506041 1.1519074440002439 1.2499092817306507 1.2487822771072412 20.961965397000313 1.6745228022336949 1.0655350685119627
leaf_count=5 5 5 9 9 6 5 5 165 5 5 11 5 5 5 5 84 8 5
internal_value=0 -0.00398767 0.0030295 -0.000886377 0.00185153 0.00335763 0.000692986 0.00350743 -0.00459963 0.00356786 0.00299509 -0.00496307 0.0038232 -0.0049447 -0.00493662 -0.00492831 0.00362291 0.00368739
internal_weight=0 34.1184 44.697 8.16324 4.69872 42.4898 2.26154 40.2282 3.46453 39.1714 3.43484 25.9552 3.26668 24.7101 23.4602 22.2107 35.7365 2.11477
internal_count=352 139 213 35 21 204 10 194 14 189 16 104 15 99 94 89 173 10
shrinkage=0.00256629


Tree=24
num_leaves=20
num_cat=0
split_feature=22 22 27 21 4 27 10 8 18 21 22 7 21 12 16 29 14 2 15
split_gain=141.276 15.24 13.7832 12.2614 3.55469 2.54426 2.84906 1.24846 0.830252 0.188126 0.590726 0.0243925 0.0144486 0.0124713 0.00424191 0.00391544 0.002035 0.00030773 0.000207197
threshold=105.95000000000002 117.45000000000002 0.15840000000000001 25.790000000000003 0.10065 0.1358 0.23540000000000003 0.17155000000000001 0.011615000000000002 33.190000000000005 91.995000000000019 0.050715000000000003 19.795000000000005 2.3695000000000004 0.096205000000000013 0.066300000000000012 0.0081165000000000005 94.765000000000015 0.04957000000000001
decision_type=2 2 2 2 2 2 2 2 2 2 2 2 2 2 2 2 2 2 2
left_child=2 3 5 4 12 8 -7 -5 -1 17 -11 -3 -2 -9 15 16 -13 -10 -17
right_child=1 11 -4 7 -6 6 -8 13 9 10 -12 14 -14 -15 -16 18 -18 -19 -20
leaf_value=0.0010893864028167716 0.0032344388047436238 -0.0046316755237363408 -0.0028564869734613494 -0.0017084609388677734 -0.0010549298284908766 0.0032892994037628112 -0.0018061743057985102 -0.0046545165865802566 0.0031770227013874289 0.0032630382156907875 0.0012390210486889841 -0.004436724678217218 0.0035642082152988774 -0.0043480403424750935 -0.0044355663734791826 -0.0042871915217523072 -0.0043129449019726519 0.0032165265191740591 -0.004311462201413702
leaf_weight=1.0500676929950703 1.6793196648359283 1.2460238039493585 2.2097315341234198 1.1867676824331286 1.3890461921691892 1.067247420549392 1.1885841041803358 1.2473921477794649 34.409510374069214 2.3323695510625835 1.0816304385662077 1.4988283216953342 1.1451511234045026 1.4969577044248579 1.2494348436593998 18.690940007567409 1.2468708455562589 1.0410977602004994 1.9948751479387272
leaf_count=5 8 5 9 5 6 5 5 5 168 11 5 6 5 6 5 75 5 5 8
internal_value=0 -0.00347409 0.00265467 -0.000772842 0.00191001 0.00294345 0.000604525 -0.00364842 0.00307564 0.00312931 0.00262178 -0.00432265 0.00336814 -0.00448734 -0.00430705 -0.00430019 -0.00438051 0.00317818 -0.00428953
internal_weight=0 34.0716 44.3802 8.14463 4.21352 42.1705 2.25583 3.93112 39.9147 38.8646 3.414 25.927 2.82447 2.74435 24.6809 23.4315 2.7457 35.4506 20.6858
internal_count=352 139 213 35 19 204 10 16 194 189 16 104 13 11 99 94 11 173 83
shrinkage=0.00226375


Tree=25
num_leaves=17
num_cat=0
split_feature=23 27 21 26 24 13 14 21 15 7 28 27 22 15 23 7
split_gain=140.454 28.5505 11.4575 4.67676 3.39686 1.45203 0.490944 0.308194 0.503621 0.0411287 0.0381936 0.00529167 0.00482796 0.00356689 0.000390191 4.83218e-05
threshold=884.75000000000011 0.1358 25.790000000000003 0.19235000000000005 0.14065000000000003 22.200000000000003 0.0058645000000000008 33.190000000000005 0.013305000000000003 0.050715000000000003 0.3383500000000001 0.14545000000000005 106.70000000000002 0.06307500000000002 758.80000000000007 0.048405000000000011
decision_type=2 2 2 2 2 2 2 2 2 2 2 2 2 2 2 2
left_child=1 7 4 -2 -3 -5 -4 12 -9 -7 -8 -11 14 -13 15 -1
right_child=3 2 6 5 -6 9 10 8 -10 11 -12 13 -14 -15 -16 -17
leaf_value=0.004201661230353787 0.00046814869426203587 0.0044677005213443477 -0.0038969478004951064 -0.0022580184307790176 -0.0011916913745184787 -0.0061410245490619202 -0.0065666836892259934 0.001557227834501484 0.0043605159781442511 -0.0058022096589699281 -0.0058753704528838333 -0.005639812137095402 0.0043689603222310585 -0.0058054423851582378 0.004247425539400127 0.0042167777967170063
leaf_weight=31.870848372578621 1.2226437181234384 1.956853494048117 1.2233905941247938 1.1642542481422449 1.8921045213937757 1.745308175683024 1.2387301921844485 1.0653235316276544 1.2793619185686109 2.2457542568445232 1.7474217414855955 21.39988732337952 1.7044507712125767 1.2481058239936818 1.8553227335214604 2.0408670306205741
leaf_count=157 5 9 5 5 8 7 5 5 6 9 7 86 8 5 9 10
internal_value=0 0.00309977 -0.00206996 -0.00529671 0.00168561 -0.00555022 -0.00550383 0.00414608 0.00308682 -0.0056941 -0.00616214 -0.00566277 0.00421236 -0.00564894 0.0042049 0.00420257
internal_weight=0 47.8747 8.0585 29.026 3.84896 27.8033 4.20954 39.8162 2.34469 26.6391 2.98615 24.8937 37.4715 22.648 35.767 33.9117
internal_count=346 229 34 117 17 112 17 195 11 107 12 100 184 91 176 167
shrinkage=0.0030117


Tree=26
num_leaves=21
num_cat=0
split_feature=23 27 17 14 15 26 13 28 24 9 7 28 27 22 15 17 4 9 14 26
split_gain=137.113 28.0335 6.36631 4.65376 4.93926 4.56119 1.42458 1.19085 0.0955095 0.770546 0.0380268 0.0072935 0.00489686 0.00409691 0.00329913 0.000507781 0.000722053 0.000142724 7.00552e-05 8.30066e-06
threshold=884.75000000000011 0.1358 0.022365000000000003 0.005728500000000001 0.022855000000000004 0.19235000000000005 22.200000000000003 0.29545000000000005 0.14185000000000003 0.061890000000000008 0.050715000000000003 0.35870000000000007 0.14545000000000005 106.70000000000002 0.06307500000000002 0.017165000000000003 0.096865000000000021 0.058145000000000009 0.0075050000000000004 0.14805000000000004
decision_type=2 2 2 2 2 2 2 2 2 2 2 2 2 2 2 2 2 2 2 2
left_child=1 8 3 4 -3 -2 -7 -5 13 -10 -8 -9 -12 15 -14 17 -17 -1 -11 -20
right_child=5 2 -4 7 -6 6 10 11 9 18 12 -13 14 -15 -16 16 -18 -19 19 -21
leaf_value=0.0033279971712971953 0.00036615134197741524 -0.0032928067671398873 0.0036533019782080934 -0.0019031256191155679 0.0034390566771331046 -0.0017632265578068974 -0.0048004569386272105 -0.0048343388371983225 0.0011164622799089965 0.0033334396181621206 -0.0045423067421104463 -0.0046016751238513263 -0.0044183746276840533 0.0034425823988224902 -0.0045447366735446443 0.0034023420471588606 0.0033165756172833421 0.0033156712082566481 0.0033184130603738991 0.0033125108159232971
leaf_weight=7.2937828898429968 1.2223234176635767 1.2186518907546982 1.1228054910898206 1.1950479000806806 1.2676927298307417 1.165803581476214 1.745788231492045 1.2491568624973299 1.0378518104553203 1.6252079457044599 2.2430803924798992 1.9945458322763441 21.359024062752727 1.691466450691222 1.2466472685337056 1.0412642359733575 1.2097343057394025 20.152126595377922 2.8253293037414551 2.616200178861618
leaf_count=36 5 5 5 5 6 5 7 5 5 8 9 8 86 8 5 5 6 100 14 13
internal_value=0 0.00244095 -0.00162062 -0.00247571 0.000139515 -0.00414783 -0.00434659 -0.00394062 0.00326862 0.00303755 -0.00445983 -0.00469127 -0.0044359 0.00332828 -0.00442534 0.00332177 0.00335625 0.00331895 0.00331968 0.00331558
internal_weight=0 47.5409 8.0479 6.9251 2.48634 28.9827 27.7603 4.43875 39.493 8.10459 26.5945 3.2437 24.8488 31.3884 22.6057 29.6969 2.251 27.4459 7.06674 5.44153
internal_count=346 229 34 29 11 117 112 18 195 40 107 13 100 155 91 147 11 136 35 27
shrinkage=0.00238765


Tree=27
num_leaves=17
num_cat=0
split_feature=20 27 21 13 26 24 14 21 15 7 26 27 22 15 2 29
split_gain=139.642 27.9887 10.017 5.43039 4.79522 4.09335 0.49577 0.302894 0.494089 0.0470857 0.0257841 0.00516156 0.00432334 0.0019968 0.000264736 4.0122e-05
threshold=16.795000000000005 0.1358 25.790000000000003 21.905000000000005 0.19235000000000005 0.14065000000000003 0.0058645000000000008 33.190000000000005 0.013305000000000003 0.050715000000000003 0.46350000000000008 0.14545000000000005 106.70000000000002 0.06307500000000002 92.615000000000023 0.062285
decision_type=2 2 2 2 2 2 2 2 2 2 2 2 2 2 2 2
left_child=1 7 5 -2 -5 -3 -4 12 -9 -6 -8 -11 14 -13 15 -1
right_child=3 2 6 4 9 -7 10 8 -10 11 -12 13 -14 -15 -16 -17
leaf_value=0.0019989880559585786 0.00032617474829103855 0.0020971042124558956 -0.0018323251082893531 0.00017852205886725335 -0.0029205456428769367 -0.00094504411669417638 -0.0030726743136775285 0.00075565559584286229 0.0020655910144659075 -0.0027583406789106497 -0.0027951059211643258 -0.002683620783454823 0.0020705595617973027 -0.0027422024553828148 0.0020112868795217724 0.001991292941700154
leaf_weight=1.4339434355497349 1.3610662370920206 1.9457455575466149 1.229571118950844 1.2180080413818384 1.9940430074930215 1.6644325256347654 1.2407400161027911 1.0725540518760674 1.2820808887481687 2.2466569542884853 1.4985789805650709 21.667446017265323 1.4954170733690251 1.2480662912130345 1.4454969912767399 32.998254984617233
leaf_count=7 6 9 5 5 8 7 5 5 6 9 6 87 7 5 7 162
internal_value=0 0.00148586 -0.0010221 -0.00245261 -0.0025859 0.000694555 -0.00258361 0.00196432 0.00146891 -0.00270989 -0.00292083 -0.0026932 0.00199553 -0.00268681 0.00199241 0.00199161
internal_weight=0 47.3068 7.57907 29.7353 28.3742 3.61018 3.96889 39.7277 2.35463 27.1562 2.73932 25.1622 37.3731 22.9155 35.8777 34.4322
internal_count=346 226 32 120 114 16 16 194 11 109 11 101 183 92 176 169
shrinkage=0.00142414


Tree=28
num_leaves=18
num_cat=0
split_feature=23 27 21 26 24 13 14 21 28 28 7 27 23 25 18 27 29
split_gain=135.055 27.6844 10.9051 4.45023 3.25559 1.41493 0.475795 0.309325 0.495634 0.0346529 0.0340339 0.00458674 0.00300399 0.00275325 0.00220847 0.000137321 7.3252e-05
threshold=884.75000000000011 0.1358 25.790000000000003 0.19235000000000005 0.14065000000000003 22.200000000000003 0.0058645000000000008 33.190000000000005 0.28265000000000007 0.3383500000000001 0.050715000000000003 0.14545000000000005 767.10000000000002 0.24585000000000004 0.042200000000000008 0.12090000000000002 0.06167000000000001
decision_type=2 2 2 2 2 2 2 2 2 2 2 2 2 2 2 2 2
left_child=1 7 4 -2 -3 -5 -4 12 -9 -8 -7 -12 15 -14 -13 16 -1
right_child=3 2 6 5 -6 10 9 8 -10 -11 11 14 13 -15 -16 -17 -18
leaf_value=0.0040538334724074731 0.00042056795114273976 0.004264922052120374 -0.0036656097720288313 -0.0021258832013682921 -0.0011118923179766721 -0.0057933441672852505 -0.0061928999214456194 0.0041749731545343916 0.001472868401511275 -0.0055562910342520679 -0.0054982282592324913 -0.0053517146675125058 0.0040523558223396275 0.0042287015335586127 -0.0054596978553295315 0.0040638375255968879 0.0040286447229307522
leaf_weight=1.0109305232763279 1.2210303843021417 1.9292291551828369 1.225707486271858 1.1693535149097467 1.8938664644956587 1.7457380443811441 1.2425592392683031 1.2628178298473351 1.0593887120485304 1.7443788498640058 2.2409799098968533 20.834156915545467 1.8186997473239892 1.2803167402744291 1.7417491674423207 1.0141984224319447 31.833973184227943
leaf_count=5 5 9 5 5 8 7 5 6 5 7 9 84 9 6 7 5 159
internal_value=0 0.00296572 -0.001961 -0.00502246 0.00160138 -0.00526212 -0.00519395 0.0039736 0.00294228 -0.00582112 -0.00540018 -0.00537252 0.0040384 0.00412521 -0.00536005 0.00403045 0.00402942
internal_weight=0 47.3161 8.03574 28.953 3.8231 27.732 4.21265 39.2803 2.32221 2.98694 26.5626 24.8169 36.9581 3.09902 22.5759 33.8591 32.8449
internal_count=346 229 34 117 17 112 17 195 11 12 107 100 184 15 91 169 164
shrinkage=0.00291319


Tree=29
num_leaves=18
num_cat=0
split_feature=23 27 21 6 21 24 14 21 28 28 22 22 27 18 23 2 7
split_gain=131.892 27.1876 10.6081 4.15852 6.30366 3.19344 0.46373 0.309295 0.490148 0.0319315 0.0258034 0.0039735 0.0035421 0.00206429 0.000290224 0.000214341 4.07809e-05
threshold=884.75000000000011 0.1358 25.790000000000003 0.065485000000000015 29.795000000000005 0.14065000000000003 0.0058645000000000008 33.190000000000005 0.28265000000000007 0.3383500000000001 118.25000000000001 106.70000000000002 0.14545000000000005 0.042200000000000008 758.80000000000007 100.10000000000001 0.045830000000000003
decision_type=2 2 2 2 2 2 2 2 2 2 2 2 2 2 2 2 2
left_child=1 7 5 4 -2 -3 -4 11 -9 -8 -5 14 -12 15 16 -14 -1
right_child=3 2 6 10 -6 -7 9 8 -10 -11 12 -13 13 -15 -16 -17 -18
leaf_value=0.0027123022646973818 0.0018932172955543488 0.0028683477393111941 -0.0024463845578333418 -0.0038597506310638846 -0.0039334396421330173 -0.00074150137732312401 -0.0041277408065161754 0.0028089022856466177 0.00098576226030161083 -0.0037142130796815691 -0.0036727880373511588 0.0028127260895162644 -0.0036056647333831695 -0.0036512387843206529 0.0027385272406461368 -0.0035789225140754094 0.002720749786886007
leaf_weight=30.769800737500191 1.3977281302213698 1.9148237556219085 1.2258886843919752 1.495775163173678 1.4922722727060316 1.8955734074115751 1.244335323572159 1.2529235333204263 1.0565701872110365 1.7418326139450071 1.9881597906351114 1.6683194488286961 1.2388497889041961 1.7384521961212147 1.8133387267589558 19.545262679457664 2.3941920399665824
leaf_count=155 6 9 5 6 6 8 5 6 5 7 8 8 5 7 9 79 12
internal_value=0 0.00199398 -0.00131107 -0.00335903 -0.00111542 0.00107254 -0.00346739 0.00267462 0.00197483 -0.00388653 -0.00360836 0.00271872 -0.00359302 -0.00358598 0.00271424 -0.00358052 0.00271291
internal_weight=0 46.9776 8.02245 28.8965 2.89 3.8104 4.21206 38.9551 2.30949 2.98617 26.0065 36.6457 24.5107 22.5226 34.9773 20.7841 33.164
internal_count=346 229 34 117 12 17 17 195 11 12 105 184 99 91 176 84 167
shrinkage=0.00197156


Tree=30
num_leaves=16
num_cat=0
split_feature=22 21 27 21 27 19 4 6 21 13 22 23 28 29 19
split_gain=114.646 16.0802 11.0444 7.4605 4.80618 1.52376 1.48926 0.3849 0.245826 0.537476 0.0559073 0.000124668 3.91112e-05 3.50689e-05 8.17871e-06
threshold=105.95000000000002 19.485000000000003 0.1358 26.435000000000006 0.098855000000000012 0.0036850000000000003 0.083870000000000014 0.068410000000000012 33.190000000000005 17.48 113.15000000000002 758.80000000000007 0.34620000000000001 0.062285 0.0019565000000000003
decision_type=2 2 2 2 2 2 2 2 2 2 2 2 2 2 2
left_child=2 5 8 -4 -3 -2 -6 -8 11 -10 -9 12 13 -1 -13
right_child=1 4 3 -5 6 -7 7 10 9 -11 -12 14 -14 -15 -16
leaf_value=0.0026805657502615007 0.0028204752306452284 -3.0419455800384382e-05 0.0020300122827532322 -0.0031414872404936099 -0.0012885786008863137 -0.00010869915690617718 -0.0024528355985553533 -0.0038671107298442441 0.0027534802783959851 0.00098565778765139032 -0.0035447004729665769 0.002690453725261071 0.0026816001029395984 0.0026698475276095905 0.0026826180497741309
leaf_weight=1.1991963088512481 1.6972589641809492 1.6778044253587747 1.9879384636878956 2.2264186292886734 1.1791487634182001 1.1031904965639112 1.2091036885976816 2.2375544756650951 1.6610019654035562 1.0611141473054884 21.301180243492126 1.0053824931383126 1.1998528987169255 27.602746859192848 1.0006501674652097
leaf_count=6 8 7 9 9 5 5 5 9 8 5 86 5 6 139 5
internal_value=0 -0.00276361 0.00226419 -0.000702059 -0.00321304 0.00166658 -0.003419 -0.00352051 0.00262413 0.00206436 -0.00357535 0.00267174 0.00267075 0.00267029 0.00268655
internal_weight=0 30.4052 38.9443 4.21436 27.6048 2.80045 25.927 24.7478 34.7299 2.72212 23.5387 32.0078 30.0018 28.8019 2.00603
internal_count=317 125 192 18 112 13 105 100 174 13 95 161 151 145 10
shrinkage=0.00194031


Tree=31
num_leaves=18
num_cat=0
split_feature=7 20 22 26 23 2 16 7 24 2 28 22 22 28 15 4 11
split_gain=119.12 13.2713 7.91432 2.98766 2.63917 6.90973 2.54828 1.52244 0.0963672 0.773946 0.0228818 0.00918258 0.00517337 0.00257538 0.00204036 0.00175851 0.000434637
threshold=0.051855000000000005 17.490000000000006 98.385000000000019 0.20695000000000002 861.75000000000011 94.060000000000016 0.044990000000000009 0.045125000000000005 0.14185000000000003 81.120000000000019 0.35870000000000007 118.25000000000001 106.70000000000002 0.33155000000000007 0.059655000000000007 0.08993000000000001 2.2135000000000002
decision_type=2 2 2 2 2 2 2 2 2 2 2 2 2 2 2 2 2
left_child=1 7 -2 -3 5 10 -7 8 12 13 -4 -6 16 -10 15 -13 -1
right_child=2 3 4 -5 11 6 -8 -9 9 -11 -12 14 -14 -15 -16 -17 -18
leaf_value=0.0028567896162765552 0.0011011051737065995 0.00036592707768894604 -0.0042334519228539851 -0.0040269157054522789 -0.0039380995523182541 0.003029745478671359 -0.0014277350996350538 0.00080741960793544838 0.0028598334589451544 0.00091889773558034773 -0.0038808980542389768 -0.0038171072276389109 0.0029781214380396061 0.0029741584207600481 -0.0038355297645993125 -0.0037424909932066699 0.0028944168567226155
leaf_weight=25.464636668562896 1.7826463729143167 1.2210923880338662 1.2439112216234236 1.4940078556537626 1.2435504645109201 1.0602435022592547 1.1717310994863508 1.723923236131667 4.9429923444986335 1.0232662707567213 2.2334292978048325 1.4870653748512328 1.6739954501390446 1.0340208709239957 1.2404769659042347 17.521963343024254 1.4058368653058995
leaf_count=129 8 5 5 6 5 5 5 8 25 5 9 6 8 5 5 71 7
internal_value=0 0.00239537 -0.00315124 -0.00205127 -0.00342991 -0.00217091 0.000689679 0.00271931 0.00281204 0.002593 -0.00400701 -0.00376434 0.00286576 0.00287961 -0.00375367 -0.00374833 0.00285876
internal_weight=0 39.9838 28.985 2.7151 27.2024 5.70932 2.23197 37.2687 35.5447 7.00028 3.47734 21.4931 28.5445 5.97701 20.2495 19.009 26.8705
internal_count=317 198 119 11 111 24 10 187 179 35 14 87 144 30 82 77 136
shrinkage=0.00208323


Tree=32
num_leaves=18
num_cat=0
split_feature=7 20 22 26 23 2 16 27 24 2 28 22 22 15 4 11 15
split_gain=116.444 13.0233 7.72219 2.91068 2.58196 6.72669 2.49451 1.64607 0.111634 0.750855 0.0211655 0.00852763 0.00582652 0.00189355 0.00163266 0.000406943 0.000270954
threshold=0.051855000000000005 17.490000000000006 98.385000000000019 0.20695000000000002 861.75000000000011 94.060000000000016 0.044990000000000009 0.13765000000000002 0.14185000000000003 81.120000000000019 0.35870000000000007 118.25000000000001 106.70000000000002 0.059655000000000007 0.08993000000000001 2.2135000000000002 0.011270000000000002
decision_type=2 2 2 2 2 2 2 2 2 2 2 2 2 2 2 2 2
left_child=1 7 -2 -3 5 10 -7 8 12 16 -4 -6 15 14 -13 -1 -10
right_child=2 3 4 -5 11 6 -8 -9 9 -11 -12 13 -14 -15 -16 -17 -18
leaf_value=0.0036023667951102134 0.0013787625275352587 0.00045749549416439022 -0.00529074477756748 -0.0050390990124146049 -0.0049307023391455479 0.0038161119054960697 -0.0017827919566371715 0.00075612118261058226 0.0036456138579904224 0.0011514394168535625 -0.0048609002596755437 -0.0047828225552843853 0.0037571269660090357 -0.0048053204126483331 -0.0046915958202733152 0.0036486932194912517 0.0036009100111698399
leaf_weight=25.44354301691056 1.7794417887926126 1.220762059092521 1.2440576851367979 1.4922778904438017 1.2414241135120416 1.0521736890077593 1.1728591620922086 1.5414110422134388 1.1962160170078266 1.0206955522298811 2.2287826240062714 1.4834102988243163 1.8715245872735966 1.2375776916742314 17.470507740974426 1.393984481692313 4.4994061440229416
leaf_count=130 8 5 5 6 5 5 5 7 6 5 9 6 9 5 71 7 23
internal_value=0 0.00301708 -0.00394897 -0.00256585 -0.0042984 -0.00271884 0.000864818 0.00342682 0.00354302 0.00323662 -0.00501488 -0.00471833 0.0036147 -0.00470527 -0.00469874 0.00360477 0.0036103
internal_weight=0 39.6798 28.9102 2.71304 27.1308 5.69787 2.22503 36.9668 35.4254 6.71632 3.47284 21.4329 28.7091 20.1915 18.9539 26.8375 5.69562
internal_count=317 198 119 11 111 24 10 187 180 34 14 87 146 82 77 137 29
shrinkage=0.00264003


Tree=33
num_leaves=18
num_cat=0
split_feature=7 20 21 23 21 27 18 21 28 20 25 12 23 19 15 27 6
split_gain=113.849 12.7815 10.6891 5.5883 3.00615 1.63325 1.185 0.260343 0.54261 0.0522375 0.0426495 0.00866054 0.0039178 0.00308303 0.0015846 0.00137003 0.000106757
threshold=0.051855000000000005 17.490000000000006 19.485000000000003 720.70000000000016 29.795000000000005 0.13765000000000002 0.025525000000000003 33.190000000000005 0.28265000000000007 17.000000000000004 0.38415000000000005 2.3935000000000004 805.95000000000016 0.0023130000000000004 0.059655000000000007 0.13030000000000003 0.092820000000000014
decision_type=2 2 2 2 2 2 2 2 2 2 2 2 2 2 2 2 2
left_child=1 5 6 -4 -3 7 -2 12 -9 10 -5 -12 16 -14 15 -11 -1
right_child=2 4 3 9 -6 -7 -8 8 -10 14 11 -13 13 -15 -16 -17 -18
leaf_value=0.0027251688000760749 0.0028878542170036278 0.00041131342243995651 -0.00017808029940693908 -0.0041072774162729513 -0.0038432506226764771 0.00056839225332885575 -0.0001106000281935494 0.0028059467566691992 0.00094671394504271722 -0.0036022032347909293 -0.0037819987505802889 -0.0035542658287266338 0.0027531591467247866 0.0028903735061401119 -0.0036176862202122739 -0.0035385615744265228 0.0027422278202241012
leaf_weight=28.06839802861214 1.0440420806407957 1.2198926806449883 2.1072199791669872 1.2482080757617979 1.4906033277511594 1.5396659076213826 1.0865049958229063 1.622256159782409 1.0409919917583463 1.4792622923851073 1.2437311410903933 1.4740780889987943 1.7723708450794213 1.05534391105175 1.2343352437019337 17.911309123039246 1.5645124465227116
leaf_count=145 5 5 9 5 6 7 5 8 5 6 5 6 9 5 5 73 8
internal_value=0 0.00228315 -0.00297358 -0.00331931 -0.00192843 0.00259451 0.00135875 0.00268333 0.00207922 -0.00358848 -0.00379973 -0.00365848 0.00273289 0.00280437 -0.00354786 -0.00354342 0.00272607
internal_weight=0 39.374 28.8287 26.6981 2.7105 36.6635 2.13055 35.1239 2.66325 24.5909 3.96602 2.71781 32.4606 2.82771 20.6249 19.3906 29.6329
internal_count=317 198 119 109 11 187 10 180 13 100 16 11 167 14 84 79 153
shrinkage=0.00200987


Tree=34
num_leaves=18
num_cat=0
split_feature=27 23 21 2 21 29 16 8 21 13 20 25 18 20 3 4 29
split_gain=111.003 14.0467 14.1593 11.6945 6.30811 2.82731 1.28844 0.368634 0.254344 0.546273 0.0732559 0.0624145 0.0082419 0.00211059 0.00191772 0.000102837 6.02388e-05
threshold=0.11065000000000001 736.30000000000007 19.485000000000003 98.710000000000022 26.435000000000006 0.06783500000000002 0.036100000000000007 0.15580000000000002 33.190000000000005 17.48 17.000000000000004 0.38415000000000005 0.017575000000000004 17.665000000000003 659.25000000000011 0.11900000000000001 0.06167000000000001
decision_type=2 2 2 2 2 2 2 2 2 2 2 2 2 2 2 2 2
left_child=3 4 6 8 12 -5 -3 -4 14 -10 11 -9 -2 -12 15 16 -1
right_child=1 2 7 5 -6 -7 -8 10 9 -11 13 -13 -14 -15 -16 -17 -18
leaf_value=0.0014502263912680941 0.0014655850341952839 0.0015090548779620125 -0.0013376478288803682 0.00018909037357761919 -0.0011314934494848267 -0.0020645928590105225 -4.340850062393036e-05 -0.0022568794065786382 0.0014859365989146193 0.00051712918899745968 -0.0019484234301622042 -0.0019763467255989476 0.0015913323678038804 -0.0019036690300257425 0.0014775292527684212 0.0014530361389076983 0.0014419141912015948
leaf_weight=0.99725994467735901 1.0128876119852095 1.2586749345064192 1.2063670754432703 1.2138978391885751 1.6783494800329206 1.2466002404689787 1.1128447055816648 1.2408332228660608 1.6524840295314782 1.0526524186134336 1.241101518273356 2.9819962084293365 1.3347382992506025 18.791816160082817 1.8374797403812397 1.000252678990363 28.251756131649017
leaf_count=5 5 6 5 5 7 5 5 5 8 5 5 12 6 76 9 5 143
internal_value=0 -0.00141052 -0.00167596 0.00126185 0.000424604 -0.000952728 0.000780555 -0.00190476 0.00141846 0.00110894 -0.00193296 -0.00205878 0.00153708 -0.00190644 0.00144456 0.00144256 0.0014422
internal_weight=0 31.8596 27.8336 37.2524 4.02598 2.4605 2.37152 25.4621 34.7919 2.70514 24.2557 4.22283 2.34763 20.0329 32.0867 30.2493 29.249
internal_count=317 132 114 185 18 10 11 103 175 13 98 17 11 81 162 153 148
shrinkage=0.00105111


Tree=35
num_leaves=18
num_cat=0
split_feature=22 27 22 21 28 3 15 21 18 27 7 27 21 18 25 28 7
split_gain=136.793 13.8646 10.5908 13.0787 3.16558 1.65074 0.449153 0.319847 0.489289 0.0272091 0.024831 0.0154048 0.0027587 0.00246141 0.00200449 0.00156015 0.000750458
threshold=105.95000000000002 0.15840000000000001 117.45000000000002 21.940000000000001 0.26805000000000007 659.25000000000011 0.037515000000000014 33.190000000000005 0.017185000000000002 0.11230000000000002 0.054180000000000006 0.13900000000000004 19.485000000000003 0.019245000000000002 0.18535000000000001 0.42545000000000005 0.065545000000000006
decision_type=2 2 2 2 2 2 2 2 2 2 2 2 2 2 2 2 2
left_child=1 5 3 13 -5 7 10 11 -9 -4 -6 16 -11 -2 -14 -16 -1
right_child=2 -3 9 4 6 -7 -8 8 -10 12 -12 -13 14 -15 15 -17 -18
leaf_value=0.0023847920145426489 0.0025346441996619853 -0.0021401531953740309 -0.0034699406163012153 9.5671800955414297e-05 -0.0036249325049992212 0.00071434956349653803 -0.0022027419212820361 0.00087773618339252615 0.0024599500544071032 -0.0032806798374203877 -0.0033072215408509469 0.0025517178309511206 -0.0032712375261424666 0.0024223108475146704 -0.0031952477257325331 -0.0032458812238974634 0.0024317718754799482
leaf_weight=33.241613477468491 1.3026973009109526 2.2119814604520789 1.2469884008169199 1.1868424564599989 1.2425510585308077 1.9006159752607334 1.2207075357437132 1.0622331351041787 1.2616306543350218 1.4966254979372049 1.7453999519348142 1.7437156885862339 1.2465913891792322 1.0310597419738767 18.146489292383198 1.9927165657281865 1.0344703495502461
leaf_count=165 6 9 5 5 5 9 5 5 6 6 7 8 5 5 73 8 5
internal_value=0 0.00204679 -0.00266232 -0.000912445 -0.00238197 0.00227692 -0.00308067 0.00235437 0.00173672 -0.00322285 -0.00343934 0.00239422 -0.00320938 0.00248502 -0.0032044 -0.00320026 0.00238621
internal_weight=0 42.4563 31.8587 7.72926 5.3955 40.2443 4.20866 38.3437 2.32386 24.1294 2.98795 36.0198 22.8824 2.33376 21.3858 20.1392 34.2761
internal_count=337 207 130 33 22 198 17 189 11 97 12 178 92 11 86 81 170
shrinkage=0.00171772


Tree=36
num_leaves=18
num_cat=0
split_feature=22 27 22 21 28 3 15 21 18 27 7 27 25 18 21 28 7
split_gain=123.483 12.7195 9.44424 11.9805 2.91461 1.63006 0.418431 0.327001 0.492662 0.0290797 0.0236108 0.0201593 0.00314535 0.00287457 0.00176952 0.00176924 0.000912643
threshold=105.95000000000002 0.15840000000000001 117.45000000000002 21.940000000000001 0.26805000000000007 659.25000000000011 0.037515000000000014 33.190000000000005 0.017185000000000002 0.11230000000000002 0.054180000000000006 0.13900000000000004 0.18230000000000005 0.019245000000000002 19.485000000000003 0.42545000000000005 0.065545000000000006
decision_type=2 2 2 2 2 2 2 2 2 2 2 2 2 2 2 2 2
left_child=1 5 3 13 -5 7 10 11 -9 -4 -6 16 -11 -2 -14 -16 -1
right_child=2 -3 9 4 6 -7 -8 8 -10 12 -12 -13 14 -15 15 -17 -18
leaf_value=0.0037159703773363994 0.003974530501663384 -0.0032170833897993368 -0.0052811477005512376 0.0001887886038471101 -0.0055186614718775616 0.0010407917912312764 -0.0033216743975635061 0.001271142962556644 0.0038356837849176191 -0.004985567245500414 -0.0050244378604577837 0.0040226963415289901 -0.0049441870240579909 0.0037784041936749411 -0.0048290111877308866 -0.0049153124005790819 0.0037997802270659225
leaf_weight=32.007708504796028 1.2765671610832243 2.2044216692447653 1.2447872161865259 1.1815414130687711 1.2444379925727846 1.8586438000202168 1.2093790769577024 1.0371042042970651 1.2234139889478681 1.2376654148101831 1.7329350858926771 1.7175464779138554 1.2355746626853967 0.9975251406431197 18.168585687875751 1.9732874929904927 1.0041148662567128
leaf_count=165 6 9 5 5 5 9 5 5 6 5 7 8 5 5 74 8 5
internal_value=0 0.00317926 -0.00402558 -0.00137731 -0.00360799 0.00354221 -0.00467948 0.0036679 0.0026591 -0.00487382 -0.00523101 0.00373356 -0.0048514 0.0038885 -0.00484363 -0.00483747 0.00371852
internal_weight=0 41.053 31.5023 7.64239 5.36829 38.8485 4.18675 36.9899 2.26052 23.8599 2.97737 34.7294 22.6151 2.27409 21.3774 20.1419 33.0118
internal_count=337 207 130 33 22 198 17 189 11 97 12 178 92 11 87 82 170
shrinkage=0.00273734


Tree=37
num_leaves=19
num_cat=0
split_feature=20 7 21 11 11 28 18 8 21 11 7 10 25 4 10 24 3 18
split_gain=116.026 21.0236 12.7699 3.33709 3.21587 0.912013 0.410572 0.328105 0.327326 0.489847 0.0427738 0.0178421 0.00846703 0.00812621 0.00527683 0.00240387 0.00160684 0.00114166
threshold=16.795000000000005 0.051855000000000005 25.790000000000003 0.63945000000000018 1.0075000000000001 0.19180000000000003 0.017275000000000002 0.15525000000000003 33.190000000000005 1.6820000000000002 0.053725000000000002 0.30990000000000006 0.33510000000000006 0.12215000000000002 0.25725000000000003 0.11640000000000002 672.55000000000007 0.029755000000000004
decision_type=2 2 2 2 2 2 2 2 2 2 2 2 2 2 2 2 2 2
left_child=1 5 4 -2 -3 -1 -4 -5 12 -10 -9 -8 16 -6 -14 -12 -7 -17
right_child=3 2 6 7 13 8 11 10 9 -11 15 -13 14 -15 -16 17 -18 -19
leaf_value=0.0008868282120948356 -0.00082638567218501317 -0.0011177627755854312 -0.0029561971243072856 -0.0031762448902694258 0.0036633615793647567 0.0033503312214592093 -0.0045007115167579916 -0.0047277393284371645 0.0011350673261870693 0.0034576277560117801 -0.0044530542693373637 -0.0048902556742023958 0.003395486429601074 0.0033805643403932201 0.0035964773451618512 -0.0043341056881579859 0.0034512600000435327 -0.0043970096111608835
leaf_weight=0.98429909348487754 1.8177015185356165 1.3546283841133098 1.2221877276897428 1.4828388690948511 1.7321818619966509 29.810301288962368 1.7298876643180849 1.9806517511606241 1.0338909924030297 1.2138485908508299 1.2332078218460107 1.2419636249542234 1.7660607248544686 0.97719234228134144 1.4729846715927122 18.113582476973537 1.0024728029966343 1.9665694385766972
leaf_count=5 8 6 5 6 8 155 7 8 5 6 5 5 9 5 7 74 5 8
internal_value=0 0.00244905 -0.0011307 -0.00406928 0.0020017 0.00324194 -0.00416598 -0.00430719 0.0033058 0.00238932 -0.00437918 -0.00466351 0.00336629 0.00356136 0.00348689 -0.00434679 0.00335361 -0.00434027
internal_weight=0 45.5419 8.25804 26.5946 4.064 37.2839 4.19404 24.7769 36.2996 2.24774 23.294 2.97185 34.0518 2.70937 3.23905 21.3134 30.8128 20.0802
internal_count=337 228 36 109 19 192 17 101 187 11 95 12 176 13 16 87 160 82
shrinkage=0.00247961


Tree=38
num_leaves=18
num_cat=0
split_feature=22 27 22 21 28 3 15 21 15 27 7 27 18 21 26 28 7
split_gain=118.126 12.273 9.06931 11.5315 2.80992 1.61581 0.403825 0.327382 0.489742 0.0270434 0.0204809 0.0190909 0.00265905 0.00220852 0.00177001 0.00151124 0.000805295
threshold=105.95000000000002 0.15840000000000001 117.45000000000002 21.940000000000001 0.26805000000000007 659.25000000000011 0.037515000000000014 33.190000000000005 0.012535000000000003 0.11230000000000002 0.054180000000000006 0.13900000000000004 0.019245000000000002 19.485000000000003 0.2657500000000001 0.42545000000000005 0.065545000000000006
decision_type=2 2 2 2 2 2 2 2 2 2 2 2 2 2 2 2 2
left_child=1 5 3 12 -5 7 10 11 -9 -4 -6 16 -2 -11 -15 -16 -1
right_child=2 -3 9 4 6 -7 -8 8 -10 13 -12 -13 -14 14 15 -17 -18
leaf_value=0.0036230418659862953 0.0038818554139185214 -0.0030951833355033773 -0.0050873038463392284 0.00020378139410960288 -0.0053047385525061934 0.00098854708502256949 -0.0031914822989984105 0.0012102427157142368 0.0037407650209094066 -0.0047795812828689476 -0.0048511612645750117 0.0039187841632857753 0.0036951899137797994 -0.0047618023558236569 -0.0046570156810302578 -0.0047358794807941806 0.0037012001017296425
leaf_weight=31.44830459356308 1.2631632238626509 2.1997973173856726 1.2417145818471933 1.1787464469671247 1.2439587861299517 1.8430510759353627 1.2045203447341917 1.029151335358619 1.2057997882366178 1.4755913317203546 1.7249510884284971 1.6946114301681507 0.98689965903758992 1.4730397611856485 17.554689571261409 1.9611576944589604 0.98711426556110282
leaf_count=165 6 9 5 5 5 9 5 5 6 6 7 8 5 6 72 8 5
internal_value=0 0.00309351 -0.00387899 -0.00131812 -0.00346978 0.00344982 -0.00450735 0.00357456 0.00257551 -0.00470022 -0.00504121 0.00363999 0.00379998 -0.00467882 -0.00467174 -0.00466494 0.00362542
internal_weight=0 40.4078 31.3084 7.60224 5.35218 38.208 4.17343 36.365 2.23495 23.7062 2.96891 34.13 2.25006 22.4645 20.9889 19.5158 32.4354
internal_count=337 207 130 33 22 198 17 189 11 97 12 178 11 92 86 80 170
shrinkage=0.00269445


Tree=39
num_leaves=17
num_cat=0
split_feature=22 27 22 21 21 3 21 18 3 27 27 25 18 21 3 7
split_gain=116.677 12.1561 8.90184 11.3623 2.46059 1.59684 0.328521 0.488286 0.0304388 0.0244796 0.018384 0.00255572 0.00235803 0.00182484 0.00138682 0.000775593
threshold=105.95000000000002 0.15840000000000001 117.45000000000002 21.940000000000001 27.570000000000004 659.25000000000011 33.190000000000005 0.017185000000000002 641.85000000000014 0.11230000000000002 0.13900000000000004 0.18230000000000005 0.019245000000000002 19.485000000000003 676.45000000000016 0.065545000000000006
decision_type=2 2 2 2 2 2 2 2 2 2 2 2 2 2 2 2
left_child=1 5 3 12 -5 6 10 -8 -6 -4 15 -11 -2 -13 -15 -1
right_child=2 -3 9 4 8 -7 7 -9 -10 11 -12 13 -14 14 -16 -17
leaf_value=0.0026937935182059247 0.0028782299062683507 -0.0022936549165224513 -0.0037593284309683445 -0.00090646350253010188 -0.0035314688484713122 0.00074068723314092775 0.00089227452930850954 0.0027797336883792372 -0.0039332011069818642 -0.0035584275390455203 0.0029107325571203352 -0.0035393826202351668 0.0027467489857047824 -0.0035250491292418431 -0.0034552732394609103 0.0027511443749890585
leaf_weight=31.273661464452744 1.2541906833648711 2.1998023986816397 1.2401678860187555 2.142994612455368 1.960485100746155 1.8445475548505772 1.0265653431415551 1.2001802474260328 1.244805261492729 1.2287930548191095 1.6863869577646244 1.2270743846893335 0.98159553110599507 1.2250595539808298 18.737576931715012 0.98179696500301261
leaf_count=165 6 9 5 9 8 9 5 6 5 5 8 5 5 5 77 5
internal_value=0 0.00229845 -0.00287733 -0.000983108 -0.00257316 0.00256419 0.00265718 0.00190958 -0.00368749 -0.00348454 0.00270623 -0.00346934 0.0028205 -0.00346418 -0.00345956 0.00269554
internal_weight=0 40.2129 31.2427 7.58407 5.34828 38.0131 36.1686 2.22675 3.20529 23.6587 33.9418 22.4185 2.23579 21.1897 19.9626 32.2555
internal_count=337 207 130 33 22 198 189 11 13 97 178 92 11 87 82 170
shrinkage=0.00200919


Tree=40
num_leaves=19
num_cat=0
split_feature=22 24 21 27 20 24 2 23 8 21 11 27 27 11 19 12 18 5
split_gain=124.458 13.2387 12.7798 7.93587 2.48627 6.63165 2.18853 2.90395 0.608157 0.262196 0.540952 0.0700971 0.0357619 0.0286873 0.0106314 0.00557719 0.00515516 0.00143626
threshold=105.95000000000002 0.17810000000000001 20.225000000000005 0.14545000000000005 16.795000000000005 0.13155000000000003 90.170000000000016 758.80000000000007 0.23975000000000005 33.190000000000005 1.5465000000000002 0.11575000000000002 0.14105000000000004 0.95620000000000005 0.0029875000000000001 2.1410000000000005 0.015355000000000002 0.082640000000000005
decision_type=2 2 2 2 2 2 2 2 2 2 2 2 2 2 2 2 2 2
left_child=1 6 3 16 5 -4 8 -8 9 12 -11 14 -1 -7 -6 -13 -2 -17
right_child=2 -3 4 -5 11 13 7 -9 -10 10 -12 15 -14 -15 -16 17 -18 -19
leaf_value=0.0018980871501936814 0.0020491906913996227 -0.0022065704120525459 0.0011454166567030754 -0.0019848290541076086 -0.0028428019949838018 -0.0028270419707784196 -0.00094182310543850997 0.001930028788730051 0.00080635874828569271 0.00068129361755950323 0.0019552799722045073 -0.0025972362296797658 0.0021139126366492692 -0.0025283906881481302 -0.0026615665191372555 -0.0025473519840575752 0.0019169109804281501 -0.0024986529306598587
leaf_weight=31.244936883449554 1.0775723606348035 1.6957950145006169 1.3497361987829237 1.6980573832988737 1.2478209882974653 1.2403100281953814 1.3035537600517266 1.4134513884782789 1.0580382198095311 1.0526173263788217 1.6452666670083997 1.242050945758822 1.5521179884672154 1.2375468313693998 1.2457353323698042 1.2395929098129297 1.1985678970813749 19.753343284130096
leaf_count=159 5 7 6 7 5 5 6 7 5 5 8 5 7 5 5 5 6 80
internal_value=0 0.00158992 -0.00204601 0.000285679 -0.00237051 -0.00132966 0.00175386 0.000552183 0.00184319 0.00187409 0.00145822 -0.00253162 0.0019083 -0.00267788 -0.00275226 -0.00250687 0.00197953 -0.00250153
internal_weight=0 40.9658 32.5303 3.9742 28.5561 3.82759 39.27 2.71701 36.553 35.4949 2.69788 24.7285 32.7971 2.47786 2.49356 22.235 2.27614 20.9929
internal_count=338 204 134 18 116 16 197 13 184 179 13 100 166 10 10 90 11 85
shrinkage=0.0013878


Tree=41
num_leaves=19
num_cat=0
split_feature=22 21 28 7 21 26 20 4 18 7 21 27 27 18 23 15 10 4
split_gain=112.983 11.7955 10.1357 9.18096 2.35581 7.72431 2.22657 6.17177 0.949093 0.0878271 0.0318933 0.0269968 0.00664098 0.00558144 0.000908927 0.000890375 0.000481754 0.000427019
threshold=105.95000000000002 20.225000000000005 0.36170000000000008 0.079470000000000013 31.685000000000006 0.21185000000000001 16.795000000000005 0.098045000000000007 0.011615000000000002 0.051855000000000005 29.420000000000005 0.13900000000000004 0.12090000000000002 0.015355000000000002 758.80000000000007 0.059655000000000007 0.26050000000000001 0.086580000000000018
decision_type=2 2 2 2 2 2 2 2 2 2 2 2 2 2 2 2 2 2
left_child=2 3 4 13 8 16 7 -3 -1 -8 -9 14 -11 -2 -10 -14 17 -6
right_child=1 6 -4 -5 5 -7 9 10 11 12 -12 -13 15 -15 -16 -17 -18 -19
leaf_value=0.00098797308588661321 0.0041251414786384281 0.002306917388266886 -0.0031936647546310544 -0.0049666117320946047 0.003879866146694669 -0.0047058204733228162 -0.0055081072883805763 -0.0055876725226968581 0.0037949147207385916 -0.0050896972422388425 -0.0049420525095610155 0.004144915789878959 -0.0048711664137365994 0.0038539144627714335 0.0038695561097607141 -0.0049498939019445697 0.0038449489481940748 0.0039626172939815378
leaf_weight=0.97917328774928947 1.2725899964570997 1.3318492025136976 1.9146551340818394 1.4700579941272733 0.98430335521697987 1.1667420864105222 1.9926623553037668 1.2339286953210833 29.328491732478145 1.2316944748163248 1.2223968058824537 1.9152996689081181 19.952262490987781 1.1675604134798048 1.3704863339662541 1.2236016690731037 0.96733981370925892 1.0181093364953993
leaf_count=5 6 6 8 6 5 5 8 5 155 5 5 9 82 6 7 5 5 5
internal_value=0 -0.00398483 0.00316502 0.000626075 0.0034877 0.00147038 -0.00462445 -0.00260375 0.0037361 -0.00493816 -0.00526638 0.00381861 -0.00488748 0.00399537 0.00379825 -0.00487572 0.00389686 0.00392194
internal_weight=0 32.0986 39.6446 3.91021 37.7299 4.13649 28.1884 3.78817 33.5935 24.4002 2.45633 32.6143 22.4076 2.44015 30.699 21.1759 2.96975 2.00241
internal_count=338 134 204 18 196 20 116 16 176 100 10 171 92 12 162 87 15 10
shrinkage=0.00283293


Tree=42
num_leaves=17
num_cat=0
split_feature=7 23 23 21 13 21 7 7 21 13 20 28 27 26 27 12
split_gain=121.489 14.8051 13.2004 5.87844 2.91168 2.68726 5.30775 1.37881 0.257432 0.537127 0.0325775 0.0221344 0.0134501 0.00552252 0.00286075 0.000786691
threshold=0.051855000000000005 957.45000000000016 736.30000000000007 26.330000000000002 43.45000000000001 22.375000000000004 0.079470000000000013 0.045125000000000005 33.190000000000005 17.48 17.000000000000004 0.35430000000000006 0.13030000000000003 0.31600000000000006 0.13765000000000002 8.5040000000000031
decision_type=2 2 2 2 2 2 2 2 2 2 2 2 2 2 2 2
left_child=1 4 3 13 7 6 -4 8 12 -10 11 -7 -1 -2 -12 -16
right_child=2 -3 5 -5 -6 10 -8 -9 9 -11 14 -13 -14 -15 15 -17
leaf_value=0.0019046898099841904 0.0019283579092006285 -0.0021590701081356336 0.0010443526219446138 -0.0018432478721981031 -0.00053026444412423339 -0.0027757213489738668 -0.0025227948546240318 0.00066732674025007802 0.0019613384484337124 0.00068229224247770158 -0.0025571511672341646 -0.0025561105996712075 0.0020400351119584737 0.0020720926942365595 -0.0024957403726570465 -0.0025321056255058869
leaf_weight=32.087317392230034 0.99890075623989094 1.9801048785448063 1.2809321284294157 1.2305656820535658 1.0589720457792271 1.494101047515872 2.2240051627159119 1.932387202978133 1.6379514634609216 1.0497963577508924 1.7345165908336664 2.2275700122117996 1.4974780380725849 1.0884031653404234 18.485391423106197 1.2367122918367375
leaf_count=164 5 8 6 5 5 6 9 9 8 5 7 9 7 5 75 5
internal_value=0 0.00156515 -0.00205938 0.000576657 0.00175296 -0.0023643 -0.00121913 0.00181625 0.00187746 0.00146176 -0.00252371 -0.00264428 0.00191072 0.00200331 -0.0025028 -0.00249802
internal_weight=0 41.244 32.0011 3.31787 39.2639 28.6832 3.50494 38.2049 36.2725 2.68775 25.1783 3.72167 33.5848 2.0873 21.4566 19.7221
internal_count=338 206 132 15 198 117 15 193 184 13 102 15 171 10 87 80
shrinkage=0.00139591


Tree=43
num_leaves=18
num_cat=0
split_feature=22 24 21 7 20 24 2 23 8 21 13 7 27 11 27 18 12
split_gain=111.828 12.3637 11.6181 9.06778 2.20232 6.0636 2.14184 2.80954 0.583897 0.263949 0.542106 0.0799842 0.0337713 0.0299957 0.00610149 0.00507094 0.000968419
threshold=105.95000000000002 0.17810000000000001 20.225000000000005 0.079470000000000013 16.795000000000005 0.13155000000000003 90.170000000000016 758.80000000000007 0.23975000000000005 33.190000000000005 17.48 0.051855000000000005 0.14105000000000004 0.95620000000000005 0.12090000000000002 0.015355000000000002 2.3935000000000004
decision_type=2 2 2 2 2 2 2 2 2 2 2 2 2 2 2 2 2
left_child=1 6 3 15 5 -4 8 -8 9 12 -11 -6 -1 -7 -13 -2 -16
right_child=2 -3 4 -5 11 13 7 -9 -10 10 -12 14 -14 -15 16 -17 -18
leaf_value=0.0025274379175406776 0.0027365794129994635 -0.0029039235729229887 0.0015233919161208823 -0.0032948629582700249 -0.0036397589999646405 -0.0036952576046460433 -0.0013277987051159841 0.0025726614457850603 0.0010512358633494093 0.0026075606366078451 0.00084802100067773122 -0.0033740046343891193 0.0028164386498409012 -0.0032774986428483039 -0.003277206164304818 0.0025637320564969764 -0.0032330421396866184
leaf_weight=29.998963221907619 1.265148192644119 1.6839770227670658 1.3285644203424483 1.4674850553274152 1.9914830476045633 1.2338430583477022 1.2763332128524774 1.3630600124597547 1.0322887301444996 1.5934621840715402 1.0282584279775617 1.2298923134803796 1.516122817993163 1.2200336158275602 1.9524793475866342 1.1624311059713361 19.186428859829903
leaf_count=159 6 7 6 6 8 5 6 7 5 8 5 5 7 5 8 6 79
internal_value=0 0.00210482 -0.00264545 0.000412619 -0.0030687 -0.00172748 0.00232791 0.000686513 0.0024511 0.00249343 0.00191746 -0.00327695 0.00254134 -0.00348755 -0.00324465 0.00265381 -0.00323712
internal_weight=0 39.4925 32.0378 3.89506 28.1427 3.78244 37.8085 2.63939 35.1691 34.1368 2.62172 24.3603 31.5151 2.45388 22.3688 2.42758 21.1389
internal_count=338 204 134 18 116 16 197 13 184 179 13 100 166 10 92 12 87
shrinkage=0.00188923


Tree=44
num_leaves=18
num_cat=0
split_feature=22 24 21 7 20 4 2 21 8 21 14 7 27 15 27 18 12
split_gain=109.415 12.1122 11.3228 8.87494 2.15745 5.91284 2.12104 2.7637 0.581748 0.264383 0.539721 0.0743584 0.0319534 0.0279536 0.0056868 0.00479824 0.000902646
threshold=105.95000000000002 0.17810000000000001 20.225000000000005 0.079470000000000013 16.795000000000005 0.098045000000000007 90.170000000000016 25.155000000000005 0.23975000000000005 33.190000000000005 0.0071710000000000012 0.051855000000000005 0.14105000000000004 0.029895000000000001 0.12090000000000002 0.015355000000000002 2.3935000000000004
decision_type=2 2 2 2 2 2 2 2 2 2 2 2 2 2 2 2 2
left_child=1 6 3 15 5 -4 8 -8 9 12 -11 -6 -1 -7 -13 -2 -16
right_child=2 -3 4 -5 11 13 7 -9 -10 10 -12 14 -14 -15 16 -17 -18
leaf_value=0.0032582949471424792 0.0035228863107537658 -0.00370891703933262 0.0019524907873804897 -0.0042242024720665142 -0.0046550868483208278 -0.0047254429368223817 0.0033175548552881336 -0.0017001668157191395 0.0013464162447461802 0.0033604230228925108 0.0010802385882374508 -0.0043233202106437822 0.0036236972622834414 -0.0042024975057231217 -0.0042021147563397806 0.003304222876174023 -0.0041467885625360527
leaf_weight=29.725839868187908 1.2554063946008716 1.6841629445552815 1.324114903807643 1.4621351212263105 1.9890026003122354 1.2324679195880892 1.3527076095342629 1.2780136615037916 1.0295332074165333 1.5819151848554605 1.0235869288444517 1.2260690033435846 1.5052707344293583 1.2154257446527479 1.945108681917193 1.1521460264921186 19.108040243387222
leaf_count=159 6 7 6 6 8 5 7 6 5 8 5 5 7 5 8 6 79
internal_value=0 0.00271015 -0.00339278 0.000530597 -0.00393423 -0.00221274 0.00299846 0.000879928 0.00315831 0.00321344 0.00246464 -0.0042018 0.00327591 -0.00446579 -0.00416133 0.00341824 -0.0041519
internal_weight=0 39.181 31.9099 3.86969 28.0402 3.77201 37.4969 2.63072 34.8661 33.8366 2.6055 24.2682 31.2311 2.44789 22.2792 2.40755 21.0531
internal_count=338 204 134 18 116 16 197 13 184 179 13 100 166 10 92 12 87
shrinkage=0.00244677


Tree=45
num_leaves=19
num_cat=0
split_feature=22 21 27 21 10 27 20 12 18 26 18 21 11 27 2 5 2 9
split_gain=120.481 11.6409 11.1726 7.42196 6.85329 3.92387 1.52702 3.04167 0.693515 0.388835 0.341212 0.198337 0.399966 0.00963845 0.00525014 0.00416622 0.0017621 0.000547413
threshold=105.95000000000002 20.225000000000005 0.1358 26.330000000000002 0.59965000000000013 0.091335000000000013 16.795000000000005 2.4065000000000007 0.011615000000000002 0.46350000000000008 0.015355000000000002 33.190000000000005 1.6820000000000002 0.13765000000000002 103.50000000000001 0.13225000000000003 90.170000000000016 0.075995000000000021
decision_type=2 2 2 2 2 2 2 2 2 2 2 2 2 2 2 2 2 2
left_child=2 4 8 -4 10 -3 7 -7 -1 -5 -2 15 -13 14 -8 16 -10 -15
right_child=1 5 3 9 -6 6 13 -9 11 -11 -12 12 -14 17 -16 -17 -18 -19
leaf_value=0.0010860985326845813 0.0023146171717800569 0.00035837516942013479 0.001776551857148401 -0.0022303247235998043 -0.0020014617817685917 -0.0021304273486754607 -0.0021162222175976617 0.000640195881380931 0.0021221433528603776 -0.0011632193375670495 0.0013604664654703871 0.0011965529392897944 0.0022237698804938922 -0.0019759015785038529 -0.0020086763779508161 0.0021913594336076844 0.0021610435235906926 -0.0020058935942338443
leaf_weight=1.1942473500967015 1.4620604366064105 1.4503022134304071 1.9323983788490284 1.2054672539234164 1.1232497245073316 1.6316763162612944 1.4061297327280073 1.1941596269607542 38.100739032030106 1.1718633770942686 1.1774405837059019 1.2125062793493264 1.4465557038784025 17.972967267036442 1.802452281117439 1.6748989671468724 2.1401974856853476 1.1253046095371235
leaf_count=5 6 6 8 5 5 7 6 5 162 5 5 5 6 81 8 7 9 5
internal_value=0 -0.00144404 0.00188696 -0.000143562 0.000727616 -0.00175143 -0.00187318 -0.0009596 0.00207815 -0.00170431 0.00188899 0.00210473 0.00175537 -0.00198891 -0.00205581 0.0021269 0.00212421 -0.00197767
