tree
version=v3
num_class=1
num_tree_per_iteration=1
label_index=0
max_feature_idx=29
objective=binary sigmoid:1
feature_names=mean_radius mean_texture mean_perimeter mean_area mean_smoothness mean_compactness mean_concavity mean_concave_points mean_symmetry mean_fractal_dimension radius_error texture_error perimeter_error area_error smoothness_error compactness_error concavity_error concave_points_error symmetry_error fractal_dimension_error worst_radius worst_texture worst_perimeter worst_area worst_smoothness worst_compactness worst_concavity worst_concave_points worst_symmetry worst_fractal_dimension
feature_infos=11:12:13:14:10:9:15:20:16:19:17:18:8:21:23 18:16:17:19:21:20:15:14:13:22:23:12:24:25:26:27:28:10:11:29 [43.789999999999999:188.5] [143.5:2501] [0.052630000000000003:0.16339999999999999] [0.019380000000000001:0.34539999999999998] [0:0.42680000000000001] [0:0.20119999999999999] [0.106:0.30399999999999999] [0.049959999999999997:0.097439999999999999] [0.1115:2.8730000000000002] [0.36020000000000002:4.8849999999999998] [0.75700000000000001:21.98] [6.8019999999999996:542.20000000000005] [0.0017129999999999999:0.031130000000000001] [0.0022520000000000001:0.13539999999999999] [0:0.39600000000000002] [0:0.052789999999999997] [0.0078820000000000001:0.078950000000000006] [0.0009502:0.029839999999999998] [7.9299999999999997:36.039999999999999] [12.02:47.159999999999997] [50.409999999999997:251.19999999999999] [185.19999999999999:4254] [0.071169999999999997:0.20979999999999999] [0.027289999999999998:1.0580000000000001] [0:1.252] [0:0.29099999999999998] [0.1565:0.66379999999999995] [0.055039999999999999:0.20749999999999999]
tree_sizes=827 1446 1783 1784 1660 1572 1681 1681 1681 1676 1789 1684 1685 1676 1655 1471 1583 1471 1576 1680 1672 1442 1448 1569 1575 1775 1674 1570 1668 1676 1784 1791 1569 1365 1671 1678 1680 1684 1676 1790 1575 1681 1569 1559 1568 1580 1578 1575 1795 1469

Tree=0
num_leaves=7
num_cat=0
split_feature=22 7 25 7 21 11
split_gain=243.092 23.3359 11.7166 0.70757 0.551343 0.192807
threshold=105.95000000000002 0.051855000000000005 0.33580000000000004 0.066075000000000009 30.200000000000003 1.8470000000000002
decision_type=2 2 2 2 2 2
left_child=2 -2 4 -3 5 -1
right_child=1 3 -4 -5 -6 -7
leaf_value=0.67694580630619239 0.58329688755718234 0.48028307693327132 0.58954014880711636 0.45843166255850221 0.65873629432721825 0.66602009911880788
leaf_weight=34.322720021009445 4.805180802941325 4.5763626694679287 4.5763626694679251 19.449541345238686 5.4916352033615103 4.5763626694679251
leaf_count=150 21 20 20 85 24 20
internal_value=0 -2.3356 1.32445 -2.73795 1.48151 1.52338
internal_weight=0 28.8311 48.9671 24.0259 44.3907 38.8991
internal_count=340 126 214 105 194 170
shrinkage=1


Tree=1
num_leaves=13
num_cat=0
split_feature=27 23 20 20 8 4 7 5 21 21 11 2
split_gain=216.996 36.5828 2.66238 1.9947 0.201317 0.605099 0.00244216 0.00126585 0.000181678 0.000133895 2.57154e-05 2.84217e-14
threshold=0.14695000000000003 864.60000000000014 15.745000000000003 16.850000000000005 0.16205000000000003 0.090060000000000015 0.07746500000000002 0.1178 23.940000000000001 28.580000000000002 1.4665000000000001 117.45000000000002
decision_type=2 2 2 2 2 2 2 2 2 2 2 2
left_child=1 2 4 -2 5 8 -5 9 -1 10 -6 -8
right_child=3 -3 -4 6 7 -7 11 -9 -10 -11 -12 -13
leaf_value=0.075421668231571148 -0.093074038686127805 -0.074138620064618688 0.033094174693354073 -0.13037615505004985 0.075408331643651377 0.053219982432051151 -0.12907957773722423 0.076401905923887015 0.075866530479325872 0.075740234717837585 0.075541495380383183 -0.12907957773722423
leaf_weight=4.6924542486667615 4.6449661701917675 4.8872791081666938 4.5478374958038321 4.7280803173780468 15.86228847503663 4.4766719937324515 4.9835470765829077 4.519660457968711 4.4921074360609055 4.4869147986173621 4.6995773911476126 10.679029449820517
leaf_count=21 20 21 20 20 71 20 21 20 20 20 21 45
internal_value=0 1.12312 1.38968 -2.45288 1.46625 1.36585 -2.5876 1.51263 1.51278 1.50986 1.50878 -2.58159
internal_weight=0 52.6648 47.7775 25.0356 43.2297 13.6612 20.3907 29.5684 9.18456 25.0488 20.5619 15.6626
internal_count=340 234 213 106 193 61 86 132 41 112 92 66
shrinkage=0.05


Tree=2
num_leaves=16
num_cat=0
split_feature=22 7 26 21 21 10 7 3 22 19 11 8 2 25 8
split_gain=194.911 17.5701 10.4848 0.592829 0.546278 0.199973 0.014943 0.000339974 0.000316001 0.000153957 2.80461e-05 2.90509e-05 1.93839e-07 1.93744e-08 6.04533e-10
threshold=105.95000000000002 0.051855000000000005 0.33870000000000006 24.705000000000002 30.200000000000003 0.40995000000000009 0.068540000000000018 901.95000000000016 98.135000000000005 0.0045870000000000017 1.4085000000000003 0.15960000000000002 129.50000000000003 0.18730000000000002 0.17660000000000001
decision_type=2 2 2 2 2 2 2 2 2 2 2 2 2 2 2
left_child=2 -2 4 -3 5 8 -5 -8 9 10 11 -1 -9 14 -13
right_child=1 3 -4 6 -6 -7 7 12 -10 -11 -12 13 -14 -15 -16
leaf_value=0.073692521029857919 -0.01314431275342464 -0.10097790105951235 -0.0093685088175113722 -0.12278051625248032 0.055196763956438091 0.062350048491942839 -0.12000143293881596 -0.11948985057978877 0.074133227439010935 0.073950020480374037 0.073742168430135854 0.073561979219701285 -0.11950336150194951 0.073558353228758686 0.07356279324700038
leaf_weight=6.1076431572437384 4.8776160329580334 4.8391723781824139 4.5810140967369071 5.0679077655077007 5.2715951651334754 4.3690396249294272 4.8609184920787802 4.8669774383306486 4.3900789916515341 4.3776090890169135 4.3659475296735755 4.354165703058241 5.8401879072189331 4.3539246022701255 4.7896417081356049
leaf_count=28 21 20 20 21 24 20 20 20 20 20 20 20 24 20 22
internal_value=0 -2.00166 1.24981 -2.33457 1.40516 1.44795 -2.40845 -2.39309 1.47477 1.47355 1.47255 1.47204 -2.38994 1.47122 1.47125
internal_weight=0 30.3528 46.9607 25.4752 42.3796 37.1081 20.636 15.5681 32.739 28.3489 23.9713 19.6054 10.7072 13.4977 9.14381
internal_count=340 126 214 105 194 170 85 64 150 130 110 90 44 62 42
shrinkage=0.05


Tree=3
num_leaves=16
num_cat=0
split_feature=22 7 28 21 21 28 7 25 10 2 11 25 28 3 19
split_gain=175.879 15.3571 10.8661 0.583611 0.516695 0.194116 0.0103524 0.00849733 0.00024519 0.000152321 6.62414e-05 3.33798e-05 7.97023e-06 2.72041e-07 2.2167e-07
threshold=105.95000000000002 0.051855000000000005 0.33865000000000006 30.200000000000003 24.705000000000002 0.22340000000000002 0.068540000000000018 0.26590000000000008 0.51185000000000014 87.800000000000026 1.5195000000000001 0.21175000000000002 0.25260000000000005 1168.0000000000002 0.0023785000000000004
decision_type=2 2 2 2 2 2 2 2 2 2 2 2 2 2 2
left_child=2 -2 3 5 -3 -1 -6 9 -8 10 11 12 -7 -10 -14
right_child=1 4 -4 -5 6 7 8 -9 13 -11 -12 -13 14 -15 -16
leaf_value=0.061471161808643884 -0.012443116606161471 -0.094422972700415761 -0.01330425137437952 0.052686326263727004 -0.11437773625355765 0.07197348848285498 -0.11209177399881141 0.074419870821294698 -0.11165878389396296 0.072317221804040918 0.072176410566758664 0.072080978452064667 0.071903428286433424 -0.11167461288765479 0.071888082835567413
leaf_weight=4.6802948564290991 4.8944106400012997 4.9142463803291347 4.4652649760246268 4.9530206173658362 5.1654341816902187 4.8779147118330135 4.9416118115186682 4.3907880038022986 5.1927623897790891 4.4795553833246222 4.2567753046751013 4.2491305917501441 4.2365429848432523 5.6871589869260788 5.2942434996366501
leaf_count=22 21 20 20 23 21 23 20 20 21 21 20 20 20 23 25
internal_value=0 -1.87337 1.21603 1.37581 -2.18034 1.41956 -2.24868 1.44756 -2.23599 1.44101 1.43997 1.43916 1.43843 -2.23334 1.4379
internal_weight=0 30.7956 45.8835 41.4183 25.9012 36.4652 20.987 31.785 15.8215 27.3942 22.9146 18.6578 14.4087 10.8799 9.53079
internal_count=340 126 214 194 105 171 85 149 64 129 108 88 68 44 45
shrinkage=0.05


Tree=4
num_leaves=15
num_cat=0
split_feature=27 23 23 22 15 16 25 22 21 21 11 28 12 18
split_gain=160.396 29.3736 2.25519 1.03318 0.213637 0.682921 0.00502694 0.00401129 0.00119475 0.000425065 0.000268718 0.000109301 4.30524e-05 1.57065e-05
threshold=0.14695000000000003 864.60000000000014 749.95000000000016 114.45 0.012025000000000003 0.011425000000000003 0.28590000000000004 129.55000000000004 26.565000000000001 27.125000000000004 1.2205000000000001 0.30625000000000008 2.1185000000000005 0.019605000000000001
decision_type=2 2 2 2 2 2 2 2 2 2 2 2 2 2
left_child=1 2 4 -2 5 10 9 -5 -9 11 -1 12 -6 -10
right_child=3 -3 -4 7 6 -7 -8 8 13 -11 -12 -13 -14 -15
leaf_value=0.070485236732030776 -0.080186962903197767 -0.062375840004378229 0.030834380317306523 -0.10706601862432318 0.070492016619411513 0.046389557553795417 0.072636344256850519 -0.10609198466146819 -0.10511344854601662 0.071149063984496982 0.071018125206128088 0.070862428991326776 0.070681167831859182 -0.10523146559476262
leaf_weight=5.153847470879553 4.8135566413402584 5.0638161450624457 4.4252524375915518 4.9730786234140423 7.6282982081174939 4.1314927637577048 4.2792809158563605 4.9831765890121487 6.4846120327711088 5.4287684708833686 4.3730501532554626 4.1518666595220557 4.9671026468276978 4.9876205027103424
leaf_count=25 20 21 20 20 37 20 20 20 26 26 21 20 24 20
internal_value=0 1.0347 1.29417 -2.02239 1.36891 1.26734 1.42135 -2.11643 -2.10891 1.41529 1.4146 1.4128 1.41133 -2.1033
internal_weight=0 49.6028 44.539 26.242 40.1137 13.6584 26.4553 21.4285 16.4554 22.176 9.5269 16.7473 12.5954 11.4722
internal_count=340 234 213 106 193 66 127 86 66 107 46 81 61 46
shrinkage=0.05


Tree=5
num_leaves=14
num_cat=0
split_feature=7 27 3 24 27 2 23 17 3 11 2 26 26
split_gain=150.755 14.0246 6.75052 0.567818 0.288992 0.126959 0.00191373 0.000451286 0.000573531 0.000334235 0.000125625 0.00010183 0.000240936
threshold=0.049230000000000003 0.14695000000000003 667.15000000000009 0.13190000000000004 0.093225000000000016 97.590000000000018 687.05000000000007 0.012630000000000001 1090.0000000000002 1.4270000000000003 70.910000000000011 0.070595000000000005 0.12505000000000002
decision_type=2 2 2 2 2 2 2 2 2 2 2 2 2
left_child=2 -2 4 -3 6 -5 9 -7 -9 11 -11 -1 -13
right_child=1 3 -4 5 -6 7 -8 8 -10 10 -12 12 -14
leaf_value=0.069060305174220613 -0.016879799955606751 -0.084444471511594496 0.0029970242227983714 -0.10921986217869284 0.058556563596347394 -0.099678571616193951 0.070525875094436016 -0.1005900319340928 -0.09985010061566596 0.06982554228359078 0.069431551552488646 0.069568490838310307 0.069122470723541746
leaf_weight=5.3948225080967047 6.5793930590152732 5.7303606271743801 4.5792603641748419 4.9338139593601253 7.5209138542413703 5.4999019354581824 4.104027420282363 5.4994102865457517 4.9998422414064407 4.0634502023458463 4.0295736044645309 5.4563827216625196 6.8028479963541031
leaf_count=27 29 23 20 20 36 22 20 22 20 20 20 27 34
internal_value=0 -1.64515 1.20591 -1.9678 1.34632 -2.04416 1.39046 -2.00091 -2.00475 1.38727 1.39259 1.38483 1.38642
internal_weight=0 33.2427 41.9513 26.6633 37.372 20.933 29.8511 15.9992 10.4993 25.7471 8.09302 17.6541 12.2592
internal_count=340 136 204 107 184 84 148 64 42 128 40 88 61
shrinkage=0.05


Tree=6
num_leaves=15
num_cat=0
split_feature=7 21 2 7 21 22 6 24 22 21 16 18 21 25
split_gain=137.606 14.1985 6.47579 1.74542 0.801651 0.0666224 0.0181594 0.00421135 0.00103331 0.000368089 0.00016361 7.65923e-05 4.24157e-05 1.49139e-05
threshold=0.049230000000000003 21.385000000000002 94.765000000000015 0.060215000000000012 31.870000000000001 122.95000000000002 0.068860000000000018 0.13190000000000004 97.740000000000009 27.655000000000005 0.021920000000000005 0.026580000000000003 18.435000000000006 0.15690000000000004
decision_type=2 2 2 2 2 2 2 2 2 2 2 2 2 2
left_child=2 -2 4 -3 6 -5 8 -7 10 -9 11 12 -1 -14
right_child=1 3 -4 5 -6 7 -8 9 -10 -11 -12 -13 13 -15
leaf_value=0.068011822479706621 0.0027293999980011669 -0.064200999841392464 0.0028141719962777503 -0.10209601946747632 0.044919740827176542 -0.096826263993900027 0.071660091254253017 -0.095447111287198946 0.068865963714845005 -0.094918366713465124 0.068235151707048414 0.068115304757724149 0.067874900923467901 0.067756395314427273
leaf_weight=3.8930710107088187 4.6682770997285834 4.9131109565496471 4.5741492062807074 4.9687631130218533 4.0294113159179679 4.9902275651693371 4.1532540321350089 5.4870604425668708 3.9647917151451102 8.22630727291107 5.4796837717294684 4.0980829149484626 5.6253363639116269 5.0278927385807037
leaf_count=20 20 21 20 20 20 20 20 22 20 33 28 21 29 26
internal_value=0 -1.56236 1.17753 -1.82642 1.31893 -1.93899 1.37148 -1.91165 1.36236 -1.9026 1.3599 1.35849 1.35741 1.35638
internal_weight=0 33.2537 40.8457 28.5855 36.2715 23.6724 32.2421 18.7036 28.0889 13.7134 24.1241 18.6444 14.5463 10.6532
internal_count=340 136 204 116 184 95 164 75 144 55 124 96 75 55
shrinkage=0.05


Tree=7
num_leaves=15
num_cat=0
split_feature=22 27 13 27 24 19 3 11 18 26 21 4 15 26
split_gain=125.635 19.6501 2.31775 1.24954 0.380858 0.587469 0.0532757 0.0108361 0.00422971 0.00190479 0.000537259 0.000297077 4.64354e-05 8.29787e-05
threshold=113.40000000000002 0.14205000000000004 32.600000000000001 0.14840000000000003 0.14095000000000005 0.0034935000000000005 610.95000000000016 0.84755000000000014 0.022695000000000003 0.19760000000000003 26.250000000000004 0.10455000000000002 0.013425000000000001 0.070595000000000005
decision_type=2 2 2 2 2 2 2 2 2 2 2 2 2 2
left_child=1 2 4 -2 6 -6 9 -5 11 10 12 -9 13 -1
right_child=3 -3 -4 7 5 -7 -8 8 -10 -11 -12 -13 -14 -15
leaf_value=0.066629588617830929 -0.064749959203382404 -0.03795382674352854 0.026344164397115961 -0.09422687627419031 0.041379883499235631 0.068097942292293503 0.073191991739554749 -0.091247504450001585 -0.092692441757656202 0.068057124434007771 0.067312324175471408 -0.090736464359464697 0.06659525661851827 0.066946483882782279
leaf_weight=4.3075651079416364 5.1078147143125561 5.7479758709669104 4.3127704560756674 4.9618043005466488 3.8179261684417707 4.4616546928882599 4.2181217819452277 6.6875047683715838 5.7026443332433692 4.081950679421424 4.9636752754449835 4.9478073418140411 5.6128225773572913 3.9692128002643585
leaf_count=23 21 24 21 20 20 23 20 27 23 21 26 20 30 21
internal_value=0 0.969125 1.21906 -1.74114 1.3033 1.11555 1.36055 -1.84333 -1.83154 1.34156 1.33732 -1.8206 1.33413 1.33563
internal_weight=0 45.4937 39.7457 27.4076 35.4329 8.27958 27.1533 22.2998 17.338 22.9352 18.8533 11.6353 13.8896 8.27678
internal_count=340 229 205 111 184 43 141 90 70 121 100 47 74 44
shrinkage=0.05


Tree=8
num_leaves=15
num_cat=0
split_feature=22 27 13 27 26 26 23 2 21 21 14 26 18 28
split_gain=114.997 18.3451 2.26817 1.24288 0.254824 0.577696 0.0127724 0.00876493 0.00375717 0.000681683 0.000159415 0.000197827 9.30278e-05 2.87596e-05
threshold=113.40000000000002 0.14205000000000004 32.600000000000001 0.14840000000000003 0.21640000000000004 0.30225000000000007 706.4000000000002 106.05000000000001 25.965000000000003 28.420000000000005 0.0067680000000000006 0.098690000000000014 0.018975000000000002 0.27320000000000005
decision_type=2 2 2 2 2 2 2 2 2 2 2 2 2 2
left_child=1 2 4 -2 6 -6 9 -5 -9 10 13 -12 -10 -1
right_child=3 -3 -4 7 5 -7 -8 8 12 -11 11 -13 -14 -15
leaf_value=0.065545238774958395 -0.061157630219969741 -0.035921937946293392 0.025296257969645936 -0.090326289001994547 0.043160123299710362 0.06980706353337772 0.068991482116667946 -0.089058649798020292 -0.08730933705421115 0.066502731872370643 0.065702543825025911 0.066184486305264342 -0.087587854234360316 0.065715259699738987
leaf_weight=5.2464683949947446 5.1366426944732693 5.7688806951045981 4.268019124865531 4.9137031883001354 4.1507650613784772 3.9883618056774139 3.8871273249387732 5.1658418327569988 6.1179024875164014 3.7277143448591223 4.7282580584287626 3.8737885802984238 5.87931028008461 4.7292988002300262
leaf_count=29 21 24 21 20 22 20 20 21 25 20 26 21 24 26
internal_value=0 0.944852 1.19344 -1.6662 1.27891 1.12435 1.32693 -1.76929 -1.75863 1.31771 1.31524 1.31839 -1.74892 1.31252
internal_weight=0 44.3687 38.5998 27.2134 34.3318 8.13913 26.1927 22.0768 17.1631 22.3055 18.5778 8.60205 11.9972 9.97577
internal_count=340 229 205 111 184 42 142 90 70 122 102 47 49 55
shrinkage=0.05


Tree=9
num_leaves=15
num_cat=0
split_feature=7 21 20 28 5 4 5 9 4 25 13 21 7 18
split_gain=108.482 11.8595 5.72252 1.45943 0.29703 0.741276 0.167668 0.120977 0.0569156 0.0274492 0.00221495 0.000380241 0.000284126 8.24902e-05
threshold=0.049230000000000003 21.385000000000002 16.275000000000002 0.27115000000000006 0.058040000000000008 0.087035000000000015 0.12860000000000002 0.070105000000000015 0.10455000000000002 0.28010000000000007 27.235000000000003 23.695000000000004 0.026475000000000002 0.020275000000000005
decision_type=2 2 2 2 2 2 2 2 2 2 2 2 2 2
left_child=2 -2 4 -3 5 11 -5 8 -8 10 12 -1 13 -6
right_child=1 3 -4 6 9 -7 7 -9 -10 -11 -12 -13 -14 -15
leaf_value=0.064715908684089413 0.0052854550064776436 -0.059275333136195499 0.0027587421512288279 -0.093826716060500442 0.064614130593237451 0.037268600757664291 -0.084769536538530255 -0.090870008432161808 -0.077333858608031047 0.069821426822414767 0.066268937106693071 0.065438310920559128 0.065217328213106093 0.064912037300824954
leaf_weight=3.6878154873847944 4.5937117338180533 5.8817183971405056 4.5250235795974723 6.8135608285665539 4.8998105078935676 3.5723131448030472 5.5629189908504468 4.8936439454555503 4.7890642881393433 3.9023499935865393 3.8545206338167182 3.5994515419006348 5.1791110932826987 4.4197544455528259
leaf_count=21 20 25 20 28 28 20 23 20 20 20 21 20 29 25
internal_value=0 -1.3833 1.10998 -1.62811 1.25411 1.11853 -1.74612 -1.68784 -1.62659 1.32027 1.30407 1.30145 1.29841 1.29511
internal_weight=0 32.5346 37.6402 27.9409 33.1151 10.8596 22.0592 15.2456 10.352 22.2555 18.3532 7.28727 14.4987 9.31956
internal_count=340 136 204 116 184 61 91 63 43 123 103 41 82 53
shrinkage=0.05


Tree=10
num_leaves=16
num_cat=0
split_feature=7 21 13 21 15 13 7 23 26 29 24 5 7 24 4
split_gain=92.4468 14.148 4.94951 1.50151 2.01055 0.690228 0.0947005 0.0781195 0.00280734 0.00127429 9.6881e-05 0.000101534 9.3357e-05 4.99756e-05 1.85399e-05
threshold=0.049230000000000003 23.405000000000005 32.600000000000001 28.020000000000007 0.016700000000000003 31.655000000000005 0.071905000000000011 727.85000000000002 0.23890000000000003 0.080940000000000012 0.12480000000000001 0.062740000000000004 0.090405000000000013 0.14145000000000002 0.084735000000000019
decision_type=2 2 2 2 2 2 2 2 2 2 2 2 2 2 2
left_child=2 -2 3 7 -5 -3 -7 8 10 -8 14 -12 -11 -13 -1
right_child=1 5 -4 4 -6 6 9 -9 -10 12 11 13 -14 -15 -16
leaf_value=0.063631963425077237 0.012446978640498674 -0.062544988746424987 0.0023543115975217942 0.013345832635638211 0.065556726331483017 -0.089795308399875984 -0.082455411251709354 0.071688551727632083 0.065380593113067223 -0.081311960491960378 0.064160244131997002 0.063713035560174811 -0.081611462098076473 0.063971938815774565 0.063785135691141234
leaf_weight=3.7033149003982642 5.0109631121158626 4.7613086998462704 4.2358615845441809 3.6495855003595343 3.7267386466264725 4.8618565797805813 4.7675939351320258 3.9763781428337088 3.5395776629447928 4.9723632931709272 3.6101275831460935 3.8839115798473358 5.4577824473381042 3.5837628245353699 4.2343837320804596
leaf_count=22 22 20 21 20 21 20 20 20 20 21 21 23 23 21 25
internal_value=0 -1.28376 1.06626 1.19358 0.794487 -1.59318 -1.67443 1.30454 1.28175 -1.63556 1.27694 1.27885 -1.62937 1.27675 1.27427
internal_weight=0 29.8319 38.1436 33.9078 7.37632 24.8209 20.0596 26.5315 22.5551 15.1977 19.0155 11.0778 10.4301 7.46767 7.9377
internal_count=340 126 214 193 41 104 84 152 132 64 112 65 44 44 47
shrinkage=0.05


Tree=11
num_leaves=15
num_cat=0
split_feature=27 13 23 20 21 7 11 22 28 12 24 18 28 18
split_gain=89.1207 21.0935 1.59364 0.941687 0.235157 0.033594 0.0178572 0.00145646 0.000626516 0.000418169 7.05311e-05 3.67106e-05 2.28974e-05 1.5856e-05
threshold=0.14695000000000003 36.405000000000008 784.1500000000002 17.265000000000004 31.605000000000004 0.037415000000000004 0.85645000000000004 96.675000000000011 0.29685000000000006 2.3590000000000004 0.14155000000000004 0.020275000000000005 0.33030000000000009 0.016165000000000002
decision_type=2 2 2 2 2 2 2 2 2 2 2 2 2 2
left_child=1 2 4 -2 5 7 -5 9 -8 10 11 13 -10 -1
right_child=3 -3 -4 6 -6 -7 8 -9 12 -11 -12 -13 -14 -15
leaf_value=0.062966474295941391 -0.055571122176162668 -0.046674692085277095 0.030044433278799704 -0.08280128750497727 0.050226691849300169 0.068242071159916304 -0.079792134212345892 0.064224943149210623 -0.079006143084327476 0.063546089053815327 0.063208875580859247 0.063066398599782109 -0.079161177509179351 0.062824095688952752
leaf_weight=3.9234180152416354 4.8560485988855389 5.4416387826204291 4.276327744126319 4.9656148254871395 3.4879272133111945 3.9623708426952353 4.677265837788581 3.582735911011695 4.6466776430606824 4.8493924587965003 3.8007008284330359 5.2537575364112854 4.8857543915510178 3.8984256237745285
leaf_count=24 20 24 20 21 20 21 20 21 20 29 23 32 21 24
internal_value=0 0.904907 1.17503 -1.50479 1.24998 1.27922 -1.6044 1.26582 -1.58636 1.26274 1.26039 1.25928 -1.58171 1.25791
internal_weight=0 42.4767 37.0351 24.0314 32.7587 29.2708 19.1753 25.3084 14.2097 21.7257 16.8763 13.0756 9.53243 7.82184
internal_count=340 238 214 102 194 174 82 153 61 132 103 80 41 48
shrinkage=0.05


Tree=12
num_leaves=15
num_cat=0
split_feature=27 13 23 20 21 7 11 22 28 10 24 7 18 28
split_gain=82.312 19.6845 1.60351 0.952749 0.237172 0.0279563 0.0143819 0.00121598 0.000494123 0.000387521 9.4867e-05 3.80743e-05 3.27272e-05 1.80388e-05
threshold=0.14695000000000003 36.405000000000008 784.1500000000002 17.265000000000004 31.605000000000004 0.037415000000000004 0.85645000000000004 96.675000000000011 0.29685000000000006 0.37020000000000003 0.13145000000000004 0.024185000000000002 0.020275000000000005 0.33030000000000009
decision_type=2 2 2 2 2 2 2 2 2 2 2 2 2 2
left_child=1 2 4 -2 5 7 -5 9 -8 10 12 -12 -1 -10
right_child=3 -3 -4 6 -6 -7 8 -9 13 -11 11 -13 -14 -15
leaf_value=0.062070970153276832 -0.053014357011333307 -0.044048044147564316 0.028833519094495875 -0.080240484293156611 0.049106729792496515 0.067070368642131159 -0.077508510766699734 0.06334610665049567 -0.076802815286874021 0.062836260025125795 0.062278184808571037 0.062510179502184793 0.062249548722894503 -0.076941969021419365
leaf_weight=6.108688548207299 4.8362226933240917 5.4768714159727088 4.2342156767845145 4.8702839761972454 3.3915643543004981 3.8332861959934226 4.5768531560897818 3.4540795385837546 4.5435875803232175 3.2394142001867285 3.9553651064634314 3.198819488286972 4.4233978539705276 4.7780593186616898
leaf_count=39 20 24 20 21 20 21 20 21 20 20 25 20 28 21
internal_value=0 0.884731 1.15456 -1.45607 1.23199 1.26202 -1.55805 1.24954 -1.54166 1.24667 1.24483 1.24764 1.24292 -1.53748
internal_weight=0 41.3157 35.8388 23.605 31.6046 28.2131 18.7688 24.3798 13.8985 20.9257 17.6863 7.15418 10.5321 9.32165
internal_count=340 238 214 102 194 174 82 153 61 132 112 45 67 41
shrinkage=0.05


Tree=13
num_leaves=15
num_cat=0
split_feature=27 13 23 27 21 23 6 17 10 11 24 10 3 3
split_gain=76.1346 18.3922 1.6141 0.985403 0.239927 0.0571167 0.0229387 0.0011651 0.000421341 9.01052e-05 6.21971e-05 3.78113e-05 3.01137e-05 7.6167e-06
threshold=0.14695000000000003 36.405000000000008 784.1500000000002 0.17140000000000002 31.605000000000004 1091.5000000000002 0.067315000000000014 0.016745000000000003 0.37020000000000003 0.66865000000000008 0.12480000000000001 0.24990000000000004 458.55000000000001 368.9500000000001
decision_type=2 2 2 2 2 2 2 2 2 2 2 2 2 2
left_child=1 2 4 -2 6 -5 8 -7 9 -1 11 -11 13 -12
right_child=3 -3 -4 5 -6 7 -8 -9 -10 10 12 -13 -14 -15
leaf_value=0.061786237460539219 -0.054368483675709726 -0.041618979826232978 0.027669824908608351 -0.081830570813928194 0.048021730487091616 -0.074877501381947861 0.065417132141553896 -0.075884852344958675 0.062163657039558534 0.061488642638394368 0.06145310231274053 0.061247100396960623 0.061700958368925453 0.061561315904839611
leaf_weight=3.079839497804655 6.6681478768587139 5.5059126466512671 4.1927529275417319 4.6697807461023357 3.2971957921981803 6.8769513070583326 4.8599053770303717 4.9268116652965546 3.1355217993259421 3.3385069370269802 3.0316795408725721 3.1479929089546204 3.0707991421222687 3.5072527676820755
leaf_count=20 29 24 20 20 20 31 28 22 20 22 20 21 20 23
internal_value=0 0.86543 1.13512 -1.41171 1.21517 -1.543 1.24609 -1.50596 1.23253 1.23077 1.22982 1.22743 1.23144 1.23022
internal_weight=0 40.1674 34.6614 23.1417 30.4687 16.4735 27.1715 11.8038 22.3116 19.1761 16.0962 6.4865 9.60973 6.53893
internal_count=340 238 214 102 194 73 174 53 146 126 106 43 63 43
shrinkage=0.05


Tree=14
num_leaves=15
num_cat=0
split_feature=27 13 22 21 18 22 7 21 10 28 29 24 24 25
split_gain=70.733 13.7712 4.69947 0.856759 1.43057 0.0789932 0.0370267 0.00311684 0.00219783 0.000169656 0.000169031 4.83581e-05 2.19077e-05 1.71889e-05
threshold=0.13765000000000002 36.405000000000008 114.45 28.020000000000007 0.018200000000000004 100.25000000000001 0.07746500000000002 26.990000000000006 0.38945000000000002 0.31365000000000004 0.087600000000000025 0.14255000000000004 0.11425 0.14000000000000004
decision_type=2 2 2 2 2 2 2 2 2 2 2 2 2 2
left_child=1 3 -2 5 -5 8 -4 -8 9 11 -9 12 -1 -14
right_child=2 -3 6 4 -6 -7 7 10 -10 -11 -12 -13 13 -15
leaf_value=0.060600735987408387 -0.02343907478756076 -0.032885072808493364 -0.078827686908373884 0.018284691302591159 0.063270441057140789 0.068681947611965624 -0.074773743330907153 -0.073424700747708571 0.062219747868241339 0.06115048049035491 -0.073015799754165306 0.060916740921280826 0.060836353045904915 0.060678550911859641
leaf_weight=4.3296348005533343 5.7674977481365231 4.8121093958616248 4.5257779806852367 3.271267741918563 3.8437981307506561 4.0320158302783957 4.4066934138536444 4.3440622985362989 3.2705932408571234 2.9773458838462821 6.0434532910585403 2.9407478868961325 2.9270450919866562 4.2045668661594391
leaf_count=30 25 21 20 20 24 22 20 20 21 20 28 20 20 29
internal_value=0 0.918881 -1.26093 1.15748 0.85175 1.24561 -1.4974 -1.47319 1.22061 1.21614 -1.46374 1.21472 1.21379 1.21487
internal_weight=0 36.6091 25.0875 31.797 7.11507 24.6819 19.32 14.7942 20.6499 17.3793 10.3875 14.402 11.4612 7.13161
internal_count=340 227 113 206 44 162 88 68 140 119 48 99 79 49
shrinkage=0.05


Tree=15
num_leaves=13
num_cat=0
split_feature=22 26 17 14 2 26 27 13 11 11 17 28
split_gain=68.2691 15.9485 1.15187 0.482696 0.239972 0.258552 0.147852 0.00601268 0.00231421 0.000181256 0.000261686 4.39186e-05
threshold=117.45000000000002 0.31655000000000005 0.014315000000000001 0.0050135000000000015 90.795000000000002 0.21080000000000002 0.16135000000000002 28.440000000000001 1.0175000000000003 1.1285000000000001 0.0075095000000000005 0.27635000000000004
decision_type=2 2 2 2 2 2 2 2 2 2 2 2
left_child=1 2 4 -2 5 7 -5 9 -8 11 -11 -1
right_child=3 -3 -4 6 -6 -7 8 -9 -10 10 -12 -13
leaf_value=0.060071076540864167 -0.056429681665754877 -0.023043421460432131 0.033687648247824775 -0.082778308092999256 0.072119260372508917 0.044956083568665164 -0.073045234538876777 0.062653778042297867 -0.071607203446937356 0.060729719812686968 0.060143096321541349 0.060297438789272573
leaf_weight=5.4405952841043632 4.3993325829505947 7.8410711586475363 4.670966923236846 4.5196737349033382 3.8613566011190406 2.9982235729694358 4.5093998908996564 3.2800220251083365 7.3706330209970474 4.6346911489963523 3.2231884002685547 3.5351099818944931
leaf_count=39 20 37 27 20 20 20 21 21 35 32 23 25
internal_value=0 0.815869 1.13223 -1.42272 1.21162 1.17307 -1.50163 1.21391 -1.44306 1.20627 1.20978 1.2032
internal_weight=0 39.4852 31.6442 20.799 26.9732 23.1118 16.3997 20.1136 11.88 16.8336 7.85788 8.97571
internal_count=340 244 207 96 180 160 76 140 56 119 55 64
shrinkage=0.05


Tree=16
num_leaves=14
num_cat=0
split_feature=7 27 23 6 18 19 23 8 18 10 15 29 19
split_gain=63.2491 8.77905 2.92461 0.423103 0.319855 0.857886 0.0486946 0.0115663 0.00217582 0.0017809 0.000384564 0.000292492 4.61878e-05
threshold=0.049230000000000003 0.14695000000000003 809.45000000000016 0.11920000000000001 0.016490000000000001 0.0025785000000000005 1177.0000000000002 0.19870000000000002 0.022895000000000002 0.36710000000000004 0.012025000000000003 0.08135000000000002 0.0020100000000000001
decision_type=2 2 2 2 2 2 2 2 2 2 2 2 2
left_child=2 -2 4 -3 5 10 -5 9 -8 11 -1 12 -6
right_child=1 3 -4 6 7 -7 8 -9 -10 -11 -12 -13 -14
leaf_value=0.059754653872055398 -0.0010766817064373361 -0.055576830732903253 0.012959470676637934 -0.076935663816900701 0.059781622863253427 0.026837851170926394 -0.070279929614323403 0.063436430351095516 -0.071677687684214772 0.061177345766370454 0.060575215933208727 0.060158550748874509 0.05954118701254827
leaf_weight=2.7254025340080315 6.2217556983232525 4.8064647912979153 4.4118732810020438 4.4137518703937557 3.2787733674049395 2.9086795151233673 7.5901976823806745 3.0540777146816245 4.3971177637577057 2.9087456017732611 2.9991341531276703 3.9146786779165259 5.111067607998848
leaf_count=20 29 22 20 20 24 20 37 20 21 20 21 28 38
internal_value=0 -1.06603 1.01384 -1.37245 1.13761 0.978989 -1.44892 1.21257 -1.41585 1.20129 1.20369 1.19603 1.1927
internal_weight=0 27.4293 31.3124 21.2075 26.9006 8.63322 16.4011 18.2673 11.9873 15.2133 5.72454 12.3045 8.38984
internal_count=340 129 211 100 191 61 78 130 58 110 41 90 62
shrinkage=0.05


Tree=17
num_leaves=13
num_cat=0
split_feature=22 26 17 14 21 27 3 28 21 25 15 29
split_gain=59.7364 14.3916 1.12924 0.469583 0.269147 0.141288 0.134413 0.00403473 0.00261882 0.000390487 4.3441e-05 1.51933e-05
threshold=117.45000000000002 0.31655000000000005 0.014315000000000001 0.0050135000000000015 30.470000000000002 0.16135000000000002 610.95000000000016 0.31590000000000007 27.835000000000004 0.20125000000000001 0.010600000000000002 0.070615000000000025
decision_type=2 2 2 2 2 2 2 2 2 2 2 2
left_child=1 2 4 -2 6 -5 7 9 -7 10 -1 -12
right_child=3 -3 -4 5 -6 8 -8 -9 -10 -11 11 -13
leaf_value=0.059131821583249811 -0.05341073938918213 -0.021371075806286801 0.032105074882154187 -0.079829501895388788 0.04525125044469943 -0.070224973540713678 0.070012028819637348 0.061131315369624933 -0.068635622858216935 0.059668298092594364 0.058852677184435293 0.058997139699461382
leaf_weight=4.9567720592022066 4.2377114146947887 7.7554546147584906 4.5122882574796668 4.3535838872194281 3.0126135796308509 4.0754733234643918 3.6066206842660895 3.0236343741416922 7.1195429712533951 2.8046083748340598 2.9388986304402351 4.7807175517082214
leaf_count=38 20 37 27 20 20 20 20 21 36 21 23 37
internal_value=0 0.785339 1.10271 -1.3633 1.18543 -1.44373 1.22364 1.18921 -1.38428 1.18269 1.18033 1.17884
internal_weight=0 37.3916 29.6362 19.7863 25.1239 15.5486 22.1113 18.5046 11.195 15.481 12.6764 7.71962
internal_count=340 244 207 96 180 76 160 140 56 119 98 60
shrinkage=0.05


Tree=18
num_leaves=14
num_cat=0
split_feature=22 26 13 19 21 27 27 21 26 7 21 4 5
split_gain=55.4859 13.5889 1.49152 0.474644 0.312144 0.174676 0.112552 0.00264715 0.00147543 8.13613e-05 3.36721e-05 2.30846e-05 1.8225e-05
threshold=117.45000000000002 0.33175000000000004 29.085000000000004 0.0026160000000000003 29.180000000000003 0.10725000000000001 0.16610000000000003 27.995000000000001 0.20440000000000003 0.027945000000000005 25.245000000000005 0.084300000000000014 0.062740000000000004
decision_type=2 2 2 2 2 2 2 2 2 2 2 2 2
left_child=1 2 4 -2 5 8 -5 -8 9 10 11 -1 -13
right_child=3 -3 -4 6 -6 -7 7 -9 -10 -11 -12 12 -14
leaf_value=0.058366395132496911 -0.051642296972456217 -0.024289235942027573 0.030074741369781856 -0.077643189183494443 0.043168389681477931 0.070983097968575617 -0.069014512451084795 -0.067409647054289076 0.059825423915439449 0.058827569640134171 0.058670581891762802 0.058615741115481915 0.05843880493096313
leaf_weight=3.1921743229031687 4.1607974022626903 6.9929740130901328 5.6143691390752783 4.2231223285198203 2.8395289331674567 3.5259227454662314 4.1663284003734571 6.7038814723491669 2.828952193260192 2.6655689924955359 2.8907884731888762 3.1332460045814514 2.7177394777536392
leaf_count=26 20 33 33 20 20 20 21 35 21 21 23 25 22
internal_value=0 0.767175 1.06512 -1.33188 1.17451 1.21667 -1.41432 -1.3605 1.17561 1.17156 1.17044 1.16949 1.17067
internal_weight=0 36.4013 29.4083 19.2541 23.7939 20.9544 15.0933 10.8702 17.4285 14.5995 11.9339 9.04316 5.85099
internal_count=340 244 211 96 178 158 76 56 138 117 96 73 47
shrinkage=0.05


Tree=19
num_leaves=15
num_cat=0
split_feature=7 21 21 11 6 25 22 22 18 17 26 24 4 27
split_gain=52.1444 10.0269 3.26972 0.756007 0.665992 0.344081 0.177224 0.151765 0.0161732 0.00150367 0.000515551 7.74687e-05 2.7e-05 1.26485e-05
threshold=0.049230000000000003 23.405000000000005 31.305000000000003 0.58850000000000013 0.10965000000000001 0.084340000000000012 125.05000000000001 100.25000000000001 0.027785000000000004 0.012120000000000001 0.20875000000000002 0.14380000000000001 0.088075000000000014 0.061625000000000006
decision_type=2 2 2 2 2 2 2 2 2 2 2 2 2 2
left_child=2 -2 3 -1 -3 -5 -6 8 10 -8 12 -11 -7 -14
right_child=1 4 -4 5 6 7 9 -9 -10 11 -12 -13 13 -15
leaf_value=0.031547354334731791 0.012744584138294086 -0.047464439017402098 0.0058090692315381637 0.043971450999365391 -0.078477340153387296 0.057896484772874235 -0.067550576312520566 0.070725994951709323 0.062350168635265969 -0.066487252248992115 0.058803366045468868 -0.066177867981854252 0.058174506746699266 0.058032380775635974
leaf_weight=2.9526046961546006 5.1416757106781033 4.1555009782314327 3.8635784089565268 3.4238711893558529 4.3865757882595089 2.4732905030250567 3.80664038658142 3.4279729574918738 2.9719965010881415 4.4743328690528852 2.9081582799553862 3.6936616897583008 2.6552581340074539 3.8139708340167999
leaf_count=20 25 20 24 28 20 21 20 20 21 24 23 20 22 32
internal_value=0 -0.993844 0.971476 1.10566 -1.30679 1.17032 -1.39759 1.2249 1.18104 -1.3346 1.1645 -1.32695 1.16074 1.16181
internal_weight=0 25.6584 28.4907 24.6271 20.5167 21.6745 16.3612 18.2506 14.8227 11.9746 11.8507 8.16799 8.94252 6.46923
internal_count=340 129 211 187 104 167 84 139 119 64 98 44 75 54
shrinkage=0.05


Tree=20
num_leaves=15
num_cat=0
split_feature=22 27 9 25 22 25 7 25 13 21 4 21 7 21
split_gain=50.5055 9.89885 2.58954 0.468908 0.459418 0.384957 0.158252 0.0388286 0.0137454 0.00157447 0.00152489 0.000277047 7.1585e-05 3.88692e-05
threshold=117.45000000000002 0.14695000000000003 0.055895000000000007 0.29875000000000002 127.65000000000001 0.084340000000000012 0.043195000000000004 0.25350000000000006 28.440000000000001 28.160000000000004 0.083040000000000017 26.425000000000004 0.028670000000000005 21.185000000000006
decision_type=2 2 2 2 2 2 2 2 2 2 2 2 2 2
left_child=1 2 -1 5 -2 -4 8 -6 10 -9 -7 12 13 -12
right_child=4 -3 3 -5 7 6 -8 9 -10 -11 11 -13 -14 -15
leaf_value=0.011356140803376109 -0.048150800676919799 -0.026498633960492086 0.040618916718574552 0.038475566707464291 -0.071660445607547474 0.059197463823230628 0.069900384388366404 -0.066658680175493812 0.061923780360551565 -0.065360101733593426 0.05776644439204312 0.058310921903487939 0.057943347926947324 0.05751691758540111
leaf_weight=3.6953003108501461 3.921719208359721 4.8360505402088156 2.646235339343554 3.3220205157995215 4.0197542309761038 2.5285555049777093 3.9322578907012931 3.7115341722965223 2.8151814714074126 6.289992555975914 2.6742727383971197 2.4260437190532675 2.3499696925282478 3.7478818595409393
leaf_count=26 20 21 21 20 20 20 21 20 20 35 23 20 20 33
internal_value=0 0.798127 1.01124 1.12082 -1.26558 1.1713 1.21769 -1.3502 1.17482 -1.31684 1.16177 1.15676 1.15414 1.15242
internal_weight=0 34.9738 30.1377 26.4424 17.943 23.1204 20.4742 14.0213 16.5419 10.0015 13.7267 11.1982 8.77212 6.42215
internal_count=340 245 224 198 95 178 157 75 136 55 116 96 76 56
shrinkage=0.05


Tree=21
num_leaves=13
num_cat=0
split_feature=7 22 13 14 27 27 22 2 26 11 5 7
split_gain=47.283 6.76142 5.89143 2.32868 0.202501 0.0320461 0.0178593 0.00128048 0.00067423 0.00054315 0.000165234 6.46251e-06
threshold=0.055760000000000011 114.45 34.730000000000011 0.0037345000000000004 0.12105 0.16030000000000003 99.080000000000013 124.60000000000001 0.19760000000000003 1.4270000000000003 0.052880000000000003 0.023565000000000003
decision_type=2 2 2 2 2 2 2 2 2 2 2 2
left_child=2 -2 3 -1 6 -3 8 -7 9 10 -5 -12
right_child=1 5 -4 4 -6 7 -8 -9 -10 -11 11 -13
leaf_value=0.011167784658786355 -0.0016143878656576527 -0.070172575264302733 -0.010383128606622091 0.057607525480076985 0.071267440156587467 -0.065531170857646981 0.061942869498852006 -0.064514959953335199 0.058426951506374031 0.058004331606374249 0.057131468878954463 0.057233108616053734
leaf_weight=2.6939525604248109 5.3262355327606228 4.097460329532626 3.9675206467509261 3.3072487637400716 3.568343222141265 6.9860943406820279 2.8562925383448592 5.5724993497133255 2.4224117845296851 4.122760906815528 3.8217547759413719 2.6471896469593048
leaf_count=20 25 21 20 29 20 39 20 32 20 35 35 24
internal_value=0 -1.01304 0.925729 1.10249 1.20661 -1.32666 1.16591 -1.30161 1.15314 1.15046 1.1464 1.14346
internal_weight=0 21.9823 29.4075 25.44 22.746 16.6561 19.1777 12.5586 16.3214 13.899 9.77619 6.46894
internal_count=340 117 223 203 183 92 163 71 143 123 88 59
shrinkage=0.05


Tree=22
num_leaves=13
num_cat=0
split_feature=7 22 13 14 27 27 22 2 26 11 5 15
split_gain=44.0148 6.50856 5.64789 2.29684 0.17178 0.0267652 0.0151618 0.0010649 0.000570069 0.000458321 0.00013947 5.45663e-06
threshold=0.055760000000000011 114.45 34.730000000000011 0.0037345000000000004 0.12105 0.16030000000000003 99.080000000000013 124.60000000000001 0.19760000000000003 1.4270000000000003 0.052880000000000003 0.013425000000000001
decision_type=2 2 2 2 2 2 2 2 2 2 2 2
left_child=2 -2 3 -1 6 -3 8 -7 9 10 -5 -12
right_child=1 5 -4 4 -6 7 -8 -9 -10 -11 11 -13
leaf_value=0.010679892624030234 -0.0015336298213997806 -0.068864366717590955 -0.0098395346597846371 0.057182351385840463 0.069982242220863647 -0.064552318775868367 0.061257083692512863 -0.063608840584696111 0.057951980979999623 0.057554657129305443 0.056837305113230645 0.056739457259205033
leaf_weight=2.6766226664185586 5.3263668268919018 3.969772785902026 3.9771204516291609 3.1687505021691376 3.4550556764006606 6.7435753196477872 2.7466334030032149 5.3743093013763428 2.322675757110118 3.9515543207526198 2.2210598066449165 3.9744891971349716
leaf_count=20 25 21 20 29 20 39 20 32 20 35 21 38
internal_value=0 -0.988802 0.908597 1.08791 1.19506 -1.30602 1.15662 -1.28268 1.14458 1.14206 1.13825 1.13549
internal_weight=0 21.414 28.494 24.5168 21.8402 16.0877 18.3852 12.1179 15.6385 13.3159 9.3643 6.19555
internal_count=340 117 223 203 183 92 163 71 143 123 88 59
shrinkage=0.05


Tree=23
num_leaves=14
num_cat=0
split_feature=7 21 13 14 17 27 23 22 25 21 25 25 21
split_gain=40.9861 7.48537 5.41803 2.26723 0.242297 0.145946 0.0950929 0.0128852 0.00595791 0.00113113 0.000344197 8.50415e-05 2.71105e-05
threshold=0.055760000000000011 23.695000000000004 34.730000000000011 0.0037345000000000004 0.018655000000000001 0.12105 1047.0000000000002 99.080000000000013 0.2748000000000001 28.980000000000004 0.22695000000000001 0.10990000000000001 21.185000000000006
decision_type=2 2 2 2 2 2 2 2 2 2 2 2 2
left_child=2 -2 3 -1 6 7 -3 9 -8 10 11 -5 -13
right_child=1 4 -4 5 -6 -7 8 -9 -10 -11 -12 12 -14
leaf_value=0.010210621862536729 0.011239064150273067 -0.072823809366438605 -0.0093258893629136422 0.056714640291946811 -0.051333450859630883 0.068792425953359146 -0.065241176485912974 0.060616689311057605 -0.062625768065072501 0.05784302132190125 0.057215907676283664 0.056534380326972861 0.056331586357360797
leaf_weight=2.6600887998938623 4.2144543677568462 4.0089173167943981 3.9861231669783583 3.7440280467271858 3.3452277928590766 3.3419427573680869 3.4890590608119947 2.6395791396498671 5.7925660163164139 2.3195080086588851 2.1653821170330039 2.8597404435276985 3.8895309343934059
leaf_count=20 21 20 20 36 20 20 20 20 36 20 20 28 39
internal_value=0 -0.965644 0.891888 1.07388 -1.26722 1.18426 -1.32777 1.14791 -1.27218 1.13656 1.13284 1.13047 1.12835
internal_weight=0 20.8502 27.6059 23.6198 16.6358 20.9597 13.2905 17.6178 9.28163 14.9782 12.6587 10.4933 6.74927
internal_count=340 117 223 203 96 183 76 163 56 143 123 103 67
shrinkage=0.05


Tree=24
num_leaves=14
num_cat=0
split_feature=22 21 7 12 20 18 6 27 21 28 14 25 21
split_gain=38.7739 11.8249 5.60061 1.47494 0.142196 0.130433 0.122425 0.0151237 0.00125909 0.000504461 0.000249963 5.03249e-05 1.33247e-05
threshold=102.40000000000002 21.755000000000003 0.051855000000000005 3.0490000000000008 17.645000000000007 0.030240000000000003 0.067315000000000014 0.15780000000000002 26.250000000000004 0.30535000000000007 0.0050925000000000007 0.11120000000000001 21.895000000000003
decision_type=2 2 2 2 2 2 2 2 2 2 2 2 2
left_child=3 -2 -3 5 -4 6 8 -6 10 -9 -1 -12 -13
right_child=1 2 4 -5 7 -7 -8 9 -10 -11 11 12 -14
leaf_value=0.056733358464037577 0.040410219429994516 0.0035944585403974317 -0.073846777591235091 0.018881108473967179 -0.065946459796398571 0.046015285726219816 0.067630301218204805 -0.06256350485180355 0.05734352851224131 -0.061821936417694789 0.056357807412965713 0.056140903601613446 0.055982005431753218
leaf_weight=2.4837734848260968 3.9581581354141262 3.513396471738818 4.0779380947351482 2.9081953167915335 3.5374654382467261 2.3551665171980849 3.0593368932604781 3.8277571797370893 4.0314672812819472 5.720852255821228 2.1880692467093468 3.1140797063708305 2.2892235592007637
leaf_count=24 20 20 20 20 20 20 20 24 37 37 22 32 24
internal_value=0 -0.775301 -1.07842 1.04201 -1.31389 1.14099 1.17126 -1.26308 1.13194 -1.24238 1.12596 1.12311 1.12147
internal_weight=0 24.6356 20.6774 22.4293 17.164 19.5211 17.166 13.0861 14.1066 9.54861 10.0751 7.59137 5.4033
internal_count=340 141 121 199 101 179 159 81 139 61 102 78 56
shrinkage=0.05


Tree=25
num_leaves=16
num_cat=0
split_feature=22 21 28 21 17 14 17 22 7 21 28 14 16 8 3
split_gain=40.2382 10.7391 2.48887 1.75319 1.62809 0.87918 0.725075 0.130299 0.0617114 0.00210764 0.000642152 0.000247955 7.37708e-05 2.09086e-05 1.2184e-05
threshold=102.40000000000002 20.205000000000002 0.25540000000000002 31.605000000000004 0.010435000000000002 0.0058165000000000005 0.016650000000000002 123.95 0.033870000000000004 28.095000000000002 0.31945000000000007 0.0043310000000000006 0.023975000000000003 0.16110000000000002 404.80000000000007
decision_type=2 2 2 2 2 2 2 2 2 2 2 2 2 2 2
left_child=3 -2 -3 6 -4 -6 8 -7 10 -9 11 -1 13 -13 -15
right_child=1 2 4 -5 5 7 -8 9 -10 -11 -12 12 -14 14 -16
leaf_value=0.056511455253870448 0.030905693584163191 -0.019880524142174404 -0.095085264979400994 0.0091622362641474216 -0.039917394576575727 -0.073491418830085226 0.031787667197217838 -0.062926088435357394 0.064702884610015346 -0.061073636827948731 0.05692945913967129 0.055924024866174149 0.05615498023335385 0.055825285223105571 0.055645773301835816
leaf_weight=2.0271191895008149 3.9051567316055324 3.421043828129771 3.8825595229864147 2.6030490398406974 4.381672963500022 4.1576941609382612 3.3074438497424117 3.1808184832334518 2.561786174774169 2.9684242010116577 2.3739206865429869 2.3635235875844938 2.0305881202220917 1.8680144771933558 1.9135049581527708
leaf_count=20 20 21 21 20 27 21 20 20 20 20 23 25 21 20 21
internal_value=0 -0.910057 -1.18141 0.951504 -1.3258 -1.17357 1.05992 -1.33309 1.15259 -1.24064 1.12378 1.12033 1.11787 1.11615 1.11469
internal_weight=0 25.8974 21.9922 21.049 18.5712 14.6886 18.4459 10.3069 15.1385 6.14924 12.5767 10.2028 8.17563 6.14504 3.78152
internal_count=340 150 130 190 109 88 170 61 150 40 130 107 87 66 41
shrinkage=0.05


Tree=26
num_leaves=15
num_cat=0
split_feature=22 21 28 21 7 17 14 7 20 18 21 21 3 11
split_gain=37.355 9.95704 2.41561 1.77 2.94217 1.43572 0.881264 0.134004 0.117876 0.00225511 0.00175022 0.00174899 6.40113e-05 1.67459e-05
threshold=102.40000000000002 20.205000000000002 0.25540000000000002 25.100000000000005 0.026805000000000006 0.010435000000000002 0.0058165000000000005 0.033870000000000004 18.115000000000006 0.026910000000000003 28.095000000000002 28.980000000000004 500.75000000000006 0.89405000000000012
decision_type=2 2 2 2 2 2 2 2 2 2 2 2 2 2
left_child=3 -2 -3 7 11 -4 -7 9 -8 12 -10 -5 13 -1
right_child=1 2 5 4 -6 6 8 -9 10 -11 -12 -13 -14 -15
leaf_value=0.055649160022482075 0.029473155119974666 -0.018904882364032788 -0.091989653651294273 0.055735363483147775 -0.0027063509839023118 -0.038568209138786377 -0.072402299251258018 0.068408667346229635 -0.062101467744317386 0.057511497140443048 -0.060399928885182509 0.057707687205905162 0.055895310650418167 0.055458364820132881
leaf_weight=2.6375348791480082 3.8905963674187687 3.417802162468436 3.8142950534820583 2.2914126962423307 3.8834074214100838 4.3100575655698767 3.9070217311382276 2.9397920891642562 3.0530031472444534 2.1967506408691406 2.992770180106163 2.2062394544482231 2.1552970483899117 2.0391895100474358
leaf_count=29 20 21 21 25 28 27 20 21 20 21 21 20 23 23
internal_value=0 -0.882619 -1.14907 0.935942 0.583506 -1.29483 -1.14909 1.18274 -1.31267 1.12236 -1.22518 1.13406 1.1134 1.11132
internal_weight=0 25.3855 21.4949 20.3496 8.38106 18.0771 14.2629 11.9686 9.9528 9.02877 6.04577 4.49765 6.83202 4.67672
internal_count=340 150 130 190 73 109 88 117 61 96 41 45 75 52
shrinkage=0.05


Tree=27
num_leaves=14
num_cat=0
split_feature=22 26 4 23 24 22 6 9 12 22 14 11 29
split_gain=34.695 7.60382 1.59268 1.0974 1.07054 0.329618 0.140141 0.00660373 0.00362695 0.000321778 0.00014579 0.000128875 1.23063e-05
threshold=102.40000000000002 0.25665000000000004 0.10900000000000001 646.05000000000007 0.13190000000000004 119.25000000000001 0.068410000000000012 0.06672500000000002 2.3060000000000005 152.05000000000004 0.0052210000000000008 1.4665000000000001 0.079080000000000011
decision_type=2 2 2 2 2 2 2 2 2 2 2 2 2
left_child=2 -2 3 6 -3 -6 8 9 10 -7 -1 12 -12
right_child=1 4 -4 -5 5 7 -8 -9 -10 -11 11 -13 -14
leaf_value=0.055878226138695711 0.0046620009828250786 -0.040033204272366361 0.014123181796558779 0.026109753710470553 -0.078782147546155715 -0.060745633690450766 0.068417292955634174 -0.063091589040491974 0.0578566503275071 -0.059990180437122842 0.055175026483035232 0.055753583869809026 0.055349970207919055
leaf_weight=2.2278524190187508 6.2989458069205311 5.3495645374059704 3.258348435163497 3.1972481161355963 3.8840042799711219 2.8687266260385496 2.9228370487689963 3.705249235033989 2.1141843870282164 2.7711778879165649 2.3778075873851776 1.8264169394969938 1.7414734512567518
leaf_count=24 35 31 26 32 20 20 20 24 20 20 28 20 20
internal_value=0 -0.856238 0.921068 1.04788 -1.17815 -1.3308 1.17511 -1.22904 1.12021 -1.20749 1.11067 1.10808 1.10498
internal_weight=0 24.8777 19.6662 16.4078 18.5787 13.2292 13.2106 9.34515 10.2877 5.6399 8.17355 5.9457 4.11928
internal_count=340 150 190 164 115 84 132 64 112 40 92 68 48
shrinkage=0.05


Tree=28
num_leaves=15
num_cat=0
split_feature=22 21 24 21 7 3 9 7 26 12 21 14 22 15
split_gain=32.234 9.16725 2.44737 1.80961 2.90343 0.449777 0.227317 0.102774 0.0940547 0.00168431 0.00127457 0.000452328 8.02514e-05 1.77061e-05
threshold=102.40000000000002 20.205000000000002 0.12365000000000001 25.100000000000005 0.026805000000000006 652.1500000000002 0.058765000000000005 0.033870000000000004 0.40265000000000001 2.2420000000000004 28.980000000000004 0.0064925000000000009 91.77500000000002 0.013425000000000001
decision_type=2 2 2 2 2 2 2 2 2 2 2 2 2 2
left_child=3 -2 -3 7 10 -4 -7 9 -8 12 -5 -10 13 -1
right_child=1 2 5 4 -6 6 8 -9 11 -11 -12 -13 -14 -15
leaf_value=0.055097251383328598 0.029201392863748673 -0.022115670561147733 -0.078893491264182991 0.055156979722675373 -0.0045023564250418488 -0.048182016220496685 -0.070330258852872016 0.066629330484687929 -0.060064492486003235 0.056809477808412348 0.05691242653405363 -0.059167999907842578 0.055396249287423163 0.054896404011098167
leaf_weight=2.5127899721264857 3.847714968025687 4.4524059444665935 3.8584197908639934 2.1028577089309684 3.803259015083313 3.3358948528766623 3.210036024451254 2.7756749689579001 2.751555435359478 1.9363791644573207 2.0343415662646294 2.8794200122356415 1.9186836406588552 1.947986207902431
leaf_count=30 20 27 20 25 28 21 20 21 20 20 20 22 22 24
internal_value=0 -0.83224 -1.09822 0.905069 0.540631 -1.28034 -1.18607 1.16597 -1.27 1.11036 1.1204 -1.19212 1.10252 1.10019
internal_weight=0 24.3354 20.4877 19.032 7.94046 16.0353 12.1769 11.0915 8.84101 8.31584 4.1372 5.63098 6.37946 4.46078
internal_count=340 150 130 190 73 103 83 117 62 96 45 42 76 54
shrinkage=0.05


Tree=29
num_leaves=15
num_cat=0
split_feature=23 27 21 26 8 14 27 13 21 26 5 7 21 5
split_gain=30.6043 7.86628 6.29513 1.42847 0.560962 1.34543 0.160461 0.0365045 0.0114729 0.00177047 0.000310913 0.000188354 0.000170362 9.6358e-06
threshold=878.65000000000009 0.11065000000000001 25.810000000000006 0.26960000000000006 0.15860000000000005 0.0065450000000000013 0.16030000000000003 29.085000000000004 25.735000000000003 0.19760000000000003 0.14870000000000003 0.026405000000000001 26.080000000000002 0.059845000000000002
decision_type=2 2 2 2 2 2 2 2 2 2 2 2 2 2
left_child=1 4 -3 -2 5 -1 -5 9 -8 11 -10 12 13 -6
right_child=3 2 -4 6 7 -7 8 -9 10 -11 -12 -13 -14 -15
leaf_value=0.0573245146220163 -0.028800512160190053 0.042647273111939749 -0.044374016599993647 -0.072802832890890151 0.054787447280799789 0.0037540607843634735 -0.062734176870933328 0.062055333870310772 -0.059445190442329987 0.056726515882133732 -0.058738815121716553 0.055478620668359985 0.055309419109940916 0.05462390264668885
leaf_weight=3.0747480243444505 3.7990498691797283 3.5783884897828084 4.9572896808385849 3.5016415938734999 1.7490157037973388 1.8940497189760206 3.1724103167653066 2.6703891903161994 2.7804593592882156 2.0170764178037643 3.5425298362970352 1.8955819234251974 1.7080660462379453 1.856798782944679
leaf_count=31 20 21 27 21 22 21 21 20 21 21 28 22 20 24
internal_value=0 0.624392 -0.157846 -1.11542 1.02028 0.738081 -1.27309 1.13814 -1.20561 1.10834 -1.18099 1.10101 1.09796 1.09406
internal_weight=0 25.4014 8.53568 16.7961 16.8657 4.9688 12.997 11.8969 9.4954 9.22654 6.32299 7.20946 5.31388 3.60581
internal_count=340 229 48 111 181 52 91 129 70 109 49 88 66 46
shrinkage=0.05


Tree=30
num_leaves=16
num_cat=0
split_feature=27 23 21 13 17 21 19 12 22 19 16 2 24 8 5
split_gain=27.4739 7.82955 4.97086 2.29612 0.536644 0.418327 0.166013 0.0796889 0.0140109 0.00185796 0.0010715 7.1577e-05 2.14253e-05 2.54427e-05 4.57219e-06
threshold=0.11065000000000001 710.00000000000011 21.895000000000003 34.730000000000011 0.011205000000000001 28.980000000000004 0.0029875000000000001 3.4275000000000007 98.855000000000018 0.0047715000000000006 0.048095000000000006 82.680000000000021 0.14265000000000003 0.16345000000000001 0.064340000000000022
decision_type=2 2 2 2 2 2 2 2 2 2 2 2 2 2 2
left_child=3 -2 -3 5 -4 8 -6 -8 9 11 -9 12 13 -1 -15
right_child=1 2 4 -5 6 -7 7 10 -10 -11 -12 -13 -14 14 -16
leaf_value=0.054593561441342968 0.03441052155255582 0.00079161446746905766 -0.082704035391467978 0.00862730600128922 -0.049215905262296189 0.03095400427821457 -0.06884258029343486 -0.059797386295036704 0.059227469410268067 0.056318072056263727 -0.058365738054687366 0.054844129991360159 0.054657448889444828 0.054423810285358976 0.054310196708644058
leaf_weight=1.9215011745691317 3.0804409161210087 3.6243456825614002 3.1883137151598921 3.7650151997804633 2.9129799157381049 1.9834721758961666 3.4982097297906858 2.6576033979654312 2.2246212288737288 1.8259021490812291 2.5715971142053604 1.8384357988834379 1.5544047728180883 1.7899052798748019 1.752611272037029
leaf_count=25 20 20 20 21 21 21 20 20 20 20 21 23 20 24 24
internal_value=0 -0.787628 -1.034 0.870241 -1.29059 1.04665 -1.19103 -1.26002 1.11235 1.09732 -1.18187 1.09133 1.08987 1.08894 1.08735
internal_weight=0 21.5335 18.453 18.6559 14.8287 14.8909 11.6404 8.72741 12.9074 10.6828 5.2292 8.85686 7.01842 5.46402 3.54252
internal_count=340 142 122 198 102 177 82 61 156 136 41 116 93 73 48
shrinkage=0.05


Tree=31
num_leaves=16
num_cat=0
split_feature=27 20 21 13 15 21 14 20 22 19 24 2 24 8 15
split_gain=25.6073 7.35155 4.34472 2.26992 0.517711 0.424133 0.159419 0.0509771 0.0119972 0.00158981 0.00134507 6.08446e-05 1.82001e-05 2.16174e-05 5.42357e-06
threshold=0.11065000000000001 15.125000000000002 22.290000000000003 34.730000000000011 0.018795000000000003 28.980000000000004 0.005582000000000001 18.280000000000005 98.855000000000018 0.0047715000000000006 0.14380000000000001 82.680000000000021 0.14265000000000003 0.16345000000000001 0.012485000000000001
decision_type=2 2 2 2 2 2 2 2 2 2 2 2 2 2 2
left_child=3 -2 -3 5 -4 8 -6 -8 9 11 -9 12 13 -1 -15
right_child=1 2 4 -5 6 -7 7 10 -10 -11 -12 -13 -14 14 -16
leaf_value=0.054349618570367977 0.032099293826450999 -0.0025325277112986785 -0.081076907895021408 0.0082184133134646578 -0.047700549554999132 0.030148128993245111 -0.066614490828472747 -0.05935497047867333 0.058730142234429933 0.055980760983740323 -0.057714961909018619 0.054585973313686247 0.054409849032361124 0.054207394942289905 0.054079983407794865
leaf_weight=1.8357847481966034 3.1405806094408062 3.6887269392609623 3.2212344557046881 3.7549830526113501 2.6902269124984732 1.9358915835618962 3.2319054603576642 2.5751754343509674 2.1335900947451583 1.7470522075891484 2.4299905151128769 1.7568355202674864 1.485153868794441 1.5015294924378397 1.8822362348437307
leaf_count=25 21 20 20 21 20 21 20 20 20 20 21 23 20 21 27
internal_value=0 -0.768823 -1.01722 0.856201 -1.26922 1.03815 -1.16536 -1.23439 1.1064 1.09215 -1.17118 1.08648 1.08511 1.08423 1.08273
internal_weight=0 20.9778 17.8373 18.0331 14.1485 14.2781 10.9273 8.23707 12.3422 10.2086 5.00517 8.46154 6.7047 5.21955 3.38377
internal_count=340 142 121 198 101 177 81 61 156 136 41 116 93 73 48
shrinkage=0.05


Tree=32
num_leaves=14
num_cat=0
split_feature=22 26 6 15 16 15 2 26 12 14 19 4 23
split_gain=22.3294 4.91807 2.85954 2.03939 4.66714 0.188316 0.0823619 0.0156271 0.00672643 0.00469839 0.000776487 0.000149898 5.75575e-05
threshold=109.95 0.31655000000000005 0.089420000000000013 0.012025000000000003 0.012615000000000003 0.021870000000000004 88.385000000000019 0.38190000000000007 2.5820000000000003 0.006408500000000001 0.0038010000000000001 0.083800000000000013 495.15000000000003
decision_type=2 2 2 2 2 2 2 2 2 2 2 2 2
left_child=1 3 -2 4 11 -4 8 -7 10 -9 12 -1 -5
right_child=2 -3 5 6 -6 7 -8 9 -10 -11 -12 -13 -14
leaf_value=0.054706523182838397 -0.0087713603066423319 -0.011450924228546268 -0.045186335470810697 0.054437435808478013 -0.039364238120611503 -0.063458499566816665 0.065494865458893201 -0.060411537659354642 0.057715346028502507 -0.057710029110059569 0.055479369471350286 0.054074386451185064 0.054052490830282032
leaf_weight=1.756778016686446 4.0204993337392834 4.9580986052751532 2.5006527975201598 1.5401713773608188 2.0506781190633774 3.1709441468119604 2.7362848967313758 3.5172100141644478 2.3759806901216507 2.96722412109375 1.6387691870331762 2.0116840228438377 2.6279339194297791
leaf_count=23 20 30 20 21 21 21 20 27 24 26 20 29 38
internal_value=0 0.645767 -0.906502 0.90489 0.426745 -1.1483 1.15971 -1.21164 1.10949 -1.18351 1.09115 1.08738 1.08389
internal_weight=0 21.6964 16.1765 16.7383 5.81914 12.156 10.9191 9.65538 8.18286 6.48443 5.80687 3.76846 4.16811
internal_count=340 226 114 196 73 94 123 74 103 53 79 52 59
shrinkage=0.05


Tree=33
num_leaves=12
num_cat=0
split_feature=27 23 13 13 26 25 22 2 6 4 15
split_gain=22.5194 6.68019 2.46516 2.21326 0.313786 0.115376 0.00635259 0.00545423 0.000292347 0.000121279 2.64615e-05
threshold=0.11065000000000001 710.00000000000011 32.165000000000006 34.730000000000011 0.21640000000000004 0.23700000000000002 98.135000000000005 124.60000000000001 0.045315000000000008 0.083800000000000013 0.013015000000000001
decision_type=2 2 2 2 2 2 2 2 2 2 2
left_child=3 -2 -3 4 6 -4 8 -7 9 -1 -11
right_child=1 2 5 -5 -6 7 -8 -9 -10 10 -12
leaf_value=0.054318822372835029 0.032369720910809113 -0.021113071157715498 -0.070089033538710876 0.0074053965132551171 0.034429329149331743 -0.059988060993333009 0.057249830364500626 -0.057408047408900945 0.054767938907472502 0.053987917174476152 0.053757163500428945
leaf_weight=2.299354303628208 2.9701465666294125 5.4274541884660747 3.1709265932440749 3.6934783682227126 2.3059300743043414 4.8227988779544813 2.0345798581838599 3.5609854757785797 1.583407152444124 2.6549349278211594 2.3351155407726765
leaf_count=32 20 32 20 21 27 38 22 32 21 39 36
internal_value=0 -0.73619 -0.978176 0.832451 1.02374 -1.2393 1.0946 -1.17784 1.08304 1.08037 1.0776
internal_weight=0 19.9523 16.9822 16.9068 13.2133 11.5547 10.9074 8.38378 8.87281 7.2894 4.99005
internal_count=340 142 122 198 177 90 150 70 128 107 75
shrinkage=0.05


Tree=34
num_leaves=15
num_cat=0
split_feature=27 13 13 21 27 21 2 23 9 5 7 15 8 9
split_gain=20.9749 6.28668 2.18408 1.51685 2.3591 0.47164 0.193348 0.0080874 0.00377945 0.00132667 4.73915e-05 2.98391e-05 8.82879e-06 2.40512e-06
threshold=0.11065000000000001 23.330000000000002 34.730000000000011 26.250000000000004 0.16610000000000003 28.980000000000004 98.110000000000014 706.4000000000002 0.05957500000000001 0.10400000000000002 0.027755000000000002 0.013425000000000001 0.16110000000000002 0.063270000000000007
decision_type=2 2 2 2 2 2 2 2 2 2 2 2 2 2
left_child=2 -2 5 4 -3 7 -5 9 -8 10 11 12 -1 -13
right_child=1 3 -4 6 -6 -7 8 -9 -10 -11 -12 13 -14 -15
leaf_value=0.053866063962821599 0.019238712574942626 0.00076055757912297508 0.0070520331770215373 -0.072677189036594494 -0.061065902727926114 0.026656185696528875 -0.0592570142737621 0.057644946133034385 -0.056645970350509646 0.055274325829957754 0.05397352021937947 0.053486024770587254 0.053698192010355465 0.053584833552713977
leaf_weight=1.3252660930156728 4.085047788918021 2.9666489958763114 3.6848499178886405 3.4984922483563405 3.2149336561560631 1.7455634772777546 2.3869606852531433 1.8648887611925591 3.3047418519854546 1.730182062834501 1.6207172907888887 1.2180481031537058 1.9149311296641824 1.245719004422426
leaf_count=20 26 20 21 20 24 21 20 20 32 22 24 20 30 20
internal_value=0 -0.717877 0.818638 -1.01091 -0.627886 1.01578 -1.26854 1.09293 -1.15482 1.08058 1.0747 1.07334 1.07534 1.07072
internal_weight=0 19.4568 16.3502 15.3718 6.18158 12.6653 9.19019 10.9198 5.6917 9.05486 7.32468 5.70396 3.2402 2.46377
internal_count=340 142 198 116 44 177 72 156 52 136 114 90 50 40
shrinkage=0.05


Tree=35
num_leaves=15
num_cat=0
split_feature=23 29 15 16 29 16 20 9 20 17 21 25 5 4
split_gain=20.2358 6.76025 2.1642 4.91143 1.81507 0.438756 0.140228 0.0936461 0.142366 0.0057437 0.0017614 0.000563768 0.000168977 7.00008e-05
threshold=878.65000000000009 0.09525500000000002 0.012025000000000003 0.012615000000000003 0.07388500000000002 0.044180000000000004 15.505000000000001 0.056965000000000009 19.330000000000002 0.011385000000000001 28.095000000000002 0.15165000000000003 0.081245000000000012 0.083800000000000013
decision_type=2 2 2 2 2 2 2 2 2 2 2 2 2 2
left_child=1 2 3 13 -2 6 9 -6 -9 11 -10 -4 -13 -1
right_child=4 -3 5 -5 7 -7 -8 8 10 -11 -12 12 -14 -15
leaf_value=0.053924026022809504 -0.018249800278220211 -0.023051184478411743 0.054957730839704635 -0.048874978213871018 -0.05141278486895965 0.034828638934073564 0.068123159305372716 -0.070992950344753225 -0.058291936876934305 0.057429203668480755 -0.056390073219072315 0.053457593348476197 0.054196110074118925 0.053444078861679956
leaf_weight=1.7849680818617408 3.4782900139689437 5.0592591017484656 1.4801237247884254 1.8675715662539003 2.4518183693289739 2.2839615792036048 3.0245784372091293 3.0869317799806595 2.2856402397155762 1.8788742460310457 2.6048687249422073 1.8007465302944186 1.3591544888913629 1.3226932547986505
leaf_count=27 20 33 20 20 20 20 20 21 20 21 26 30 20 22
internal_value=0 0.552381 0.857515 0.304168 -0.99055 1.09028 1.1845 -1.19918 -1.25171 1.10194 -1.14558 1.08305 1.0755 1.07439
internal_weight=0 21.8619 16.8027 4.97523 13.9075 11.8274 9.54348 10.4293 7.97744 6.5189 4.89051 4.64002 3.1599 3.10766
internal_count=340 233 200 69 107 131 111 87 67 91 46 70 50 49
shrinkage=0.05


Tree=36
num_leaves=15
num_cat=0
split_feature=23 29 15 16 29 16 7 9 22 13 21 23 4 10
split_gain=18.8028 6.31126 2.08971 4.52629 1.80133 0.459449 0.133789 0.0973593 0.130911 0.00236587 0.00163367 0.00062039 5.97324e-05 1.18561e-05
threshold=878.65000000000009 0.09525500000000002 0.012025000000000003 0.012615000000000003 0.07388500000000002 0.044180000000000004 0.038020000000000005 0.056965000000000009 126.30000000000003 22.920000000000005 27.655000000000005 603.00000000000011 0.083800000000000013 0.23675000000000004
decision_type=2 2 2 2 2 2 2 2 2 2 2 2 2 2
left_child=1 2 3 12 -2 6 9 -6 -9 11 -10 13 -1 -4
right_child=4 -3 5 -5 7 -7 -8 8 10 -11 -12 -13 -14 -15
leaf_value=0.053718700233854291 -0.017396184083352917 -0.021892684125740927 0.053423455281587956 -0.044773387641475662 -0.050362023912809056 0.033538047871843162 0.067374871023205371 -0.070354385486303059 -0.057865224022387009 0.055845976883307259 -0.056011248913822177 0.054614655321132091 0.053264912644839783 0.053207716899363378
leaf_weight=1.7042399123311107 3.4668187722563735 5.0605961196124545 1.3059588409960259 1.9348922893404958 2.3796714469790441 2.2540375776588908 3.0099118053913116 2.8833090290427208 2.2039448618888855 2.1457319185137749 2.5782094150781631 1.4465756230056284 1.26230988278985 1.2429414317011831
leaf_count=27 20 33 22 20 20 20 20 20 20 27 27 20 22 22
internal_value=0 0.537732 0.840495 0.294422 -0.969436 1.07517 1.17479 -1.18393 -1.23879 1.09014 -1.13731 1.07575 1.07051 1.06637
internal_weight=0 21.3672 16.3066 4.90144 13.512 11.4052 9.15112 10.0451 7.66546 6.14121 4.78215 3.99548 2.96655 2.5489
internal_count=340 233 200 69 107 131 111 87 67 91 47 64 49 44
shrinkage=0.05


Tree=37
num_leaves=15
num_cat=0
split_feature=23 25 21 29 25 23 9 22 6 12 21 27 15 6
split_gain=17.4693 5.97328 2.33601 1.78609 1.4435 0.423928 0.101396 0.113228 0.0707713 0.00191651 0.00139192 0.000255281 7.18501e-05 8.24189e-06
threshold=878.65000000000009 0.37300000000000005 30.200000000000003 0.07388500000000002 0.084340000000000012 775.45000000000016 0.056965000000000009 126.30000000000003 0.079215000000000022 2.5930000000000004 27.655000000000005 0.093225000000000016 0.012025000000000003 0.038825000000000005
decision_type=2 2 2 2 2 2 2 2 2 2 2 2 2 2
left_child=1 2 4 -2 -1 8 -5 -8 9 11 -9 12 -6 -14
right_child=3 -3 -4 6 5 -7 7 10 -10 -11 -12 -13 13 -15
leaf_value=0.0049289856832146102 -0.016580799869063037 -0.032789414688274121 -0.011002518937945533 -0.049319744904798887 0.053524379413534939 0.035589934270207173 -0.069277327538424735 -0.057432953903416697 0.063688320284156108 0.055409568678412006 -0.055684072518463926 0.054003277743518631 0.053037469374829428 0.053205813909404931
leaf_weight=1.9471099153161107 3.455729328095912 3.5633510053157798 2.1104947552084914 2.3102409839630109 1.5029097869992236 3.3295874558389178 2.7842442467808723 2.1118361130356789 2.3968877643346786 1.5234536379575727 2.4665133208036423 1.4463690519332884 1.8847476728260519 1.1836665794253347
leaf_count=28 20 20 21 20 25 21 20 20 20 20 27 22 35 21
internal_value=0 0.523343 0.76586 -0.948708 0.90262 1.02062 -1.16917 -1.22652 1.12408 1.07651 -1.12982 1.06849 1.06482 1.06205
internal_weight=0 20.8886 17.3252 13.1286 15.2147 13.2676 9.67283 7.36259 9.93803 7.54115 4.57835 6.01769 4.57132 3.06841
internal_count=340 233 213 107 192 164 87 67 143 123 47 103 81 56
shrinkage=0.05


Tree=38
num_leaves=15
num_cat=0
split_feature=23 29 15 7 29 17 9 20 20 17 21 25 6 21
split_gain=16.2356 5.63027 2.01667 3.62584 1.76952 0.477902 0.105798 0.101838 0.0923216 0.00208001 0.00109843 0.000385683 9.94377e-05 7.50625e-05
threshold=878.65000000000009 0.09525500000000002 0.012025000000000003 0.020290000000000006 0.07388500000000002 0.015410000000000002 0.056965000000000009 15.505000000000001 19.330000000000002 0.011340000000000001 28.095000000000002 0.15165000000000003 0.040375000000000001 23.055000000000003
decision_type=2 2 2 2 2 2 2 2 2 2 2 2 2 2
left_child=1 2 3 13 -2 7 -6 9 -8 11 -10 -4 -13 -1
right_child=4 -3 5 -5 6 -7 8 -9 10 -11 -12 12 -14 -15
leaf_value=0.05314578300925038 -0.015802010426028138 -0.020652172735507505 0.05425401264547193 -0.034519311490341147 -0.048284563527106784 0.032253444914986711 -0.067848066627100564 0.065840914824796481 -0.057000475152199206 0.055755323822462989 -0.055397261129715936 0.052965846005460365 0.053573566483971519 0.053686658537802967
leaf_weight=1.3281821124255686 3.4450202584266654 4.9895976074039927 1.3666034899651984 2.1570352129638195 2.2434919849038106 2.2874755263328543 2.7781974002718925 2.7898143194615841 2.011106476187706 1.4760852977633474 2.2792103514075279 1.5709906406700613 1.1777051351964472 1.2406355068087576
leaf_count=24 20 33 21 25 20 20 21 20 20 20 26 30 20 20
internal_value=0 0.510099 0.809304 0.265491 -0.92836 1.05019 -1.15489 1.16076 -1.21494 1.0829 -1.12298 1.07135 1.06452 1.06814
internal_weight=0 20.3841 15.3945 4.72585 12.757 10.6687 9.31201 8.3812 7.06851 5.59138 4.29032 4.1153 2.7487 2.56882
internal_count=340 233 200 69 107 131 87 111 67 91 46 71 50 44
shrinkage=0.05


Tree=39
num_leaves=16
num_cat=0
split_feature=26 21 23 13 15 6 21 20 22 21 15 6 4 5 9
split_gain=15.2203 7.34148 9.11895 2.38355 1.74616 2.42346 0.79591 0.0574246 0.0445921 0.000304502 0.000117444 0.000154673 8.12924e-05 3.21649e-05 2.88377e-06
threshold=0.20440000000000003 25.515000000000004 970.05000000000007 33.605000000000011 0.019285000000000004 0.10520000000000002 20.810000000000002 18.655000000000005 98.855000000000018 28.840000000000003 0.011885000000000001 0.019730000000000004 0.10075000000000002 0.085000000000000006 0.061260000000000002
decision_type=2 2 2 2 2 2 2 2 2 2 2 2 2 2 2
left_child=3 2 6 8 -3 -6 -2 -7 9 10 11 -1 -9 14 -12
right_child=1 4 -4 -5 5 7 -8 12 -10 -11 13 -13 -14 -15 -16
leaf_value=0.052961300184142072 0.067522308429615652 -0.088876019916433402 -0.061695286903778485 0.0060979638908894912 -3.3561094958105723e-05 -0.064650637059857588 0.028397774833683154 -0.055439563190098684 0.061926229232889089 0.053915581468104337 0.052797178614036627 0.053716178000368812 -0.054967829904339342 0.053078297119274281 0.052675953757076059
leaf_weight=1.4692155681550487 2.4968294911086577 2.8241904303431502 3.0514413118362427 3.4470860175788394 2.3367497436702234 2.8771631643176079 2.7115715704858303 1.8492576852440836 1.8611185103654859 1.3135673515498636 0.99972902238368999 1.2609860524535177 1.8043564185500143 1.0714624077081678 0.96329980343580235
leaf_count=28 21 20 25 22 20 20 21 21 20 20 20 20 22 20 20
internal_value=0 -0.582872 0.138828 0.828385 -1.09273 -0.874635 0.94307 -1.18734 1.10079 1.06457 1.06144 1.0662 -1.10413 1.05716 1.05475
internal_weight=0 19.9516 8.25984 12.3865 11.6917 8.86753 5.2084 6.53078 8.93938 7.07826 5.76469 2.7302 3.65361 3.03449 1.96303
internal_count=340 170 67 170 103 83 42 63 148 128 108 48 43 60 40
shrinkage=0.05


Tree=40
num_leaves=14
num_cat=0
split_feature=23 27 10 21 18 19 25 7 21 7 18 25 15
split_gain=18.4009 3.92849 1.7751 1.70035 0.662295 1.11327 0.143504 0.0304997 0.0031366 0.00133176 0.000809473 0.000242294 3.28213e-05
threshold=892.80000000000007 0.14695000000000003 0.37020000000000003 29.180000000000003 0.015765000000000005 0.0024050000000000005 0.22995000000000002 0.034975000000000006 26.990000000000006 0.021990000000000003 0.022215000000000002 0.39085000000000009 0.012485000000000001
decision_type=2 2 2 2 2 2 2 2 2 2 2 2 2
left_child=1 3 -2 4 5 -1 -4 9 -8 12 -11 -10 -6
right_child=2 -3 6 -5 7 -7 8 -9 11 10 -12 -13 -14
leaf_value=0.057779549546379011 -0.013221211284011013 -0.017064371464768146 -0.069765467323860852 0.0041468279061586868 0.05296363374374452 0.001576717226597797 -0.057586592285247921 0.059345328021242365 -0.05554214363859325 0.053544186771341401 0.055153292888312 -0.054705751363682803 0.05263379376500537
leaf_weight=1.8098005354404514 2.5571727827191344 3.4425510317087165 2.9079440236091596 2.512523226439952 1.6114549227058872 1.717042129486799 2.0694990232586861 3.6039069928228855 1.7416028231382372 1.7150279618799689 1.4359972588717935 1.7220717519521711 1.417754106223583
leaf_count=24 20 20 20 28 31 20 20 35 20 30 20 22 30
internal_value=0 0.626829 -0.994333 0.837451 0.97987 0.608344 -1.21545 1.11379 -1.12093 1.07116 1.08555 -1.10253 1.05619
internal_weight=0 19.2661 10.9983 15.8235 13.311 3.52684 8.44112 9.78414 5.53317 6.18023 3.15103 3.46367 3.02921
internal_count=340 238 102 218 190 44 82 146 62 111 50 42 61
shrinkage=0.05


Tree=41
num_leaves=15
num_cat=0
split_feature=23 27 21 12 18 19 25 27 12 21 27 26 6 15
split_gain=17.159 3.69644 1.65965 1.46857 0.670844 1.07766 0.104222 0.0223826 0.00669519 0.00236083 0.000563566 0.000171625 5.85559e-05 1.92892e-05
threshold=892.80000000000007 0.14695000000000003 29.180000000000003 2.5820000000000003 0.015765000000000005 0.0024050000000000005 0.23220000000000002 0.10835000000000002 2.7290000000000005 27.235000000000003 0.083020000000000024 0.55460000000000009 0.029845000000000003 0.012485000000000001
decision_type=2 2 2 2 2 2 2 2 2 2 2 2 2 2
left_child=1 2 4 -2 5 -1 -5 8 10 -8 12 -11 13 -6
right_child=3 -3 -4 6 7 -7 9 -9 -10 11 -12 -13 -14 -15
leaf_value=0.057410230323747161 -0.017175183290922217 -0.016295975279071385 0.0039506272859045821 -0.06766283946092605 0.052738031229667304 0.0014995613818176647 -0.056908021417734538 0.059517452154750572 0.056786860745365264 -0.055084073317297061 0.053921946908110946 -0.054348119270572294 0.053038909005175716 0.052450563169390785
leaf_weight=1.7323301434516971 2.726279288530348 3.4250888973474494 2.5056189745664588 2.7148862406611443 1.555990770459174 1.7151677235960958 2.0366782173514366 2.4364038482308388 1.5945887528359888 1.630443871021271 1.4816825129091737 1.5407816693186758 1.3526073545217512 0.93372279405593861
leaf_count=24 20 20 28 20 32 20 21 22 20 20 25 21 26 21
internal_value=0 0.613178 0.823295 -0.976564 0.968961 0.591881 -1.1944 1.10792 1.0789 -1.11159 1.06187 -1.09453 1.05548 1.0526
internal_weight=0 18.7332 15.3081 10.6491 12.8025 3.4475 7.92279 9.355 6.91859 5.2079 5.324 3.17123 3.84232 2.48971
internal_count=340 238 218 102 190 44 82 146 124 62 104 41 79 53
shrinkage=0.05


Tree=42
num_leaves=14
num_cat=0
split_feature=22 21 22 23 2 25 9 23 7 20 17 21 15
split_gain=16.02 4.96536 5.85496 0.900568 2.75784 0.432818 0.449986 0.206637 0.0479582 0.0164974 0.000566215 0.000104539 3.62815e-05
threshold=102.40000000000002 25.515000000000004 119.25000000000001 552.65000000000009 81.825000000000017 0.23220000000000002 0.061835000000000008 687.05000000000007 0.033870000000000004 18.655000000000005 0.011205000000000001 26.490000000000006 0.012045000000000002
decision_type=2 2 2 2 2 2 2 2 2 2 2 2 2
left_child=3 2 -2 8 -5 -3 -7 -6 10 -8 11 12 -1
right_child=1 5 -4 4 7 6 9 -9 -10 -11 -12 -13 -14
leaf_value=0.052770327971644729 0.038749517368465089 -0.07060624783069773 -0.057836170754779648 -0.028002423889907938 0.059197599965460583 -0.030704487192859949 -0.060883608348322807 0.03529858897724595 0.062111418174131829 -0.054238097445121758 0.054010658123552706 0.053198968362460568 0.052393351854190487
leaf_weight=1.5562562122941042 4.0781004428863517 3.0165237039327604 2.5502837747335434 1.5394785143434999 2.5813891030848031 2.4285823106765747 2.2860296070575719 1.3922750949859617 2.0950194373726845 1.5789311528205869 1.2632369585335252 1.0838958099484441 1.082026060670614
leaf_count=32 26 20 24 22 38 29 20 21 20 22 21 20 25
internal_value=0 -0.629732 0.0317597 0.879303 0.576253 -1.10069 -0.951414 1.01648 1.11527 -1.16338 1.06192 1.05571 1.05231
internal_weight=0 15.9385 6.62838 12.5936 5.51314 9.31007 6.29354 3.97366 7.08043 3.86496 4.98542 3.72218 2.63828
internal_count=340 141 50 199 81 91 71 59 118 42 98 77 57
shrinkage=0.05


Tree=43
num_leaves=14
num_cat=0
split_feature=23 6 18 21 8 21 21 24 7 20 7 24 15
split_gain=15.0541 4.75148 1.869 1.96502 3.82631 0.439539 0.242231 0.271881 0.107071 0.088512 0.00233976 0.000182791 2.18272e-05
threshold=926.6500000000002 0.11920000000000001 0.016490000000000001 20.810000000000002 0.15810000000000005 25.475000000000005 25.810000000000006 0.12565000000000001 0.07746500000000002 14.485000000000001 0.026405000000000001 0.13950000000000004 0.012485000000000001
decision_type=2 2 2 2 2 2 2 2 2 2 2 2 2
left_child=1 2 3 -1 -5 -2 9 -8 -7 10 12 -10 -4
right_child=5 -3 6 4 -6 8 7 -9 11 -11 -12 -13 -14
leaf_value=0.060658874162120027 -0.036456889662605331 -0.028861197565519581 0.052587478027009554 0.057343034483864179 -0.038385203968768059 -0.067927761337156167 0.056366593109555829 0.025059477903150114 -0.054604681357911855 0.066006075032726708 0.054701373282923141 -0.053865684330357502 0.052278864411165304
leaf_weight=1.8200443908572257 2.9647359028458578 3.16598817706108 1.2860123738646492 1.7089261822402475 2.6822174526751041 2.4967753775417805 1.3160120062530043 1.465979717671871 1.760895796120167 2.0735645145177841 2.296866562217474 1.5944709926843641 1.0332829989492891
leaf_count=25 26 23 28 22 28 20 20 21 23 20 35 24 25
internal_value=0 0.540231 0.765817 0.339514 -0.0226021 -1.04283 1.04537 0.797384 -1.20175 1.1485 1.0714 -1.08507 1.049
internal_weight=0 18.8489 15.6829 6.21119 4.39114 8.81688 9.47172 2.78199 5.85214 6.68973 4.61616 3.35537 2.3193
internal_count=340 247 224 75 50 93 149 41 67 108 88 47 53
shrinkage=0.05


Tree=44
num_leaves=14
num_cat=0
split_feature=22 21 22 23 2 28 25 23 9 7 21 27 15
split_gain=14.2834 4.45567 5.23817 0.930546 2.58253 0.443213 0.434451 0.20721 0.125239 0.0420262 0.000502226 0.000128277 1.33989e-05
threshold=102.40000000000002 25.515000000000004 119.25000000000001 552.65000000000009 81.825000000000017 0.26480000000000009 0.33040000000000008 687.05000000000007 0.063370000000000024 0.033870000000000004 26.990000000000006 0.069535000000000013 0.012485000000000001
decision_type=2 2 2 2 2 2 2 2 2 2 2 2 2
left_child=3 2 -2 9 -5 -3 -7 -6 -8 10 11 12 -1
right_child=1 5 -4 4 7 6 8 -9 -10 -11 -12 -13 -14
leaf_value=0.05240801605619632 0.036816735670041248 -0.033518765733183964 -0.05714960792225518 -0.0271631665878692 0.058606596646475634 -0.076191222677398848 -0.038352879516495013 0.033887138260103596 -0.056474953646596854 0.06155222668753825 0.053682663488539228 0.052979607851251304 0.052162302172553271
leaf_weight=1.3367948792874838 3.9438448436558238 2.0888717919588071 2.3770126402378082 1.541357200592756 2.3930060341954236 2.5379660539329052 1.4965777397155759 1.3128598630428312 2.6266712844371796 1.9827106557786462 1.274146683514118 1.0233742818236349 0.94846186786890019
leaf_count=31 26 20 24 22 38 20 20 21 31 20 22 21 24
internal_value=0 -0.610144 0.0295977 0.858495 0.544543 -1.07228 -1.19831 0.996987 -0.997947 1.10941 1.05678 1.05029 1.04612
internal_weight=0 15.0709 6.32086 11.8127 5.24722 8.75009 6.66122 3.70587 4.12325 6.56549 4.58278 3.30863 2.28526
internal_count=340 141 50 199 81 91 71 59 51 118 98 76 55
shrinkage=0.05


Tree=45
num_leaves=14
num_cat=0
split_feature=23 26 21 7 21 7 22 19 9 12 19 24 22
split_gain=11.8083 5.38527 2.06455 3.8706 0.658083 0.0900976 0.0890045 0.00405882 0.000467476 0.00015841 5.97247e-05 4.50127e-05 2.47933e-05
threshold=784.1500000000002 0.23140000000000002 23.215000000000003 0.028905000000000004 24.195000000000004 0.038020000000000005 122.95000000000002 0.0030620000000000005 0.057125000000000002 2.1110000000000002 0.0020560000000000005 0.14450000000000005 84.385000000000005
decision_type=2 2 2 2 2 2 2 2 2 2 2 2 2
left_child=2 -2 5 7 -3 9 -6 10 -8 12 -4 -10 -1
right_child=1 4 3 -5 6 -7 8 -9 11 -11 -12 -13 -14
leaf_value=0.052085036272785372 0.019062265134068928 -0.029971553443648932 0.053021449254109003 -0.019258363663617398 -0.065253825905660381 0.065704408747703655 -0.054779145887775042 0.056212039726590904 -0.053919122191504722 0.052968627569697592 0.052493697295139731 -0.053536818698514989 0.05240499473907443
leaf_weight=1.1428840830922151 3.7904755845665923 2.8057254478335363 0.98929713666439123 3.6644339300692081 2.8801373951137066 2.0155785866081715 1.5129973441362379 1.3734970837831495 1.3931639455258849 1.141353230923414 1.1701996251940725 1.7211474850773809 1.2875800915062425
leaf_count=30 23 21 20 34 22 20 20 20 21 24 27 28 30
internal_value=0 -0.63802 0.688956 0.334892 -1.01264 1.14505 -1.16706 1.08174 -1.08116 1.04965 1.05471 -1.07416 1.04509
internal_weight=0 14.1036 12.7848 7.19743 10.3132 5.5874 7.50745 3.53299 4.62731 3.57182 2.1595 3.11431 2.43046
internal_count=340 135 205 101 112 104 91 67 69 84 47 49 60
shrinkage=0.05


Tree=46
num_leaves=14
num_cat=0
split_feature=23 26 21 4 13 21 25 22 17 13 9 24 20
split_gain=10.9808 5.05672 2.01313 3.45022 1.54513 0.687925 0.0774542 0.0760329 0.00916784 0.000498582 0.000399374 3.84016e-05 2.53061e-05
threshold=784.1500000000002 0.23140000000000002 23.215000000000003 0.093815000000000023 22.565000000000001 24.195000000000004 0.24275000000000005 122.95000000000002 0.0098730000000000016 23.930000000000003 0.057125000000000002 0.14450000000000005 12.825000000000001
decision_type=2 2 2 2 2 2 2 2 2 2 2 2 2
left_child=2 -2 6 8 -5 -3 9 -7 -4 12 -9 -12 -1
right_child=1 5 3 4 -6 7 -8 10 -10 -11 11 -13 -14
leaf_value=0.051995542458905641 0.018173924693320909 -0.028661749872504812 0.052543858309999886 0.019100922748819017 -0.043819151615264049 -0.064406128607825283 0.065302654650210068 -0.054527403728731862 0.057961339534970895 0.053412281422178548 -0.053713954842381742 -0.053352544376335964 0.052327110050464636
leaf_weight=1.133958719670775 3.777310471981763 2.7877177670598012 1.4851379171013834 1.8026503995060923 2.1270271018147469 2.7748133949935436 1.8176357410848138 1.4456840083003042 1.6469412446022031 1.2252472043037412 1.3301523886621001 1.6427179351449011 1.1684319116175172
leaf_count=31 23 21 34 26 21 22 20 20 20 25 21 28 28
internal_value=0 -0.622002 0.675363 0.324909 -0.29912 -0.994954 1.13836 -1.15839 1.10785 1.05195 -1.07691 -1.07029 1.04328
internal_weight=0 13.7584 12.407 7.06176 3.92968 9.98109 5.34527 7.19337 3.13208 3.52764 4.41855 2.97287 2.30239
internal_count=340 135 205 101 47 112 104 91 54 84 69 49 59
shrinkage=0.05


Tree=47
num_leaves=14
num_cat=0
split_feature=23 26 21 7 21 7 22 7 9 21 12 28 22
split_gain=10.213 4.74866 1.96005 3.56365 0.716544 0.0675418 0.0649815 0.00284266 0.000341343 0.000169849 0.000115228 2.1171e-05 1.75655e-05
threshold=784.1500000000002 0.23140000000000002 23.215000000000003 0.028905000000000004 24.195000000000004 0.038020000000000005 122.95000000000002 0.021990000000000003 0.057125000000000002 27.125000000000004 2.1110000000000002 0.31855000000000006 84.385000000000005
decision_type=2 2 2 2 2 2 2 2 2 2 2 2 2
left_child=2 -2 5 7 -3 10 -6 9 -8 -4 12 -10 -1
right_child=1 4 3 -5 6 -7 8 -9 11 -11 -12 -13 -14
leaf_value=0.051878978724747962 0.017325018203034125 -0.027400691640394787 0.052034947337917831 -0.018134924218675109 -0.063611020648095262 0.064163756287952275 -0.054289873664302525 0.05551381168408899 -0.05347242630636511 0.0529709267035849 0.052667900171550069 -0.053199127312464026 0.052161673939119219
leaf_weight=1.0380435734987283 3.7646072283387175 2.7706623412668687 0.95390984229743503 3.655552938580513 2.6716378480195999 1.8708769176155327 1.3810416907072065 1.3270762860774992 1.3732358366250994 0.98538773134350754 1.0359839797019956 1.4640962816774843 1.1675375811755655
leaf_count=30 23 21 26 34 22 20 20 21 23 20 24 26 30
internal_value=0 -0.606225 0.662387 0.315552 -0.977487 1.13198 -1.15019 1.07461 -1.0729 1.05021 1.04466 -1.06663 1.04057
internal_weight=0 13.4253 12.0344 6.92193 9.66067 5.11244 6.89001 3.26637 4.21837 1.9393 3.24157 2.83733 2.20558
internal_count=340 135 205 101 112 104 91 67 69 46 84 49 60
shrinkage=0.05


Tree=48
num_leaves=16
num_cat=0
split_feature=3 29 22 21 21 25 3 11 22 9 16 13 27 6 15
split_gain=9.57374 4.48243 3.41823 1.79317 1.5764 0.914466 0.72785 0.670699 0.0401501 0.00861388 0.00260796 0.000374411 0.000115852 2.48721e-05 4.84766e-06
threshold=689.85000000000014 0.092790000000000025 98.855000000000018 24.195000000000004 29.180000000000003 0.084340000000000012 829.85000000000002 1.4315000000000002 102.40000000000002 0.058890000000000005 0.032535000000000008 26.705000000000002 0.086355000000000015 0.029845000000000003 0.012485000000000001
decision_type=2 2 2 2 2 2 2 2 2 2 2 2 2 2 2
left_child=1 4 -3 -2 5 -1 -5 9 10 -8 11 12 13 14 -7
right_child=3 2 -4 6 -6 8 7 -9 -10 -11 -12 -13 -14 -15 -16
leaf_value=0.0045962273174259011 -0.0038887186714048252 0.027827969495815799 -0.060568658115987328 -0.075909984705192418 -0.00016543674117115676 0.051930705510578302 -0.058578956264059762 -0.016348718630477016 0.060541167169940985 -0.053110019341799833 0.055013794393069242 0.053248396386187682 0.052634226056933221 0.052164053928718271 0.051751476839683001
leaf_weight=0.99576688557863491 2.5210485272109491 2.0779437310993663 2.3087140247225761 2.3292771130800247 1.9112315885722626 0.70624723844230064 1.5871433801949026 1.67205523699522 2.5702384412288666 1.3178288191556928 1.2164391148835418 0.98016675189137437 0.86081878840923298 0.92405614629387844 0.80994162149727345
leaf_count=22 20 20 20 20 24 20 20 21 20 24 20 20 20 24 25
internal_value=0 0.480512 -0.37391 -0.799627 0.822024 0.996059 -1.06313 -0.83154 1.10765 -1.12196 1.05942 1.04781 1.04271 1.03919 1.0367
internal_weight=0 15.3616 4.38666 9.42735 10.9749 9.06367 6.9063 4.57703 8.06791 2.90497 5.49767 4.28123 3.30106 2.44025 1.51619
internal_count=340 235 40 105 195 171 85 65 149 44 129 109 89 69 45
shrinkage=0.05


Tree=49
num_leaves=13
num_cat=0
split_feature=23 21 21 7 21 17 5 7 17 17 21 15
split_gain=8.98166 4.47358 1.88195 3.36371 1.02812 1.24109 0.217055 0.0541976 0.00317427 0.000102361 7.88883e-05 8.38864e-06
threshold=784.1500000000002 22.810000000000006 23.215000000000003 0.028905000000000004 29.180000000000003 0.012420000000000002 0.11935000000000003 0.038020000000000005 0.0092780000000000015 0.010485000000000003 27.430000000000003 0.011740000000000002
decision_type=2 2 2 2 2 2 2 2 2 2 2 2
left_child=2 -2 7 8 5 -3 -6 9 10 11 -4 -1
right_child=1 4 3 -5 6 -7 -8 -9 -10 -11 -12 -13
leaf_value=0.051945343993911292 0.016412471531472739 -0.0034500694731503358 0.051931601182444123 -0.017872767644384245 -0.075369483836218332 -0.056173260466218969 -0.053315422331194663 0.06311364778379229 0.055547808949397683 0.052482225044143155 0.052589952706580179 0.051744697484024896
leaf_weight=0.99239729531109599 3.7971612699329844 2.1066534593701345 0.9374381806701424 3.5959290638566017 2.4278352968394756 2.3740778155624866 2.0642472170293331 1.7543647661805151 1.2186956014484165 0.88268588855862595 0.8842226080596447 1.0964540485292671
leaf_count=28 25 20 27 34 20 33 37 20 20 22 20 34
internal_value=0 -0.581595 0.640627 0.297186 -0.966628 -0.6277 -1.3047 1.1229 1.07145 1.04062 1.04502 1.0368
internal_weight=0 12.77 11.3622 6.63629 8.97281 4.48073 4.49208 4.7259 3.04036 2.97154 1.82166 2.08885
internal_count=340 135 205 101 110 53 57 104 67 84 47 62
shrinkage=0.05


end of trees

feature importances:
worst_texture=93
worst_perimeter=53
mean_concave_points=51
worst_concave_points=40
worst_area=37
worst_compactness=29
worst_concavity=29
area_error=27
compactness_error=26
worst_smoothness=20
concave_points_error=19
worst_symmetry=19
texture_error=18
symmetry_error=18
mean_perimeter=17
mean_fractal_dimension=17
worst_radius=17
mean_concavity=16
mean_smoothness=15
smoothness_error=15
mean_compactness=14
fractal_dimension_error=14
mean_area=13
worst_fractal_dimension=13
perimeter_error=12
mean_symmetry=10
concavity_error=10
radius_error=9

parameters:
[boosting: gbdt]
[objective: binary]
[metric: auc]
[tree_learner: serial]
[device_type: cpu]
[data: ]
[valid: ]
[num_iterations: 100]
[learning_rate: 0.05]
[num_leaves: 31]
[num_threads: 0]
[max_depth: -1]
[min_data_in_leaf: 20]
[min_sum_hessian_in_leaf: 0.001]
[bagging_fraction: 0.8]
[pos_bagging_fraction: 1]
[neg_bagging_fraction: 1]
[bagging_freq: 5]
[bagging_seed: 3]
[feature_fraction: 0.9]
[feature_fraction_bynode: 1]
[feature_fraction_seed: 2]
[early_stopping_round: 0]
[first_metric_only: 0]
[max_delta_step: 0]
[lambda_l1: 0]
[lambda_l2: 0]
[min_gain_to_split: 0]
[drop_rate: 0.1]
[max_drop: 50]
[skip_drop: 0.5]
[xgboost_dart_mode: 0]
[uniform_drop: 0]
[drop_seed: 4]
[top_rate: 0.2]
[other_rate: 0.1]
[min_data_per_group: 100]
[max_cat_threshold: 32]
[cat_l2: 10]
[cat_smooth: 10]
[max_cat_to_onehot: 4]
[top_k: 20]
[monotone_constraints: ]
[feature_contri: ]
[forcedsplits_filename: ]
[forcedbins_filename: ]
[refit_decay_rate: 0.9]
[cegb_tradeoff: 1]
[cegb_penalty_split: 0]
[cegb_penalty_feature_lazy: ]
[cegb_penalty_feature_coupled: ]
[verbosity: 0]
[max_bin: 255]
[max_bin_by_feature: ]
[min_data_in_bin: 3]
[bin_construct_sample_cnt: 200000]
[histogram_pool_size: -1]
[data_random_seed: 1]
[output_model: LightGBM_model.txt]
[snapshot_freq: -1]
[input_model: ]
[output_result: LightGBM_predict_result.txt]
[initscore_filename: ]
[valid_data_initscores: ]
[pre_partition: 0]
[enable_bundle: 1]
[max_conflict_rate: 0]
[is_enable_sparse: 1]
[sparse_threshold: 0.8]
[use_missing: 1]
[zero_as_missing: 0]
[two_round: 0]
[save_binary: 0]
[header: 0]
[label_column: ]
[weight_column: ]
[group_column: ]
[ignore_column: ]
[categorical_feature: ]
[predict_raw_score: 0]
[predict_leaf_index: 0]
[predict_contrib: 0]
[num_iteration_predict: -1]
[pred_early_stop: 0]
[pred_early_stop_freq: 10]
[pred_early_stop_margin: 10]
[convert_model_language: ]
[convert_model: gbdt_prediction.cpp]
[num_class: 1]
[is_unbalance: 0]
[scale_pos_weight: 1]
[sigmoid: 1]
[boost_from_average: 1]
[reg_sqrt: 0]
[alpha: 0.9]
[fair_c: 1]
[poisson_max_delta_step: 0.7]
[tweedie_variance_power: 1.5]
[max_position: 20]
[lambdamart_norm: 1]
[label_gain: ]
[metric_freq: 1]
[is_provide_training_metric: 0]
[eval_at: ]
[multi_error_top_k: 1]
[num_machines: 1]
[local_listen_port: 12400]
[time_out: 120]
[machine_list_filename: ]
[machines: ]
[gpu_platform_id: -1]
[gpu_device_id: -1]
[gpu_use_dp: 0]

end of parameters

pandas_categorical:[]
