tree
version=v3
num_class=1
num_tree_per_iteration=1
label_index=0
max_feature_idx=29
objective=binary sigmoid:1
feature_names=mean_radius mean_texture mean_perimeter mean_area mean_smoothness mean_compactness mean_concavity mean_concave_points mean_symmetry mean_fractal_dimension radius_error texture_error perimeter_error area_error smoothness_error compactness_error concavity_error concave_points_error symmetry_error fractal_dimension_error worst_radius worst_texture worst_perimeter worst_area worst_smoothness worst_compactness worst_concavity worst_concave_points worst_symmetry worst_fractal_dimension
feature_infos=12:13:11:14:10:15:19:9:16:20:17:18:8:21:23 18:17:19:16:21:15:20:14:22:23:13:25:12:24:28:26:27:29:10:11 [43.789999999999999:188.5] [143.5:2501] [0.062509999999999996:0.16339999999999999] [0.019380000000000001:0.31140000000000001] [0:0.42680000000000001] [0:0.20119999999999999] [0.106:0.30399999999999999] [0.049959999999999997:0.097439999999999999] [0.1115:2.8730000000000002] [0.36020000000000002:3.8959999999999999] [0.75700000000000001:21.98] [7.2279999999999998:542.20000000000005] [0.0026670000000000001:0.02333] [0.0022520000000000001:0.13539999999999999] [0:0.39600000000000002] [0:0.052789999999999997] [0.0078820000000000001:0.061460000000000001] [0.00089479999999999996:0.029839999999999998] [7.9299999999999997:36.039999999999999] [12.02:47.159999999999997] [50.409999999999997:251.19999999999999] [185.19999999999999:4254] [0.081250000000000003:0.22259999999999999] [0.034320000000000003:0.93789999999999996] [0:1.252] [0:0.29099999999999998] [0.1565:0.66379999999999995] [0.055039999999999999:0.17299999999999999]
tree_sizes=931 943 1152 1470 1783 1670 1677 1669 1678 1674 1569 1676

Tree=0
num_leaves=8
num_cat=0
split_feature=22 27 27 12 2 2 2
split_gain=256.214 28.1952 6.37615 0.756252 2.84217e-14 1.42109e-14 1.42109e-14
threshold=112.80000000000001 0.13495000000000004 0.13880000000000001 2.8760000000000008 130.60000000000002 87.105000000000004 119.90000000000002
decision_type=2 2 2 2 2 2 2
left_child=1 3 -2 5 6 -1 -4
right_child=2 -3 4 -5 -6 -7 -8
leaf_value=0.54977578756606049 0.40195275288853244 0.43151735982403799 0.33860002374102038 0.52865821118355649 0.33860002374102033 0.54977578756606049 0.33860002374102033
leaf_weight=33.384513840079308 4.7353920340538052 5.9192400425672522 11.601710483431821 4.7353920340538016 8.0501664578914625 7.1030880510807028 4.9721616357564917
leaf_count=141 20 25 49 20 34 30 21
internal_value=0 1.3131 -2.3932 1.58173 -2.59756 1.62595 -2.59756
internal_weight=0 51.1422 29.3594 45.223 24.624 40.4876 16.5739
internal_count=340 216 124 191 104 171 70
shrinkage=1


Tree=1
num_leaves=8
num_cat=0
split_feature=22 27 27 12 2 2 2
split_gain=228.844 26.149 5.40639 0.723555 1.42109e-14 1.42109e-14 7.10543e-15
threshold=112.80000000000001 0.13495000000000004 0.13880000000000001 2.8760000000000008 84.230000000000018 75.715000000000018 69.825000000000017
decision_type=2 2 2 2 2 2 2
left_child=1 3 -2 4 5 6 -1
right_child=2 -3 -4 -5 -6 -7 -8
leaf_value=0.078853958195601342 -0.062280737870963991 -0.034819070126880326 -0.1201490967920345 0.058039514584375167 0.078853958195601412 0.078853958195601412 0.078853958195601412
leaf_weight=7.8887344002723756 4.8033589124679592 5.9678480029106131 25.268787503242493 4.6663016080856314 9.9769288003444654 13.457252800464628 8.3527776002883893
leaf_count=34 20 25 104 20 43 58 36
internal_value=0 1.26879 -2.21812 1.53327 1.57708 1.57708 1.57708
internal_weight=0 50.3098 30.0721 44.342 39.6757 29.6988 16.2415
internal_count=340 216 124 191 171 128 70
shrinkage=0.05


Tree=2
num_leaves=10
num_cat=0
split_feature=22 7 22 11 7 5 4 10 2
split_gain=205.77 20.1707 4.61986 0.186929 0.0149271 0.00489961 0.000231484 0.000186329 7.10543e-15
threshold=112.80000000000001 0.049230000000000003 121.30000000000003 1.9230000000000003 0.070275000000000018 0.11120000000000001 0.11315000000000001 0.36405000000000004 83.185000000000016
decision_type=2 2 2 2 2 2 2 2 2
left_child=1 3 -2 5 -4 7 -6 8 -1
right_child=2 -3 4 -5 6 -7 -8 -9 -10
leaf_value=0.076666102830011115 -0.06278509105065283 -0.01000502706208189 -0.11538190488663598 0.066414509697048416 -0.11220739310252309 0.078460237145001721 -0.11260189135088822 0.077011655888197472 0.076666102830011129
leaf_weight=18.601014763116844 5.6366711705923107 8.2358207702636701 4.9078950881958034 4.774960830807685 15.069502025842668 4.6080627143383017 4.9367046803235999 4.5537623465061179 8.6199824512004835
leaf_count=82 23 35 20 21 61 20 20 20 38
internal_value=0 1.22846 -2.07325 1.51432 -2.25822 1.53873 -2.24609 1.53431 1.53332
internal_weight=0 49.3936 30.5508 41.1578 24.9141 36.3828 20.0062 31.7748 27.221
internal_count=340 216 124 181 101 160 81 140 120
shrinkage=0.05


Tree=3
num_leaves=13
num_cat=0
split_feature=22 27 27 11 7 23 12 7 9 4 12 3
split_gain=185.96 23.5162 4.54984 0.697921 0.00478871 0.00441331 0.000319103 1.07499e-05 4.824e-07 4.51724e-07 1.34387e-08 7.10543e-15
threshold=112.80000000000001 0.13495000000000004 0.13880000000000001 1.9230000000000003 0.039205000000000011 1091.5000000000002 2.5530000000000004 0.084025000000000016 0.065770000000000009 0.11075000000000002 2.0865000000000005 465.75000000000006
decision_type=2 2 2 2 2 2 2 2 2 2 2 2
left_child=1 3 -2 4 6 -4 8 -7 10 -9 11 -1
right_child=2 -3 5 -5 -6 7 -8 9 -10 -11 -12 -13
leaf_value=0.074698123021143065 -0.053455673931249184 -0.033074081148896026 -0.10720273853793261 0.054913582343709591 0.076492155666662981 -0.10551650959176957 0.075140296834218773 -0.10560463350751387 0.074680815232179273 -0.1055866874891232 0.074695057455849131 0.074698123021143162
leaf_weight=8.8526755571365445 4.9198195338249233 6.0041431188583365 5.225608408451083 4.9062093347311011 4.5243694186210623 5.4849637895822552 4.6744845062494269 9.7225379794836027 5.3103419542312613 5.4846024811267844 4.4261513352394095 9.7379431128501874
leaf_count=40 20 25 21 22 20 22 21 39 24 22 20 44
internal_value=0 1.19086 -1.95073 1.45296 1.49933 -2.11809 1.49515 -2.11153 1.49389 -2.11196 1.49395 1.49396
internal_weight=0 48.4363 30.8375 42.4322 37.526 25.9177 33.0016 20.6921 28.3271 15.2071 23.0168 18.5906
internal_count=340 216 124 191 169 104 149 83 128 61 104 84
shrinkage=0.05


Tree=4
num_leaves=16
num_cat=0
split_feature=22 27 22 13 11 27 6 11 28 15 2 12 2 9 2
split_gain=169.272 14.6967 11.5771 0.178239 0.161526 0.0497214 0.00144878 0.000415477 0.000337378 1.21216e-05 2.24757e-06 1.70049e-07 5.62795e-09 2.8745e-11 3.55271e-15
threshold=107.75000000000001 0.13150000000000003 115.35000000000001 30.030000000000005 1.4795000000000003 0.15435000000000001 0.067805000000000018 1.6830000000000003 0.35710000000000003 0.020155000000000003 128.05000000000004 2.0490000000000004 85.450000000000017 0.062335000000000008 78.280000000000015
decision_type=2 2 2 2 2 2 2 2 2 2 2 2 2 2 2
left_child=1 3 -2 6 5 -4 7 9 10 11 -7 12 13 14 -1
right_child=2 -3 4 -5 -6 8 -8 -9 -10 -11 -12 -13 -14 -15 -16
leaf_value=0.072920440094529956 -0.020497889478793014 -0.020699633805499718 -0.10579803136711059 0.062440038238313483 -0.091646331861760258 -0.099980925589024938 0.073923068441527226 0.073460394724532474 -0.10047894570992665 0.073009312932202419 -0.10002336303770193 0.072909278626883428 0.07291840660319851 0.072920598240840503 0.072920440094530178
leaf_weight=4.3104675412178164 5.5495694726705542 4.7903069704771033 4.9758994877338472 4.3717196583747855 5.2448841184377661 6.4999973922967929 5.0306556224822989 4.3467538058757773 5.2494123429059973 4.3163456469774237 5.9999990314245224 4.7406559735536566 4.3103252351284018 4.3104786276817313 4.310467541217804
leaf_count=20 23 20 20 20 21 26 23 20 21 20 24 22 20 20 20
internal_value=0 1.24137 -1.72933 1.43938 -1.99111 -2.02762 1.46273 1.46015 -2.00285 1.45865 -2.00003 1.45835 1.4584 1.45841 1.45841
internal_weight=0 44.8382 33.5198 40.0479 27.9702 22.7253 35.6761 30.6455 17.7494 26.2987 12.5 21.9824 17.2417 12.9314 8.62094
internal_count=340 205 135 185 112 91 165 142 71 122 50 102 80 60 40
shrinkage=0.05


Tree=5
num_leaves=15
num_cat=0
split_feature=23 6 6 5 20 11 20 27 27 12 11 11 15 11
split_gain=155.223 18.6044 5.05542 0.272624 0.624067 0.217007 0.158194 0.0222339 0.00891725 0.00163228 0.000109934 3.2147e-05 1.03789e-06 4.00789e-07
threshold=782.85000000000014 0.082170000000000007 0.10435000000000001 0.058205000000000007 13.660000000000002 0.79430000000000012 18.275000000000002 0.10625000000000001 0.16195000000000001 2.5730000000000004 1.3995000000000002 1.4735000000000003 0.021600000000000005 0.92285000000000006
decision_type=2 2 2 2 2 2 2 2 2 2 2 2 2 2
left_child=2 -2 3 4 -1 -3 -7 9 -8 11 -10 12 13 -5
right_child=1 5 -4 7 -6 6 8 -9 10 -11 -12 -13 -14 -15
leaf_value=0.071512888198921334 0.0015728008577330203 -0.086923476483597814 0.013714028680405678 0.07130759726096593 0.04759314524007599 -0.1061374909358736 -0.097847916576450922 0.075388199662261068 -0.095250341458922957 0.072436888620070403 -0.09554513632124384 0.071466654722939213 0.071287309541410007 0.071328738042585701
leaf_weight=7.780643552541731 5.8837394267320624 5.2311261594295528 4.5651669800281516 4.8190422058105558 4.1981199830770493 4.9375026226043728 4.9899340122938183 4.6008440405130377 7.9801062643527967 4.2726534008979788 5.2385673522949219 4.2026292383670798 4.1888623535633078 4.1921226680278778
leaf_count=37 25 21 20 23 20 20 20 21 32 20 21 20 20 20
internal_value=0 -1.58687 1.26893 1.38763 1.2626 -1.92242 -1.96399 1.44463 -1.92094 1.43122 -1.90734 1.42692 1.42616 1.42635
internal_weight=0 34.261 42.8201 38.2549 11.9788 28.3772 23.1461 26.2762 18.2086 21.6753 13.2187 17.4027 13.2 9.01116
internal_count=340 139 201 181 57 114 93 124 73 103 53 83 63 43
shrinkage=0.05


Tree=6
num_leaves=15
num_cat=0
split_feature=22 21 6 24 22 23 15 25 12 9 26 9 11 17
split_gain=149.994 11.8029 2.0265 1.85465 0.322622 0.288743 0.580939 0.00985064 0.00124435 0.000103141 0.000100443 7.39857e-05 1.17598e-05 1.05092e-06
threshold=105.65000000000002 21.820000000000004 0.094175000000000023 0.12225000000000001 119.60000000000001 647.05000000000007 0.012505000000000002 0.30915000000000009 2.6295000000000006 0.067750000000000019 0.53995000000000015 0.058985000000000003 1.4180000000000001 0.0086805000000000025
decision_type=2 2 2 2 2 2 2 2 2 2 2 2 2 2
left_child=2 -2 5 -3 -5 8 -7 -6 9 11 -9 -1 13 -13
right_child=1 3 -4 4 7 6 -8 10 -10 -11 -12 12 -14 -15
leaf_value=0.070066768301202939 -0.005351199574969938 -0.061239595944190518 0.031940925474956021 -0.10603493158124094 -0.093794316897501978 0.046030371253479356 0.07187921490780691 -0.091427134451431177 0.070897527180440095 0.070189858311263328 -0.091157876957054185 0.069839357771839236 0.069926294419030241 0.069807012443523567
leaf_weight=5.7218901962041953 4.8734639734029761 4.8883234113454845 4.4476147890090934 5.1909644007682827 5.4632975012064007 4.1108031123876554 4.6126444190740585 6.6900004446506482 4.154785454273223 4.0943506062030783 7.1816849112510681 6.101243317127226 4.0749204307794562 4.2678480595350266
leaf_count=28 20 20 20 21 22 20 22 27 20 20 29 30 20 21
internal_value=0 -1.54843 1.27671 -1.78724 -1.89935 1.3531 1.19397 -1.83992 1.40196 1.39922 -1.82575 1.39829 1.39709 1.39652
internal_weight=0 34.2877 41.5861 29.4143 24.5259 37.1385 8.72345 19.335 28.415 24.2603 13.8717 20.1659 14.444 10.3691
internal_count=340 139 201 119 99 181 42 78 139 119 56 99 71 51
shrinkage=0.05


Tree=7
num_leaves=15
num_cat=0
split_feature=22 13 26 14 23 22 23 25 12 20 6 11 3 27
split_gain=137.595 11.4657 2.02448 1.15604 0.308065 0.566974 0.179586 0.0132495 0.0012141 0.00113369 0.000311314 5.79569e-05 2.75762e-05 3.2563e-07
threshold=105.65000000000002 29.295000000000005 0.33520000000000005 0.0047490000000000006 647.05000000000007 98.320000000000007 1031.5000000000002 0.26680000000000004 2.5655000000000006 23.100000000000005 0.059285000000000011 1.4895000000000003 485.45000000000005 0.068400000000000002
decision_type=2 2 2 2 2 2 2 2 2 2 2 2 2 2
left_child=2 -2 4 -3 8 -6 -5 -8 10 -9 11 12 13 -1
right_child=1 3 -4 6 5 -7 7 9 -10 -11 -12 -13 -14 -15
leaf_value=0.068498351976413407 -0.0068130016886524015 -0.065002561658965494 0.030230374567616861 -0.099664829345774392 0.044271313020149569 0.070154020121763694 -0.091148779261911519 -0.088672488640514815 0.069528715574558447 -0.08774957084463611 0.069059620715018172 0.0687511984069029 0.068644022758977394 0.068480031619907802
leaf_weight=6.3080152124166577 5.3574127405881873 5.1419922113418606 4.3694646209478369 4.9198766052722958 4.0075767487287504 4.4823473989963531 4.9385108947753933 5.6526758670806876 5.0443928241729727 8.0888873934745771 4.1890893131494513 3.9665689021348944 4.1542585194110861 3.9407041519880295
leaf_count=32 22 21 20 20 20 22 20 23 25 33 21 20 21 20
internal_value=0 -1.47936 1.24748 -1.7297 1.32531 1.15873 -1.82332 -1.77855 1.37655 -1.76258 1.37341 1.37164 1.37071 1.36983
internal_weight=0 34.0994 40.4624 28.7419 36.093 8.48992 23.6 18.6801 27.603 13.7416 22.5586 18.3695 14.403 10.2487
internal_count=340 139 201 117 181 42 96 76 139 56 114 93 73 52
shrinkage=0.05


Tree=8
num_leaves=15
num_cat=0
split_feature=22 21 6 4 23 5 22 14 4 10 9 9 2 14
split_gain=126.525 10.6103 1.99488 1.5675 0.291175 0.586367 0.21511 0.00344079 0.00093147 0.000723784 0.000166673 4.56597e-05 2.7729e-05 4.49821e-06
threshold=105.65000000000002 21.820000000000004 0.094175000000000023 0.09056500000000002 647.05000000000007 0.06616000000000001 121.30000000000003 0.0049650000000000007 0.10075000000000002 0.37480000000000008 0.067750000000000019 0.060355000000000006 79.305000000000021 0.0072865000000000004
decision_type=2 2 2 2 2 2 2 2 2 2 2 2 2 2
left_child=2 -2 4 -3 9 -6 -5 -8 -9 10 11 12 -1 -13
right_child=1 3 -4 6 5 -7 7 8 -10 -11 -12 13 -14 -15
leaf_value=0.067342441244599413 -0.0025352090202263168 -0.056497428391120014 0.029030165997195431 -0.096629141825682316 0.042736857427793068 0.069362848987146231 -0.086276825741921831 -0.0852359013333302 -0.084403209354409509 0.068127848926424178 0.067704858281035188 0.067254999288911807 0.067532607103109418 0.067321300740678186
leaf_weight=3.8238844126463034 4.8598478436470023 4.8675770610570934 4.3389171212911597 5.1844943314790752 3.9170254915952665 4.3797791004180908 4.8692988604307201 5.5732936710119239 8.4510461390018445 4.098010152578353 3.8586324602365485 7.0572660118341428 3.8439305871725082 4.0127994865179062
leaf_count=20 20 20 20 21 20 22 20 23 35 21 20 37 20 21
internal_value=0 -1.41796 1.22017 -1.64752 1.29947 1.13585 -1.75215 -1.70263 -1.69468 1.35033 1.34811 1.34688 1.34876 1.34558
internal_weight=0 33.8056 39.3302 28.9457 34.9913 8.2968 24.0781 18.8936 14.0243 26.6945 22.5965 18.7379 7.66781 11.0701
internal_count=340 139 201 119 181 42 99 78 58 139 118 98 40 58
shrinkage=0.05


Tree=9
num_leaves=15
num_cat=0
split_feature=22 13 7 14 20 7 21 6 13 6 11 23 27 5
split_gain=116.553 10.504 2.0813 1.08963 0.3978 0.120274 0.0116265 0.00657312 0.000291723 0.000272309 4.1974e-05 3.23361e-05 1.80743e-06 9.99777e-07
threshold=105.65000000000002 29.295000000000005 0.049230000000000003 0.0047490000000000006 14.470000000000001 0.07214000000000001 25.515000000000004 0.071160000000000015 26.575000000000003 0.16675000000000004 1.5960000000000003 578.25000000000011 0.081640000000000018 0.058850000000000006
decision_type=2 2 2 2 2 2 2 2 2 2 2 2 2 2
left_child=2 -2 4 -3 7 -5 -7 8 10 -8 11 12 13 -1
right_child=1 3 -4 5 -6 6 9 -9 -10 -11 -12 -13 -14 -15
leaf_value=0.066147138624461976 -0.003904497732750362 -0.059303053694838716 0.026696947377139315 -0.090818833172190083 0.053299418364008699 -0.084795176706207398 -0.082165934775982691 0.068526555762134123 0.066708484848415059 -0.08168116901431946 0.066377502382343051 0.066319199916530777 0.066120949989314698 0.066182365830582207
leaf_weight=4.4284797608852475 5.3511854559183112 5.0496566742658642 4.2398714125156394 6.3287217319011715 7.071575090289115 4.8258902877569225 5.0011755377054197 3.8945484161376944 3.7530264407396308 6.8851811289787292 3.7166069597005835 3.7099901288747779 3.6873203217983237 3.6943703442811966
leaf_count=24 22 21 20 26 37 20 21 20 20 29 20 20 20 20
internal_value=0 -1.36216 1.19454 -1.60677 1.27703 -1.69897 -1.65451 1.33254 1.3261 -1.6377 1.32453 1.32381 1.323 1.32326
internal_weight=0 33.4418 38.1958 28.0906 33.9559 23.041 16.7122 26.8843 22.9898 11.8864 19.2368 15.5202 11.8102 8.12285
internal_count=340 139 201 117 181 96 70 144 124 50 104 84 64 44
shrinkage=0.05


Tree=10
num_leaves=14
num_cat=0
split_feature=22 7 21 26 11 21 23 21 7 20 4 12 14
split_gain=100.813 10.7608 9.94246 3.01154 0.830309 0.253689 0.155456 0.00380809 0.00339922 0.00153029 0.000959815 6.6202e-05 8.65968e-06
threshold=104.55000000000001 0.063335000000000016 27.915000000000003 0.33870000000000006 1.9230000000000003 28.420000000000005 983.35000000000014 25.965000000000003 0.03142000000000001 14.525000000000002 0.097815000000000013 2.4085000000000005 0.006362500000000001
decision_type=2 2 2 2 2 2 2 2 2 2 2 2 2
left_child=3 2 -2 4 5 8 -3 -8 9 11 -9 12 -1
right_child=1 6 -4 -5 -6 -7 7 10 -10 -11 -12 -13 -14
leaf_value=0.065190750370943878 0.031759388643970814 -0.090080925600909967 -0.068749014582338883 0.016403935189838206 0.038638687360153724 0.05152460688871488 -0.081281419762985585 -0.080108592523989164 0.066832796330257918 0.06633089700910183 -0.079287982360682643 0.065390215830697485 0.065106130218677796
leaf_weight=5.7187221497297376 4.7762568145990354 4.8332673758268383 5.0749271363019943 4.2810807377099982 3.66272909939289 3.5999580621719351 4.7246481031179455 6.3303831964731208 5.4244818389415732 3.7088250070810309 8.1519872546195966 3.5983540266752234 6.4147738069295883
leaf_count=32 20 20 21 20 20 20 20 27 29 20 35 20 36
internal_value=0 -1.28061 -0.400369 1.11595 1.22093 1.2786 -1.64131 -1.60098 1.31452 1.30835 -1.59293 1.30404 1.30292
internal_weight=0 33.8915 9.85118 36.4089 32.1278 28.4651 24.0403 19.207 24.8652 19.4407 14.4824 15.7318 12.1335
internal_count=340 143 41 197 177 157 102 82 137 108 62 88 68
shrinkage=0.05


Tree=11
num_leaves=15
num_cat=0
split_feature=27 13 21 27 28 9 22 19 20 6 20 11 6 5
split_gain=94.3678 17.0934 2.6561 2.51055 0.694406 0.380198 0.209745 0.0990443 0.00772055 0.00270034 0.000752641 0.000224278 2.29728e-05 9.27075e-06
threshold=0.13880000000000001 36.045000000000009 31.575000000000003 0.16110000000000002 0.31980000000000003 0.070735000000000006 101.05000000000003 0.0045320000000000004 21.575000000000003 0.067805000000000018 14.470000000000001 1.5545000000000002 0.040840000000000008 0.060615000000000009
decision_type=2 2 2 2 2 2 2 2 2 2 2 2 2 2
left_child=1 2 4 -2 6 7 9 8 -5 10 11 12 13 -1
right_child=3 -3 -4 5 -6 -7 -8 -9 -10 -11 -12 -13 -14 -15
leaf_value=0.06424971871799906 -0.044267641342460667 -0.04426777651026681 0.020248954155869702 -0.080211143134429674 0.04403546719005047 -0.092218497242128772 0.07679775787686513 -0.070288251867194437 -0.077625528283188278 0.06595879204570454 0.065137341432270554 0.064690445044391573 0.064349913701128483 0.064150782096698222
leaf_weight=4.6596523523330848 6.5133853703737286 4.5159369409084311 3.9396755546331397 4.6708525717258507 3.9082679003477088 4.7010225653648368 4.2277788817882529 5.0475300401449195 7.5599602609872818 3.6422278136014929 3.564180299639701 3.5086661726236335 3.4642199426889411 4.8139699101448059
leaf_count=27 28 20 21 20 21 20 20 22 33 20 20 20 20 28
internal_value=0 0.947779 1.17948 -1.43063 1.27546 -1.59222 1.3308 -1.52362 -1.57226 1.29413 1.28957 1.28672 1.28479 1.28399
internal_weight=0 40.2446 35.7286 28.4928 31.789 21.9794 27.8807 17.2783 12.2308 23.6529 20.0107 16.4465 12.9378 9.47362
internal_count=340 217 197 123 176 95 155 75 53 135 115 95 75 55
shrinkage=0.05


end of trees

feature importances:
worst_perimeter=16
worst_concave_points=14
texture_error=13
mean_perimeter=11
mean_concavity=10
perimeter_error=9
mean_concave_points=8
worst_area=8
mean_fractal_dimension=7
worst_radius=7
worst_texture=7
mean_smoothness=5
mean_compactness=5
area_error=5
smoothness_error=5
compactness_error=3
worst_concavity=3
mean_area=2
radius_error=2
worst_compactness=2
worst_symmetry=2
concave_points_error=1
fractal_dimension_error=1
worst_smoothness=1

parameters:
[boosting: gbdt]
[objective: binary]
[metric: auc]
[tree_learner: serial]
[device_type: cpu]
[data: ]
[valid: ]
[num_iterations: 100]
[learning_rate: 0.05]
[num_leaves: 31]
[num_threads: 0]
[max_depth: -1]
[min_data_in_leaf: 20]
[min_sum_hessian_in_leaf: 0.001]
[bagging_fraction: 0.8]
[pos_bagging_fraction: 1]
[neg_bagging_fraction: 1]
[bagging_freq: 5]
[bagging_seed: 3]
[feature_fraction: 0.9]
[feature_fraction_bynode: 1]
[feature_fraction_seed: 2]
[early_stopping_round: 0]
[first_metric_only: 0]
[max_delta_step: 0]
[lambda_l1: 0]
[lambda_l2: 0]
[min_gain_to_split: 0]
[drop_rate: 0.1]
[max_drop: 50]
[skip_drop: 0.5]
[xgboost_dart_mode: 0]
[uniform_drop: 0]
[drop_seed: 4]
[top_rate: 0.2]
[other_rate: 0.1]
[min_data_per_group: 100]
[max_cat_threshold: 32]
[cat_l2: 10]
[cat_smooth: 10]
[max_cat_to_onehot: 4]
[top_k: 20]
[monotone_constraints: ]
[feature_contri: ]
[forcedsplits_filename: ]
[forcedbins_filename: ]
[refit_decay_rate: 0.9]
[cegb_tradeoff: 1]
[cegb_penalty_split: 0]
[cegb_penalty_feature_lazy: ]
[cegb_penalty_feature_coupled: ]
[verbosity: 0]
[max_bin: 255]
[max_bin_by_feature: ]
[min_data_in_bin: 3]
[bin_construct_sample_cnt: 200000]
[histogram_pool_size: -1]
[data_random_seed: 1]
[output_model: LightGBM_model.txt]
[snapshot_freq: -1]
[input_model: ]
[output_result: LightGBM_predict_result.txt]
[initscore_filename: ]
[valid_data_initscores: ]
[pre_partition: 0]
[enable_bundle: 1]
[max_conflict_rate: 0]
[is_enable_sparse: 1]
[sparse_threshold: 0.8]
[use_missing: 1]
[zero_as_missing: 0]
[two_round: 0]
[save_binary: 0]
[header: 0]
[label_column: ]
[weight_column: ]
[group_column: ]
[ignore_column: ]
[categorical_feature: ]
[predict_raw_score: 0]
[predict_leaf_index: 0]
[predict_contrib: 0]
[num_iteration_predict: -1]
[pred_early_stop: 0]
[pred_early_stop_freq: 10]
[pred_early_stop_margin: 10]
[convert_model_language: ]
[convert_model: gbdt_prediction.cpp]
[num_class: 1]
[is_unbalance: 0]
[scale_pos_weight: 1]
[sigmoid: 1]
[boost_from_average: 1]
[reg_sqrt: 0]
[alpha: 0.9]
[fair_c: 1]
[poisson_max_delta_step: 0.7]
[tweedie_variance_power: 1.5]
[max_position: 20]
[lambdamart_norm: 1]
[label_gain: ]
[metric_freq: 1]
[is_provide_training_metric: 0]
[eval_at: ]
[multi_error_top_k: 1]
[num_machines: 1]
[local_listen_port: 12400]
[time_out: 120]
[machine_list_filename: ]
[machines: ]
[gpu_platform_id: -1]
[gpu_device_id: -1]
[gpu_use_dp: 0]

end of parameters

pandas_categorical:[]
